digraph Tree {
node [shape=box] ;
0 [label="X[1] <= 0.962\ngini = 0.44\nsamples = 3836\nvalue = [2580, 1256]"] ;
1 [label="X[1] <= 0.867\ngini = 0.401\nsamples = 3223\nvalue = [2330, 893]"] ;
0 -> 1 [labeldistance=2.5, labelangle=45, headlabel="True"] ;
2 [label="X[4] <= 0.5\ngini = 0.355\nsamples = 1972\nvalue = [1517, 455]"] ;
1 -> 2 ;
3 [label="X[2] <= 11.0\ngini = 0.467\nsamples = 377\nvalue = [237, 140]"] ;
2 -> 3 ;
4 [label="X[1] <= 0.63\ngini = 0.21\nsamples = 67\nvalue = [59, 8]"] ;
3 -> 4 ;
5 [label="X[3] <= 7.0\ngini = 0.097\nsamples = 39\nvalue = [37, 2]"] ;
4 -> 5 ;
6 [label="X[0] <= 10.5\ngini = 0.444\nsamples = 3\nvalue = [2, 1]"] ;
5 -> 6 ;
7 [label="gini = 0.0\nsamples = 1\nvalue = [0, 1]"] ;
6 -> 7 ;
8 [label="gini = 0.0\nsamples = 2\nvalue = [2, 0]"] ;
6 -> 8 ;
9 [label="X[3] <= 21.0\ngini = 0.054\nsamples = 36\nvalue = [35, 1]"] ;
5 -> 9 ;
10 [label="gini = 0.0\nsamples = 26\nvalue = [26, 0]"] ;
9 -> 10 ;
11 [label="X[3] <= 23.0\ngini = 0.18\nsamples = 10\nvalue = [9, 1]"] ;
9 -> 11 ;
12 [label="gini = 0.0\nsamples = 1\nvalue = [0, 1]"] ;
11 -> 12 ;
13 [label="gini = 0.0\nsamples = 9\nvalue = [9, 0]"] ;
11 -> 13 ;
14 [label="X[1] <= 0.755\ngini = 0.337\nsamples = 28\nvalue = [22, 6]"] ;
4 -> 14 ;
15 [label="X[1] <= 0.657\ngini = 0.48\nsamples = 15\nvalue = [9, 6]"] ;
14 -> 15 ;
16 [label="X[1] <= 0.633\ngini = 0.278\nsamples = 6\nvalue = [5, 1]"] ;
15 -> 16 ;
17 [label="gini = 0.0\nsamples = 1\nvalue = [0, 1]"] ;
16 -> 17 ;
18 [label="gini = 0.0\nsamples = 5\nvalue = [5, 0]"] ;
16 -> 18 ;
19 [label="X[2] <= 7.0\ngini = 0.494\nsamples = 9\nvalue = [4, 5]"] ;
15 -> 19 ;
20 [label="gini = 0.0\nsamples = 2\nvalue = [2, 0]"] ;
19 -> 20 ;
21 [label="X[1] <= 0.681\ngini = 0.408\nsamples = 7\nvalue = [2, 5]"] ;
19 -> 21 ;
22 [label="gini = 0.0\nsamples = 3\nvalue = [0, 3]"] ;
21 -> 22 ;
23 [label="X[3] <= 13.0\ngini = 0.5\nsamples = 4\nvalue = [2, 2]"] ;
21 -> 23 ;
24 [label="gini = 0.0\nsamples = 1\nvalue = [0, 1]"] ;
23 -> 24 ;
25 [label="X[1] <= 0.698\ngini = 0.444\nsamples = 3\nvalue = [2, 1]"] ;
23 -> 25 ;
26 [label="gini = 0.0\nsamples = 1\nvalue = [1, 0]"] ;
25 -> 26 ;
27 [label="X[1] <= 0.713\ngini = 0.5\nsamples = 2\nvalue = [1, 1]"] ;
25 -> 27 ;
28 [label="gini = 0.0\nsamples = 1\nvalue = [0, 1]"] ;
27 -> 28 ;
29 [label="gini = 0.0\nsamples = 1\nvalue = [1, 0]"] ;
27 -> 29 ;
30 [label="gini = 0.0\nsamples = 13\nvalue = [13, 0]"] ;
14 -> 30 ;
31 [label="X[1] <= 0.745\ngini = 0.489\nsamples = 310\nvalue = [178, 132]"] ;
3 -> 31 ;
32 [label="X[3] <= 229.0\ngini = 0.467\nsamples = 234\nvalue = [147, 87]"] ;
31 -> 32 ;
33 [label="X[2] <= 49.0\ngini = 0.474\nsamples = 226\nvalue = [139, 87]"] ;
32 -> 33 ;
34 [label="X[3] <= 49.0\ngini = 0.448\nsamples = 133\nvalue = [88, 45]"] ;
33 -> 34 ;
35 [label="X[3] <= 13.0\ngini = 0.483\nsamples = 93\nvalue = [55, 38]"] ;
34 -> 35 ;
36 [label="X[1] <= 0.672\ngini = 0.231\nsamples = 15\nvalue = [13, 2]"] ;
35 -> 36 ;
37 [label="X[0] <= 5.0\ngini = 0.375\nsamples = 8\nvalue = [6, 2]"] ;
36 -> 37 ;
38 [label="gini = 0.0\nsamples = 1\nvalue = [0, 1]"] ;
37 -> 38 ;
39 [label="X[1] <= 0.621\ngini = 0.245\nsamples = 7\nvalue = [6, 1]"] ;
37 -> 39 ;
40 [label="gini = 0.0\nsamples = 4\nvalue = [4, 0]"] ;
39 -> 40 ;
41 [label="X[1] <= 0.641\ngini = 0.444\nsamples = 3\nvalue = [2, 1]"] ;
39 -> 41 ;
42 [label="gini = 0.0\nsamples = 1\nvalue = [0, 1]"] ;
41 -> 42 ;
43 [label="gini = 0.0\nsamples = 2\nvalue = [2, 0]"] ;
41 -> 43 ;
44 [label="gini = 0.0\nsamples = 7\nvalue = [7, 0]"] ;
36 -> 44 ;
45 [label="X[0] <= 71.0\ngini = 0.497\nsamples = 78\nvalue = [42, 36]"] ;
35 -> 45 ;
46 [label="X[0] <= 56.5\ngini = 0.489\nsamples = 66\nvalue = [38, 28]"] ;
45 -> 46 ;
47 [label="X[0] <= 53.5\ngini = 0.5\nsamples = 55\nvalue = [27, 28]"] ;
46 -> 47 ;
48 [label="X[0] <= 30.0\ngini = 0.495\nsamples = 49\nvalue = [27, 22]"] ;
47 -> 48 ;
49 [label="X[0] <= 2.0\ngini = 0.491\nsamples = 30\nvalue = [13, 17]"] ;
48 -> 49 ;
50 [label="X[2] <= 15.0\ngini = 0.459\nsamples = 14\nvalue = [9, 5]"] ;
49 -> 50 ;
51 [label="gini = 0.0\nsamples = 3\nvalue = [3, 0]"] ;
50 -> 51 ;
52 [label="X[1] <= 0.641\ngini = 0.496\nsamples = 11\nvalue = [6, 5]"] ;
50 -> 52 ;
53 [label="X[3] <= 25.0\ngini = 0.444\nsamples = 6\nvalue = [2, 4]"] ;
52 -> 53 ;
54 [label="gini = 0.0\nsamples = 2\nvalue = [2, 0]"] ;
53 -> 54 ;
55 [label="gini = 0.0\nsamples = 4\nvalue = [0, 4]"] ;
53 -> 55 ;
56 [label="X[3] <= 15.0\ngini = 0.32\nsamples = 5\nvalue = [4, 1]"] ;
52 -> 56 ;
57 [label="gini = 0.0\nsamples = 1\nvalue = [0, 1]"] ;
56 -> 57 ;
58 [label="gini = 0.0\nsamples = 4\nvalue = [4, 0]"] ;
56 -> 58 ;
59 [label="X[1] <= 0.527\ngini = 0.375\nsamples = 16\nvalue = [4, 12]"] ;
49 -> 59 ;
60 [label="gini = 0.0\nsamples = 1\nvalue = [1, 0]"] ;
59 -> 60 ;
61 [label="X[1] <= 0.63\ngini = 0.32\nsamples = 15\nvalue = [3, 12]"] ;
59 -> 61 ;
62 [label="X[1] <= 0.622\ngini = 0.397\nsamples = 11\nvalue = [3, 8]"] ;
61 -> 62 ;
63 [label="X[2] <= 15.0\ngini = 0.198\nsamples = 9\nvalue = [1, 8]"] ;
62 -> 63 ;
64 [label="gini = 0.0\nsamples = 1\nvalue = [1, 0]"] ;
63 -> 64 ;
65 [label="gini = 0.0\nsamples = 8\nvalue = [0, 8]"] ;
63 -> 65 ;
66 [label="gini = 0.0\nsamples = 2\nvalue = [2, 0]"] ;
62 -> 66 ;
67 [label="gini = 0.0\nsamples = 4\nvalue = [0, 4]"] ;
61 -> 67 ;
68 [label="X[1] <= 0.686\ngini = 0.388\nsamples = 19\nvalue = [14, 5]"] ;
48 -> 68 ;
69 [label="X[2] <= 19.0\ngini = 0.305\nsamples = 16\nvalue = [13, 3]"] ;
68 -> 69 ;
70 [label="X[1] <= 0.531\ngini = 0.5\nsamples = 4\nvalue = [2, 2]"] ;
69 -> 70 ;
71 [label="gini = 0.0\nsamples = 1\nvalue = [1, 0]"] ;
70 -> 71 ;
72 [label="X[3] <= 25.0\ngini = 0.444\nsamples = 3\nvalue = [1, 2]"] ;
70 -> 72 ;
73 [label="gini = 0.0\nsamples = 1\nvalue = [1, 0]"] ;
72 -> 73 ;
74 [label="gini = 0.0\nsamples = 2\nvalue = [0, 2]"] ;
72 -> 74 ;
75 [label="X[2] <= 33.0\ngini = 0.153\nsamples = 12\nvalue = [11, 1]"] ;
69 -> 75 ;
76 [label="gini = 0.0\nsamples = 7\nvalue = [7, 0]"] ;
75 -> 76 ;
77 [label="X[2] <= 36.0\ngini = 0.32\nsamples = 5\nvalue = [4, 1]"] ;
75 -> 77 ;
78 [label="gini = 0.0\nsamples = 1\nvalue = [0, 1]"] ;
77 -> 78 ;
79 [label="gini = 0.0\nsamples = 4\nvalue = [4, 0]"] ;
77 -> 79 ;
80 [label="X[0] <= 40.0\ngini = 0.444\nsamples = 3\nvalue = [1, 2]"] ;
68 -> 80 ;
81 [label="gini = 0.0\nsamples = 1\nvalue = [1, 0]"] ;
80 -> 81 ;
82 [label="gini = 0.0\nsamples = 2\nvalue = [0, 2]"] ;
80 -> 82 ;
83 [label="gini = 0.0\nsamples = 6\nvalue = [0, 6]"] ;
47 -> 83 ;
84 [label="gini = 0.0\nsamples = 11\nvalue = [11, 0]"] ;
46 -> 84 ;
85 [label="X[1] <= 0.665\ngini = 0.444\nsamples = 12\nvalue = [4, 8]"] ;
45 -> 85 ;
86 [label="X[1] <= 0.567\ngini = 0.5\nsamples = 8\nvalue = [4, 4]"] ;
85 -> 86 ;
87 [label="gini = 0.0\nsamples = 3\nvalue = [0, 3]"] ;
86 -> 87 ;
88 [label="X[3] <= 19.0\ngini = 0.32\nsamples = 5\nvalue = [4, 1]"] ;
86 -> 88 ;
89 [label="gini = 0.0\nsamples = 1\nvalue = [0, 1]"] ;
88 -> 89 ;
90 [label="gini = 0.0\nsamples = 4\nvalue = [4, 0]"] ;
88 -> 90 ;
91 [label="gini = 0.0\nsamples = 4\nvalue = [0, 4]"] ;
85 -> 91 ;
92 [label="X[0] <= 42.5\ngini = 0.289\nsamples = 40\nvalue = [33, 7]"] ;
34 -> 92 ;
93 [label="X[3] <= 112.0\ngini = 0.08\nsamples = 24\nvalue = [23, 1]"] ;
92 -> 93 ;
94 [label="gini = 0.0\nsamples = 18\nvalue = [18, 0]"] ;
93 -> 94 ;
95 [label="X[0] <= 7.5\ngini = 0.278\nsamples = 6\nvalue = [5, 1]"] ;
93 -> 95 ;
96 [label="gini = 0.0\nsamples = 4\nvalue = [4, 0]"] ;
95 -> 96 ;
97 [label="X[1] <= 0.645\ngini = 0.5\nsamples = 2\nvalue = [1, 1]"] ;
95 -> 97 ;
98 [label="gini = 0.0\nsamples = 1\nvalue = [1, 0]"] ;
97 -> 98 ;
99 [label="gini = 0.0\nsamples = 1\nvalue = [0, 1]"] ;
97 -> 99 ;
100 [label="X[0] <= 54.5\ngini = 0.469\nsamples = 16\nvalue = [10, 6]"] ;
92 -> 100 ;
101 [label="X[2] <= 30.0\ngini = 0.32\nsamples = 5\nvalue = [1, 4]"] ;
100 -> 101 ;
102 [label="X[2] <= 24.0\ngini = 0.5\nsamples = 2\nvalue = [1, 1]"] ;
101 -> 102 ;
103 [label="gini = 0.0\nsamples = 1\nvalue = [0, 1]"] ;
102 -> 103 ;
104 [label="gini = 0.0\nsamples = 1\nvalue = [1, 0]"] ;
102 -> 104 ;
105 [label="gini = 0.0\nsamples = 3\nvalue = [0, 3]"] ;
101 -> 105 ;
106 [label="X[1] <= 0.674\ngini = 0.298\nsamples = 11\nvalue = [9, 2]"] ;
100 -> 106 ;
107 [label="X[1] <= 0.531\ngini = 0.18\nsamples = 10\nvalue = [9, 1]"] ;
106 -> 107 ;
108 [label="gini = 0.0\nsamples = 6\nvalue = [6, 0]"] ;
107 -> 108 ;
109 [label="X[3] <= 75.0\ngini = 0.375\nsamples = 4\nvalue = [3, 1]"] ;
107 -> 109 ;
110 [label="gini = 0.0\nsamples = 1\nvalue = [0, 1]"] ;
109 -> 110 ;
111 [label="gini = 0.0\nsamples = 3\nvalue = [3, 0]"] ;
109 -> 111 ;
112 [label="gini = 0.0\nsamples = 1\nvalue = [0, 1]"] ;
106 -> 112 ;
113 [label="X[1] <= 0.71\ngini = 0.495\nsamples = 93\nvalue = [51, 42]"] ;
33 -> 113 ;
114 [label="X[0] <= 38.5\ngini = 0.5\nsamples = 81\nvalue = [41, 40]"] ;
113 -> 114 ;
115 [label="X[2] <= 501.0\ngini = 0.461\nsamples = 36\nvalue = [13, 23]"] ;
114 -> 115 ;
116 [label="X[1] <= 0.596\ngini = 0.422\nsamples = 33\nvalue = [10, 23]"] ;
115 -> 116 ;
117 [label="X[1] <= 0.557\ngini = 0.488\nsamples = 19\nvalue = [8, 11]"] ;
116 -> 117 ;
118 [label="X[3] <= 157.0\ngini = 0.18\nsamples = 10\nvalue = [1, 9]"] ;
117 -> 118 ;
119 [label="gini = 0.0\nsamples = 8\nvalue = [0, 8]"] ;
118 -> 119 ;
120 [label="X[1] <= 0.533\ngini = 0.5\nsamples = 2\nvalue = [1, 1]"] ;
118 -> 120 ;
121 [label="gini = 0.0\nsamples = 1\nvalue = [1, 0]"] ;
120 -> 121 ;
122 [label="gini = 0.0\nsamples = 1\nvalue = [0, 1]"] ;
120 -> 122 ;
123 [label="X[3] <= 23.0\ngini = 0.346\nsamples = 9\nvalue = [7, 2]"] ;
117 -> 123 ;
124 [label="gini = 0.0\nsamples = 1\nvalue = [0, 1]"] ;
123 -> 124 ;
125 [label="X[1] <= 0.585\ngini = 0.219\nsamples = 8\nvalue = [7, 1]"] ;
123 -> 125 ;
126 [label="gini = 0.0\nsamples = 6\nvalue = [6, 0]"] ;
125 -> 126 ;
127 [label="X[3] <= 54.0\ngini = 0.5\nsamples = 2\nvalue = [1, 1]"] ;
125 -> 127 ;
128 [label="gini = 0.0\nsamples = 1\nvalue = [0, 1]"] ;
127 -> 128 ;
129 [label="gini = 0.0\nsamples = 1\nvalue = [1, 0]"] ;
127 -> 129 ;
130 [label="X[3] <= 38.0\ngini = 0.245\nsamples = 14\nvalue = [2, 12]"] ;
116 -> 130 ;
131 [label="X[0] <= 20.5\ngini = 0.5\nsamples = 2\nvalue = [1, 1]"] ;
130 -> 131 ;
132 [label="gini = 0.0\nsamples = 1\nvalue = [1, 0]"] ;
131 -> 132 ;
133 [label="gini = 0.0\nsamples = 1\nvalue = [0, 1]"] ;
131 -> 133 ;
134 [label="X[0] <= 27.0\ngini = 0.153\nsamples = 12\nvalue = [1, 11]"] ;
130 -> 134 ;
135 [label="gini = 0.0\nsamples = 11\nvalue = [0, 11]"] ;
134 -> 135 ;
136 [label="gini = 0.0\nsamples = 1\nvalue = [1, 0]"] ;
134 -> 136 ;
137 [label="gini = 0.0\nsamples = 3\nvalue = [3, 0]"] ;
115 -> 137 ;
138 [label="X[2] <= 55.0\ngini = 0.47\nsamples = 45\nvalue = [28, 17]"] ;
114 -> 138 ;
139 [label="X[0] <= 47.5\ngini = 0.32\nsamples = 5\nvalue = [1, 4]"] ;
138 -> 139 ;
140 [label="X[1] <= 0.588\ngini = 0.5\nsamples = 2\nvalue = [1, 1]"] ;
139 -> 140 ;
141 [label="gini = 0.0\nsamples = 1\nvalue = [0, 1]"] ;
140 -> 141 ;
142 [label="gini = 0.0\nsamples = 1\nvalue = [1, 0]"] ;
140 -> 142 ;
143 [label="gini = 0.0\nsamples = 3\nvalue = [0, 3]"] ;
139 -> 143 ;
144 [label="X[1] <= 0.568\ngini = 0.439\nsamples = 40\nvalue = [27, 13]"] ;
138 -> 144 ;
145 [label="X[3] <= 14.0\ngini = 0.142\nsamples = 13\nvalue = [12, 1]"] ;
144 -> 145 ;
146 [label="gini = 0.0\nsamples = 1\nvalue = [0, 1]"] ;
145 -> 146 ;
147 [label="gini = 0.0\nsamples = 12\nvalue = [12, 0]"] ;
145 -> 147 ;
148 [label="X[0] <= 71.0\ngini = 0.494\nsamples = 27\nvalue = [15, 12]"] ;
144 -> 148 ;
149 [label="X[2] <= 237.0\ngini = 0.48\nsamples = 25\nvalue = [15, 10]"] ;
148 -> 149 ;
150 [label="X[1] <= 0.667\ngini = 0.499\nsamples = 21\nvalue = [11, 10]"] ;
149 -> 150 ;
151 [label="X[3] <= 169.0\ngini = 0.469\nsamples = 16\nvalue = [10, 6]"] ;
150 -> 151 ;
152 [label="X[1] <= 0.579\ngini = 0.408\nsamples = 14\nvalue = [10, 4]"] ;
151 -> 152 ;
153 [label="X[3] <= 133.0\ngini = 0.444\nsamples = 3\nvalue = [1, 2]"] ;
152 -> 153 ;
154 [label="gini = 0.0\nsamples = 2\nvalue = [0, 2]"] ;
153 -> 154 ;
155 [label="gini = 0.0\nsamples = 1\nvalue = [1, 0]"] ;
153 -> 155 ;
156 [label="X[1] <= 0.627\ngini = 0.298\nsamples = 11\nvalue = [9, 2]"] ;
152 -> 156 ;
157 [label="gini = 0.0\nsamples = 6\nvalue = [6, 0]"] ;
156 -> 157 ;
158 [label="X[1] <= 0.661\ngini = 0.48\nsamples = 5\nvalue = [3, 2]"] ;
156 -> 158 ;
159 [label="X[0] <= 52.0\ngini = 0.444\nsamples = 3\nvalue = [1, 2]"] ;
158 -> 159 ;
160 [label="gini = 0.0\nsamples = 1\nvalue = [0, 1]"] ;
159 -> 160 ;
161 [label="X[2] <= 111.0\ngini = 0.5\nsamples = 2\nvalue = [1, 1]"] ;
159 -> 161 ;
162 [label="gini = 0.0\nsamples = 1\nvalue = [1, 0]"] ;
161 -> 162 ;
163 [label="gini = 0.0\nsamples = 1\nvalue = [0, 1]"] ;
161 -> 163 ;
164 [label="gini = 0.0\nsamples = 2\nvalue = [2, 0]"] ;
158 -> 164 ;
165 [label="gini = 0.0\nsamples = 2\nvalue = [0, 2]"] ;
151 -> 165 ;
166 [label="X[1] <= 0.677\ngini = 0.32\nsamples = 5\nvalue = [1, 4]"] ;
150 -> 166 ;
167 [label="gini = 0.0\nsamples = 3\nvalue = [0, 3]"] ;
166 -> 167 ;
168 [label="X[3] <= 139.0\ngini = 0.5\nsamples = 2\nvalue = [1, 1]"] ;
166 -> 168 ;
169 [label="gini = 0.0\nsamples = 1\nvalue = [1, 0]"] ;
168 -> 169 ;
170 [label="gini = 0.0\nsamples = 1\nvalue = [0, 1]"] ;
168 -> 170 ;
171 [label="gini = 0.0\nsamples = 4\nvalue = [4, 0]"] ;
149 -> 171 ;
172 [label="gini = 0.0\nsamples = 2\nvalue = [0, 2]"] ;
148 -> 172 ;
173 [label="X[2] <= 174.0\ngini = 0.278\nsamples = 12\nvalue = [10, 2]"] ;
113 -> 173 ;
174 [label="gini = 0.0\nsamples = 10\nvalue = [10, 0]"] ;
173 -> 174 ;
175 [label="gini = 0.0\nsamples = 2\nvalue = [0, 2]"] ;
173 -> 175 ;
176 [label="gini = 0.0\nsamples = 8\nvalue = [8, 0]"] ;
32 -> 176 ;
177 [label="X[1] <= 0.779\ngini = 0.483\nsamples = 76\nvalue = [31, 45]"] ;
31 -> 177 ;
178 [label="X[2] <= 192.0\ngini = 0.393\nsamples = 26\nvalue = [7, 19]"] ;
177 -> 178 ;
179 [label="X[2] <= 37.0\ngini = 0.298\nsamples = 22\nvalue = [4, 18]"] ;
178 -> 179 ;
180 [label="X[0] <= 2.0\ngini = 0.463\nsamples = 11\nvalue = [4, 7]"] ;
179 -> 180 ;
181 [label="X[3] <= 64.0\ngini = 0.48\nsamples = 5\nvalue = [3, 2]"] ;
180 -> 181 ;
182 [label="X[1] <= 0.765\ngini = 0.444\nsamples = 3\nvalue = [1, 2]"] ;
181 -> 182 ;
183 [label="gini = 0.0\nsamples = 1\nvalue = [0, 1]"] ;
182 -> 183 ;
184 [label="X[1] <= 0.773\ngini = 0.5\nsamples = 2\nvalue = [1, 1]"] ;
182 -> 184 ;
185 [label="gini = 0.0\nsamples = 1\nvalue = [1, 0]"] ;
184 -> 185 ;
186 [label="gini = 0.0\nsamples = 1\nvalue = [0, 1]"] ;
184 -> 186 ;
187 [label="gini = 0.0\nsamples = 2\nvalue = [2, 0]"] ;
181 -> 187 ;
188 [label="X[3] <= 13.0\ngini = 0.278\nsamples = 6\nvalue = [1, 5]"] ;
180 -> 188 ;
189 [label="gini = 0.0\nsamples = 1\nvalue = [1, 0]"] ;
188 -> 189 ;
190 [label="gini = 0.0\nsamples = 5\nvalue = [0, 5]"] ;
188 -> 190 ;
191 [label="gini = 0.0\nsamples = 11\nvalue = [0, 11]"] ;
179 -> 191 ;
192 [label="X[3] <= 142.0\ngini = 0.375\nsamples = 4\nvalue = [3, 1]"] ;
178 -> 192 ;
193 [label="gini = 0.0\nsamples = 1\nvalue = [0, 1]"] ;
192 -> 193 ;
194 [label="gini = 0.0\nsamples = 3\nvalue = [3, 0]"] ;
192 -> 194 ;
195 [label="X[2] <= 563.0\ngini = 0.499\nsamples = 50\nvalue = [24, 26]"] ;
177 -> 195 ;
196 [label="X[0] <= 59.5\ngini = 0.5\nsamples = 47\nvalue = [24, 23]"] ;
195 -> 196 ;
197 [label="X[3] <= 57.0\ngini = 0.493\nsamples = 41\nvalue = [23, 18]"] ;
196 -> 197 ;
198 [label="X[1] <= 0.799\ngini = 0.491\nsamples = 23\nvalue = [10, 13]"] ;
197 -> 198 ;
199 [label="gini = 0.0\nsamples = 3\nvalue = [0, 3]"] ;
198 -> 199 ;
200 [label="X[1] <= 0.811\ngini = 0.5\nsamples = 20\nvalue = [10, 10]"] ;
198 -> 200 ;
201 [label="gini = 0.0\nsamples = 3\nvalue = [3, 0]"] ;
200 -> 201 ;
202 [label="X[0] <= 22.5\ngini = 0.484\nsamples = 17\nvalue = [7, 10]"] ;
200 -> 202 ;
203 [label="X[3] <= 16.0\ngini = 0.346\nsamples = 9\nvalue = [2, 7]"] ;
202 -> 203 ;
204 [label="gini = 0.0\nsamples = 1\nvalue = [1, 0]"] ;
203 -> 204 ;
205 [label="X[2] <= 62.0\ngini = 0.219\nsamples = 8\nvalue = [1, 7]"] ;
203 -> 205 ;
206 [label="gini = 0.0\nsamples = 7\nvalue = [0, 7]"] ;
205 -> 206 ;
207 [label="gini = 0.0\nsamples = 1\nvalue = [1, 0]"] ;
205 -> 207 ;
208 [label="X[0] <= 51.0\ngini = 0.469\nsamples = 8\nvalue = [5, 3]"] ;
202 -> 208 ;
209 [label="X[2] <= 26.0\ngini = 0.278\nsamples = 6\nvalue = [5, 1]"] ;
208 -> 209 ;
210 [label="X[3] <= 32.0\ngini = 0.5\nsamples = 2\nvalue = [1, 1]"] ;
209 -> 210 ;
211 [label="gini = 0.0\nsamples = 1\nvalue = [1, 0]"] ;
210 -> 211 ;
212 [label="gini = 0.0\nsamples = 1\nvalue = [0, 1]"] ;
210 -> 212 ;
213 [label="gini = 0.0\nsamples = 4\nvalue = [4, 0]"] ;
209 -> 213 ;
214 [label="gini = 0.0\nsamples = 2\nvalue = [0, 2]"] ;
208 -> 214 ;
215 [label="X[1] <= 0.829\ngini = 0.401\nsamples = 18\nvalue = [13, 5]"] ;
197 -> 215 ;
216 [label="gini = 0.0\nsamples = 9\nvalue = [9, 0]"] ;
215 -> 216 ;
217 [label="X[3] <= 75.0\ngini = 0.494\nsamples = 9\nvalue = [4, 5]"] ;
215 -> 217 ;
218 [label="gini = 0.0\nsamples = 2\nvalue = [2, 0]"] ;
217 -> 218 ;
219 [label="X[0] <= 48.0\ngini = 0.408\nsamples = 7\nvalue = [2, 5]"] ;
217 -> 219 ;
220 [label="X[2] <= 524.0\ngini = 0.278\nsamples = 6\nvalue = [1, 5]"] ;
219 -> 220 ;
221 [label="gini = 0.0\nsamples = 5\nvalue = [0, 5]"] ;
220 -> 221 ;
222 [label="gini = 0.0\nsamples = 1\nvalue = [1, 0]"] ;
220 -> 222 ;
223 [label="gini = 0.0\nsamples = 1\nvalue = [1, 0]"] ;
219 -> 223 ;
224 [label="X[1] <= 0.822\ngini = 0.278\nsamples = 6\nvalue = [1, 5]"] ;
196 -> 224 ;
225 [label="X[2] <= 101.0\ngini = 0.5\nsamples = 2\nvalue = [1, 1]"] ;
224 -> 225 ;
226 [label="gini = 0.0\nsamples = 1\nvalue = [1, 0]"] ;
225 -> 226 ;
227 [label="gini = 0.0\nsamples = 1\nvalue = [0, 1]"] ;
225 -> 227 ;
228 [label="gini = 0.0\nsamples = 4\nvalue = [0, 4]"] ;
224 -> 228 ;
229 [label="gini = 0.0\nsamples = 3\nvalue = [0, 3]"] ;
195 -> 229 ;
230 [label="X[0] <= 58.5\ngini = 0.317\nsamples = 1595\nvalue = [1280, 315]"] ;
2 -> 230 ;
231 [label="X[1] <= 0.724\ngini = 0.349\nsamples = 1196\nvalue = [927, 269]"] ;
230 -> 231 ;
232 [label="X[3] <= 213.5\ngini = 0.193\nsamples = 157\nvalue = [140, 17]"] ;
231 -> 232 ;
233 [label="X[2] <= 17.5\ngini = 0.159\nsamples = 149\nvalue = [136, 13]"] ;
232 -> 233 ;
234 [label="gini = 0.0\nsamples = 43\nvalue = [43, 0]"] ;
233 -> 234 ;
235 [label="X[3] <= 20.5\ngini = 0.215\nsamples = 106\nvalue = [93, 13]"] ;
233 -> 235 ;
236 [label="X[1] <= 0.713\ngini = 0.43\nsamples = 16\nvalue = [11, 5]"] ;
235 -> 236 ;
237 [label="X[2] <= 21.5\ngini = 0.219\nsamples = 8\nvalue = [7, 1]"] ;
236 -> 237 ;
238 [label="X[0] <= 26.5\ngini = 0.5\nsamples = 2\nvalue = [1, 1]"] ;
237 -> 238 ;
239 [label="gini = 0.0\nsamples = 1\nvalue = [0, 1]"] ;
238 -> 239 ;
240 [label="gini = 0.0\nsamples = 1\nvalue = [1, 0]"] ;
238 -> 240 ;
241 [label="gini = 0.0\nsamples = 6\nvalue = [6, 0]"] ;
237 -> 241 ;
242 [label="X[2] <= 23.0\ngini = 0.5\nsamples = 8\nvalue = [4, 4]"] ;
236 -> 242 ;
243 [label="gini = 0.0\nsamples = 3\nvalue = [3, 0]"] ;
242 -> 243 ;
244 [label="X[1] <= 0.721\ngini = 0.32\nsamples = 5\nvalue = [1, 4]"] ;
242 -> 244 ;
245 [label="gini = 0.0\nsamples = 4\nvalue = [0, 4]"] ;
244 -> 245 ;
246 [label="gini = 0.0\nsamples = 1\nvalue = [1, 0]"] ;
244 -> 246 ;
247 [label="X[1] <= 0.722\ngini = 0.162\nsamples = 90\nvalue = [82, 8]"] ;
235 -> 247 ;
248 [label="X[1] <= 0.713\ngini = 0.137\nsamples = 81\nvalue = [75, 6]"] ;
247 -> 248 ;
249 [label="X[1] <= 0.711\ngini = 0.239\nsamples = 36\nvalue = [31, 5]"] ;
248 -> 249 ;
250 [label="X[2] <= 18.5\ngini = 0.165\nsamples = 33\nvalue = [30, 3]"] ;
249 -> 250 ;
251 [label="X[3] <= 39.5\ngini = 0.5\nsamples = 2\nvalue = [1, 1]"] ;
250 -> 251 ;
252 [label="gini = 0.0\nsamples = 1\nvalue = [0, 1]"] ;
251 -> 252 ;
253 [label="gini = 0.0\nsamples = 1\nvalue = [1, 0]"] ;
251 -> 253 ;
254 [label="X[0] <= 48.5\ngini = 0.121\nsamples = 31\nvalue = [29, 2]"] ;
250 -> 254 ;
255 [label="gini = 0.0\nsamples = 21\nvalue = [21, 0]"] ;
254 -> 255 ;
256 [label="X[0] <= 51.5\ngini = 0.32\nsamples = 10\nvalue = [8, 2]"] ;
254 -> 256 ;
257 [label="X[2] <= 105.0\ngini = 0.444\nsamples = 3\nvalue = [1, 2]"] ;
256 -> 257 ;
258 [label="gini = 0.0\nsamples = 2\nvalue = [0, 2]"] ;
257 -> 258 ;
259 [label="gini = 0.0\nsamples = 1\nvalue = [1, 0]"] ;
257 -> 259 ;
260 [label="gini = 0.0\nsamples = 7\nvalue = [7, 0]"] ;
256 -> 260 ;
261 [label="X[0] <= 2.0\ngini = 0.444\nsamples = 3\nvalue = [1, 2]"] ;
249 -> 261 ;
262 [label="gini = 0.0\nsamples = 1\nvalue = [1, 0]"] ;
261 -> 262 ;
263 [label="gini = 0.0\nsamples = 2\nvalue = [0, 2]"] ;
261 -> 263 ;
264 [label="X[3] <= 107.5\ngini = 0.043\nsamples = 45\nvalue = [44, 1]"] ;
248 -> 264 ;
265 [label="gini = 0.0\nsamples = 38\nvalue = [38, 0]"] ;
264 -> 265 ;
266 [label="X[3] <= 112.5\ngini = 0.245\nsamples = 7\nvalue = [6, 1]"] ;
264 -> 266 ;
267 [label="gini = 0.0\nsamples = 1\nvalue = [0, 1]"] ;
266 -> 267 ;
268 [label="gini = 0.0\nsamples = 6\nvalue = [6, 0]"] ;
266 -> 268 ;
269 [label="X[1] <= 0.722\ngini = 0.346\nsamples = 9\nvalue = [7, 2]"] ;
247 -> 269 ;
270 [label="X[2] <= 37.5\ngini = 0.444\nsamples = 3\nvalue = [1, 2]"] ;
269 -> 270 ;
271 [label="gini = 0.0\nsamples = 1\nvalue = [1, 0]"] ;
270 -> 271 ;
272 [label="gini = 0.0\nsamples = 2\nvalue = [0, 2]"] ;
270 -> 272 ;
273 [label="gini = 0.0\nsamples = 6\nvalue = [6, 0]"] ;
269 -> 273 ;
274 [label="X[0] <= 5.0\ngini = 0.5\nsamples = 8\nvalue = [4, 4]"] ;
232 -> 274 ;
275 [label="gini = 0.0\nsamples = 3\nvalue = [0, 3]"] ;
274 -> 275 ;
276 [label="X[3] <= 223.5\ngini = 0.32\nsamples = 5\nvalue = [4, 1]"] ;
274 -> 276 ;
277 [label="gini = 0.0\nsamples = 1\nvalue = [0, 1]"] ;
276 -> 277 ;
278 [label="gini = 0.0\nsamples = 4\nvalue = [4, 0]"] ;
276 -> 278 ;
279 [label="X[2] <= 568.0\ngini = 0.367\nsamples = 1039\nvalue = [787, 252]"] ;
231 -> 279 ;
280 [label="X[0] <= 15.5\ngini = 0.365\nsamples = 1036\nvalue = [787, 249]"] ;
279 -> 280 ;
281 [label="X[3] <= 122.5\ngini = 0.329\nsamples = 558\nvalue = [442, 116]"] ;
280 -> 281 ;
282 [label="X[3] <= 99.0\ngini = 0.342\nsamples = 520\nvalue = [406, 114]"] ;
281 -> 282 ;
283 [label="X[1] <= 0.846\ngini = 0.333\nsamples = 502\nvalue = [396, 106]"] ;
282 -> 283 ;
284 [label="X[2] <= 9.5\ngini = 0.307\nsamples = 406\nvalue = [329, 77]"] ;
283 -> 284 ;
285 [label="X[3] <= 26.0\ngini = 0.408\nsamples = 56\nvalue = [40, 16]"] ;
284 -> 285 ;
286 [label="X[1] <= 0.837\ngini = 0.449\nsamples = 47\nvalue = [31, 16]"] ;
285 -> 286 ;
287 [label="X[1] <= 0.833\ngini = 0.48\nsamples = 40\nvalue = [24, 16]"] ;
286 -> 287 ;
288 [label="X[2] <= 5.5\ngini = 0.456\nsamples = 37\nvalue = [24, 13]"] ;
287 -> 288 ;
289 [label="gini = 0.0\nsamples = 4\nvalue = [4, 0]"] ;
288 -> 289 ;
290 [label="X[1] <= 0.763\ngini = 0.478\nsamples = 33\nvalue = [20, 13]"] ;
288 -> 290 ;
291 [label="X[3] <= 11.0\ngini = 0.245\nsamples = 7\nvalue = [6, 1]"] ;
290 -> 291 ;
292 [label="gini = 0.0\nsamples = 1\nvalue = [0, 1]"] ;
291 -> 292 ;
293 [label="gini = 0.0\nsamples = 6\nvalue = [6, 0]"] ;
291 -> 293 ;
294 [label="X[1] <= 0.802\ngini = 0.497\nsamples = 26\nvalue = [14, 12]"] ;
290 -> 294 ;
295 [label="X[3] <= 12.5\ngini = 0.48\nsamples = 15\nvalue = [6, 9]"] ;
294 -> 295 ;
296 [label="X[1] <= 0.775\ngini = 0.469\nsamples = 8\nvalue = [5, 3]"] ;
295 -> 296 ;
297 [label="gini = 0.0\nsamples = 1\nvalue = [0, 1]"] ;
296 -> 297 ;
298 [label="X[2] <= 6.5\ngini = 0.408\nsamples = 7\nvalue = [5, 2]"] ;
296 -> 298 ;
299 [label="X[1] <= 0.79\ngini = 0.444\nsamples = 3\nvalue = [1, 2]"] ;
298 -> 299 ;
300 [label="gini = 0.0\nsamples = 2\nvalue = [0, 2]"] ;
299 -> 300 ;
301 [label="gini = 0.0\nsamples = 1\nvalue = [1, 0]"] ;
299 -> 301 ;
302 [label="gini = 0.0\nsamples = 4\nvalue = [4, 0]"] ;
298 -> 302 ;
303 [label="X[1] <= 0.778\ngini = 0.245\nsamples = 7\nvalue = [1, 6]"] ;
295 -> 303 ;
304 [label="X[3] <= 16.0\ngini = 0.5\nsamples = 2\nvalue = [1, 1]"] ;
303 -> 304 ;
305 [label="gini = 0.0\nsamples = 1\nvalue = [1, 0]"] ;
304 -> 305 ;
306 [label="gini = 0.0\nsamples = 1\nvalue = [0, 1]"] ;
304 -> 306 ;
307 [label="gini = 0.0\nsamples = 5\nvalue = [0, 5]"] ;
303 -> 307 ;
308 [label="X[1] <= 0.815\ngini = 0.397\nsamples = 11\nvalue = [8, 3]"] ;
294 -> 308 ;
309 [label="gini = 0.0\nsamples = 5\nvalue = [5, 0]"] ;
308 -> 309 ;
310 [label="X[2] <= 8.5\ngini = 0.5\nsamples = 6\nvalue = [3, 3]"] ;
308 -> 310 ;
311 [label="X[3] <= 16.5\ngini = 0.375\nsamples = 4\nvalue = [3, 1]"] ;
310 -> 311 ;
312 [label="gini = 0.0\nsamples = 2\nvalue = [2, 0]"] ;
311 -> 312 ;
313 [label="X[2] <= 7.5\ngini = 0.5\nsamples = 2\nvalue = [1, 1]"] ;
311 -> 313 ;
314 [label="gini = 0.0\nsamples = 1\nvalue = [1, 0]"] ;
313 -> 314 ;
315 [label="gini = 0.0\nsamples = 1\nvalue = [0, 1]"] ;
313 -> 315 ;
316 [label="gini = 0.0\nsamples = 2\nvalue = [0, 2]"] ;
310 -> 316 ;
317 [label="gini = 0.0\nsamples = 3\nvalue = [0, 3]"] ;
287 -> 317 ;
318 [label="gini = 0.0\nsamples = 7\nvalue = [7, 0]"] ;
286 -> 318 ;
319 [label="gini = 0.0\nsamples = 9\nvalue = [9, 0]"] ;
285 -> 319 ;
320 [label="X[3] <= 81.0\ngini = 0.288\nsamples = 350\nvalue = [289, 61]"] ;
284 -> 320 ;
321 [label="X[3] <= 47.5\ngini = 0.299\nsamples = 334\nvalue = [273, 61]"] ;
320 -> 321 ;
322 [label="X[2] <= 54.5\ngini = 0.264\nsamples = 269\nvalue = [227, 42]"] ;
321 -> 322 ;
323 [label="X[2] <= 42.5\ngini = 0.279\nsamples = 251\nvalue = [209, 42]"] ;
322 -> 323 ;
324 [label="X[0] <= 9.5\ngini = 0.266\nsamples = 241\nvalue = [203, 38]"] ;
323 -> 324 ;
325 [label="X[1] <= 0.807\ngini = 0.288\nsamples = 218\nvalue = [180, 38]"] ;
324 -> 325 ;
326 [label="X[2] <= 31.5\ngini = 0.242\nsamples = 156\nvalue = [134, 22]"] ;
325 -> 326 ;
327 [label="X[1] <= 0.73\ngini = 0.268\nsamples = 138\nvalue = [116, 22]"] ;
326 -> 327 ;
328 [label="X[2] <= 25.0\ngini = 0.426\nsamples = 13\nvalue = [9, 4]"] ;
327 -> 328 ;
329 [label="X[2] <= 12.5\ngini = 0.198\nsamples = 9\nvalue = [8, 1]"] ;
328 -> 329 ;
330 [label="gini = 0.0\nsamples = 1\nvalue = [0, 1]"] ;
329 -> 330 ;
331 [label="gini = 0.0\nsamples = 8\nvalue = [8, 0]"] ;
329 -> 331 ;
332 [label="X[1] <= 0.728\ngini = 0.375\nsamples = 4\nvalue = [1, 3]"] ;
328 -> 332 ;
333 [label="gini = 0.0\nsamples = 2\nvalue = [0, 2]"] ;
332 -> 333 ;
334 [label="X[1] <= 0.729\ngini = 0.5\nsamples = 2\nvalue = [1, 1]"] ;
332 -> 334 ;
335 [label="gini = 0.0\nsamples = 1\nvalue = [1, 0]"] ;
334 -> 335 ;
336 [label="gini = 0.0\nsamples = 1\nvalue = [0, 1]"] ;
334 -> 336 ;
337 [label="X[2] <= 18.5\ngini = 0.247\nsamples = 125\nvalue = [107, 18]"] ;
327 -> 337 ;
338 [label="X[2] <= 16.5\ngini = 0.308\nsamples = 79\nvalue = [64, 15]"] ;
337 -> 338 ;
339 [label="X[3] <= 28.5\ngini = 0.234\nsamples = 59\nvalue = [51, 8]"] ;
338 -> 339 ;
340 [label="X[3] <= 27.5\ngini = 0.303\nsamples = 43\nvalue = [35, 8]"] ;
339 -> 340 ;
341 [label="X[2] <= 13.5\ngini = 0.255\nsamples = 40\nvalue = [34, 6]"] ;
340 -> 341 ;
342 [label="X[1] <= 0.749\ngini = 0.351\nsamples = 22\nvalue = [17, 5]"] ;
341 -> 342 ;
343 [label="X[1] <= 0.738\ngini = 0.18\nsamples = 10\nvalue = [9, 1]"] ;
342 -> 343 ;
344 [label="X[2] <= 11.5\ngini = 0.375\nsamples = 4\nvalue = [3, 1]"] ;
343 -> 344 ;
345 [label="gini = 0.0\nsamples = 3\nvalue = [3, 0]"] ;
344 -> 345 ;
346 [label="gini = 0.0\nsamples = 1\nvalue = [0, 1]"] ;
344 -> 346 ;
347 [label="gini = 0.0\nsamples = 6\nvalue = [6, 0]"] ;
343 -> 347 ;
348 [label="X[1] <= 0.772\ngini = 0.444\nsamples = 12\nvalue = [8, 4]"] ;
342 -> 348 ;
349 [label="X[3] <= 23.0\ngini = 0.48\nsamples = 5\nvalue = [2, 3]"] ;
348 -> 349 ;
350 [label="X[1] <= 0.763\ngini = 0.444\nsamples = 3\nvalue = [2, 1]"] ;
349 -> 350 ;
351 [label="gini = 0.0\nsamples = 2\nvalue = [2, 0]"] ;
350 -> 351 ;
352 [label="gini = 0.0\nsamples = 1\nvalue = [0, 1]"] ;
350 -> 352 ;
353 [label="gini = 0.0\nsamples = 2\nvalue = [0, 2]"] ;
349 -> 353 ;
354 [label="X[0] <= 2.0\ngini = 0.245\nsamples = 7\nvalue = [6, 1]"] ;
348 -> 354 ;
355 [label="gini = 0.0\nsamples = 5\nvalue = [5, 0]"] ;
354 -> 355 ;
356 [label="X[1] <= 0.796\ngini = 0.5\nsamples = 2\nvalue = [1, 1]"] ;
354 -> 356 ;
357 [label="gini = 0.0\nsamples = 1\nvalue = [1, 0]"] ;
356 -> 357 ;
358 [label="gini = 0.0\nsamples = 1\nvalue = [0, 1]"] ;
356 -> 358 ;
359 [label="X[3] <= 24.5\ngini = 0.105\nsamples = 18\nvalue = [17, 1]"] ;
341 -> 359 ;
360 [label="gini = 0.0\nsamples = 15\nvalue = [15, 0]"] ;
359 -> 360 ;
361 [label="X[1] <= 0.776\ngini = 0.444\nsamples = 3\nvalue = [2, 1]"] ;
359 -> 361 ;
362 [label="gini = 0.0\nsamples = 2\nvalue = [2, 0]"] ;
361 -> 362 ;
363 [label="gini = 0.0\nsamples = 1\nvalue = [0, 1]"] ;
361 -> 363 ;
364 [label="X[1] <= 0.751\ngini = 0.444\nsamples = 3\nvalue = [1, 2]"] ;
340 -> 364 ;
365 [label="gini = 0.0\nsamples = 2\nvalue = [0, 2]"] ;
364 -> 365 ;
366 [label="gini = 0.0\nsamples = 1\nvalue = [1, 0]"] ;
364 -> 366 ;
367 [label="gini = 0.0\nsamples = 16\nvalue = [16, 0]"] ;
339 -> 367 ;
368 [label="X[3] <= 22.5\ngini = 0.455\nsamples = 20\nvalue = [13, 7]"] ;
338 -> 368 ;
369 [label="X[1] <= 0.762\ngini = 0.469\nsamples = 8\nvalue = [3, 5]"] ;
368 -> 369 ;
370 [label="gini = 0.0\nsamples = 3\nvalue = [0, 3]"] ;
369 -> 370 ;
371 [label="X[1] <= 0.769\ngini = 0.48\nsamples = 5\nvalue = [3, 2]"] ;
369 -> 371 ;
372 [label="gini = 0.0\nsamples = 3\nvalue = [3, 0]"] ;
371 -> 372 ;
373 [label="gini = 0.0\nsamples = 2\nvalue = [0, 2]"] ;
371 -> 373 ;
374 [label="X[3] <= 32.5\ngini = 0.278\nsamples = 12\nvalue = [10, 2]"] ;
368 -> 374 ;
375 [label="gini = 0.0\nsamples = 9\nvalue = [9, 0]"] ;
374 -> 375 ;
376 [label="X[3] <= 33.5\ngini = 0.444\nsamples = 3\nvalue = [1, 2]"] ;
374 -> 376 ;
377 [label="gini = 0.0\nsamples = 1\nvalue = [0, 1]"] ;
376 -> 377 ;
378 [label="X[1] <= 0.764\ngini = 0.5\nsamples = 2\nvalue = [1, 1]"] ;
376 -> 378 ;
379 [label="gini = 0.0\nsamples = 1\nvalue = [0, 1]"] ;
378 -> 379 ;
380 [label="gini = 0.0\nsamples = 1\nvalue = [1, 0]"] ;
378 -> 380 ;
381 [label="X[1] <= 0.803\ngini = 0.122\nsamples = 46\nvalue = [43, 3]"] ;
337 -> 381 ;
382 [label="X[3] <= 16.5\ngini = 0.087\nsamples = 44\nvalue = [42, 2]"] ;
381 -> 382 ;
383 [label="X[1] <= 0.782\ngini = 0.32\nsamples = 10\nvalue = [8, 2]"] ;
382 -> 383 ;
384 [label="X[3] <= 15.5\ngini = 0.198\nsamples = 9\nvalue = [8, 1]"] ;
383 -> 384 ;
385 [label="gini = 0.0\nsamples = 6\nvalue = [6, 0]"] ;
384 -> 385 ;
386 [label="X[2] <= 22.0\ngini = 0.444\nsamples = 3\nvalue = [2, 1]"] ;
384 -> 386 ;
387 [label="gini = 0.0\nsamples = 1\nvalue = [1, 0]"] ;
386 -> 387 ;
388 [label="X[1] <= 0.751\ngini = 0.5\nsamples = 2\nvalue = [1, 1]"] ;
386 -> 388 ;
389 [label="gini = 0.0\nsamples = 1\nvalue = [1, 0]"] ;
388 -> 389 ;
390 [label="gini = 0.0\nsamples = 1\nvalue = [0, 1]"] ;
388 -> 390 ;
391 [label="gini = 0.0\nsamples = 1\nvalue = [0, 1]"] ;
383 -> 391 ;
392 [label="gini = 0.0\nsamples = 34\nvalue = [34, 0]"] ;
382 -> 392 ;
393 [label="X[3] <= 23.5\ngini = 0.5\nsamples = 2\nvalue = [1, 1]"] ;
381 -> 393 ;
394 [label="gini = 0.0\nsamples = 1\nvalue = [1, 0]"] ;
393 -> 394 ;
395 [label="gini = 0.0\nsamples = 1\nvalue = [0, 1]"] ;
393 -> 395 ;
396 [label="gini = 0.0\nsamples = 18\nvalue = [18, 0]"] ;
326 -> 396 ;
397 [label="X[1] <= 0.808\ngini = 0.383\nsamples = 62\nvalue = [46, 16]"] ;
325 -> 397 ;
398 [label="gini = 0.0\nsamples = 2\nvalue = [0, 2]"] ;
397 -> 398 ;
399 [label="X[2] <= 37.0\ngini = 0.358\nsamples = 60\nvalue = [46, 14]"] ;
397 -> 399 ;
400 [label="X[0] <= 6.0\ngini = 0.328\nsamples = 58\nvalue = [46, 12]"] ;
399 -> 400 ;
401 [label="X[2] <= 24.5\ngini = 0.311\nsamples = 57\nvalue = [46, 11]"] ;
400 -> 401 ;
402 [label="X[2] <= 23.5\ngini = 0.353\nsamples = 48\nvalue = [37, 11]"] ;
401 -> 402 ;
403 [label="X[2] <= 18.0\ngini = 0.303\nsamples = 43\nvalue = [35, 8]"] ;
402 -> 403 ;
404 [label="X[2] <= 10.5\ngini = 0.375\nsamples = 32\nvalue = [24, 8]"] ;
403 -> 404 ;
405 [label="gini = 0.0\nsamples = 6\nvalue = [6, 0]"] ;
404 -> 405 ;
406 [label="X[3] <= 16.5\ngini = 0.426\nsamples = 26\nvalue = [18, 8]"] ;
404 -> 406 ;
407 [label="gini = 0.0\nsamples = 4\nvalue = [4, 0]"] ;
406 -> 407 ;
408 [label="X[0] <= 1.5\ngini = 0.463\nsamples = 22\nvalue = [14, 8]"] ;
406 -> 408 ;
409 [label="X[1] <= 0.827\ngini = 0.432\nsamples = 19\nvalue = [13, 6]"] ;
408 -> 409 ;
410 [label="X[3] <= 25.5\ngini = 0.497\nsamples = 13\nvalue = [7, 6]"] ;
409 -> 410 ;
411 [label="X[2] <= 12.5\ngini = 0.469\nsamples = 8\nvalue = [3, 5]"] ;
410 -> 411 ;
412 [label="gini = 0.0\nsamples = 3\nvalue = [0, 3]"] ;
411 -> 412 ;
413 [label="X[2] <= 16.5\ngini = 0.48\nsamples = 5\nvalue = [3, 2]"] ;
411 -> 413 ;
414 [label="X[3] <= 24.5\ngini = 0.375\nsamples = 4\nvalue = [3, 1]"] ;
413 -> 414 ;
415 [label="gini = 0.0\nsamples = 3\nvalue = [3, 0]"] ;
414 -> 415 ;
416 [label="gini = 0.0\nsamples = 1\nvalue = [0, 1]"] ;
414 -> 416 ;
417 [label="gini = 0.0\nsamples = 1\nvalue = [0, 1]"] ;
413 -> 417 ;
418 [label="X[3] <= 29.0\ngini = 0.32\nsamples = 5\nvalue = [4, 1]"] ;
410 -> 418 ;
419 [label="gini = 0.0\nsamples = 3\nvalue = [3, 0]"] ;
418 -> 419 ;
420 [label="X[3] <= 34.5\ngini = 0.5\nsamples = 2\nvalue = [1, 1]"] ;
418 -> 420 ;
421 [label="gini = 0.0\nsamples = 1\nvalue = [0, 1]"] ;
420 -> 421 ;
422 [label="gini = 0.0\nsamples = 1\nvalue = [1, 0]"] ;
420 -> 422 ;
423 [label="gini = 0.0\nsamples = 6\nvalue = [6, 0]"] ;
409 -> 423 ;
424 [label="X[3] <= 24.5\ngini = 0.444\nsamples = 3\nvalue = [1, 2]"] ;
408 -> 424 ;
425 [label="gini = 0.0\nsamples = 1\nvalue = [1, 0]"] ;
424 -> 425 ;
426 [label="gini = 0.0\nsamples = 2\nvalue = [0, 2]"] ;
424 -> 426 ;
427 [label="gini = 0.0\nsamples = 11\nvalue = [11, 0]"] ;
403 -> 427 ;
428 [label="X[1] <= 0.819\ngini = 0.48\nsamples = 5\nvalue = [2, 3]"] ;
402 -> 428 ;
429 [label="gini = 0.0\nsamples = 2\nvalue = [2, 0]"] ;
428 -> 429 ;
430 [label="gini = 0.0\nsamples = 3\nvalue = [0, 3]"] ;
428 -> 430 ;
431 [label="gini = 0.0\nsamples = 9\nvalue = [9, 0]"] ;
401 -> 431 ;
432 [label="gini = 0.0\nsamples = 1\nvalue = [0, 1]"] ;
400 -> 432 ;
433 [label="gini = 0.0\nsamples = 2\nvalue = [0, 2]"] ;
399 -> 433 ;
434 [label="gini = 0.0\nsamples = 23\nvalue = [23, 0]"] ;
324 -> 434 ;
435 [label="X[1] <= 0.81\ngini = 0.48\nsamples = 10\nvalue = [6, 4]"] ;
323 -> 435 ;
436 [label="X[1] <= 0.758\ngini = 0.444\nsamples = 6\nvalue = [2, 4]"] ;
435 -> 436 ;
437 [label="gini = 0.0\nsamples = 2\nvalue = [2, 0]"] ;
436 -> 437 ;
438 [label="gini = 0.0\nsamples = 4\nvalue = [0, 4]"] ;
436 -> 438 ;
439 [label="gini = 0.0\nsamples = 4\nvalue = [4, 0]"] ;
435 -> 439 ;
440 [label="gini = 0.0\nsamples = 18\nvalue = [18, 0]"] ;
322 -> 440 ;
441 [label="X[2] <= 55.0\ngini = 0.414\nsamples = 65\nvalue = [46, 19]"] ;
321 -> 441 ;
442 [label="X[1] <= 0.744\ngini = 0.32\nsamples = 45\nvalue = [36, 9]"] ;
441 -> 442 ;
443 [label="X[1] <= 0.741\ngini = 0.5\nsamples = 6\nvalue = [3, 3]"] ;
442 -> 443 ;
444 [label="X[2] <= 45.5\ngini = 0.375\nsamples = 4\nvalue = [3, 1]"] ;
443 -> 444 ;
445 [label="gini = 0.0\nsamples = 3\nvalue = [3, 0]"] ;
444 -> 445 ;
446 [label="gini = 0.0\nsamples = 1\nvalue = [0, 1]"] ;
444 -> 446 ;
447 [label="gini = 0.0\nsamples = 2\nvalue = [0, 2]"] ;
443 -> 447 ;
448 [label="X[3] <= 50.5\ngini = 0.26\nsamples = 39\nvalue = [33, 6]"] ;
442 -> 448 ;
449 [label="X[1] <= 0.786\ngini = 0.5\nsamples = 4\nvalue = [2, 2]"] ;
448 -> 449 ;
450 [label="gini = 0.0\nsamples = 1\nvalue = [1, 0]"] ;
449 -> 450 ;
451 [label="X[2] <= 29.5\ngini = 0.444\nsamples = 3\nvalue = [1, 2]"] ;
449 -> 451 ;
452 [label="gini = 0.0\nsamples = 1\nvalue = [1, 0]"] ;
451 -> 452 ;
453 [label="gini = 0.0\nsamples = 2\nvalue = [0, 2]"] ;
451 -> 453 ;
454 [label="X[1] <= 0.795\ngini = 0.202\nsamples = 35\nvalue = [31, 4]"] ;
448 -> 454 ;
455 [label="X[1] <= 0.782\ngini = 0.337\nsamples = 14\nvalue = [11, 3]"] ;
454 -> 455 ;
456 [label="X[3] <= 63.0\ngini = 0.165\nsamples = 11\nvalue = [10, 1]"] ;
455 -> 456 ;
457 [label="gini = 0.0\nsamples = 8\nvalue = [8, 0]"] ;
456 -> 457 ;
458 [label="X[3] <= 71.5\ngini = 0.444\nsamples = 3\nvalue = [2, 1]"] ;
456 -> 458 ;
459 [label="gini = 0.0\nsamples = 1\nvalue = [0, 1]"] ;
458 -> 459 ;
460 [label="gini = 0.0\nsamples = 2\nvalue = [2, 0]"] ;
458 -> 460 ;
461 [label="X[2] <= 37.5\ngini = 0.444\nsamples = 3\nvalue = [1, 2]"] ;
455 -> 461 ;
462 [label="gini = 0.0\nsamples = 2\nvalue = [0, 2]"] ;
461 -> 462 ;
463 [label="gini = 0.0\nsamples = 1\nvalue = [1, 0]"] ;
461 -> 463 ;
464 [label="X[3] <= 53.5\ngini = 0.091\nsamples = 21\nvalue = [20, 1]"] ;
454 -> 464 ;
465 [label="X[3] <= 52.5\ngini = 0.278\nsamples = 6\nvalue = [5, 1]"] ;
464 -> 465 ;
466 [label="gini = 0.0\nsamples = 4\nvalue = [4, 0]"] ;
465 -> 466 ;
467 [label="X[1] <= 0.824\ngini = 0.5\nsamples = 2\nvalue = [1, 1]"] ;
465 -> 467 ;
468 [label="gini = 0.0\nsamples = 1\nvalue = [1, 0]"] ;
467 -> 468 ;
469 [label="gini = 0.0\nsamples = 1\nvalue = [0, 1]"] ;
467 -> 469 ;
470 [label="gini = 0.0\nsamples = 15\nvalue = [15, 0]"] ;
464 -> 470 ;
471 [label="X[2] <= 65.0\ngini = 0.5\nsamples = 20\nvalue = [10, 10]"] ;
441 -> 471 ;
472 [label="X[0] <= 8.5\ngini = 0.278\nsamples = 6\nvalue = [1, 5]"] ;
471 -> 472 ;
473 [label="gini = 0.0\nsamples = 3\nvalue = [0, 3]"] ;
472 -> 473 ;
474 [label="X[2] <= 57.5\ngini = 0.444\nsamples = 3\nvalue = [1, 2]"] ;
472 -> 474 ;
475 [label="gini = 0.0\nsamples = 2\nvalue = [0, 2]"] ;
474 -> 475 ;
476 [label="gini = 0.0\nsamples = 1\nvalue = [1, 0]"] ;
474 -> 476 ;
477 [label="X[3] <= 53.5\ngini = 0.459\nsamples = 14\nvalue = [9, 5]"] ;
471 -> 477 ;
478 [label="gini = 0.0\nsamples = 3\nvalue = [0, 3]"] ;
477 -> 478 ;
479 [label="X[1] <= 0.771\ngini = 0.298\nsamples = 11\nvalue = [9, 2]"] ;
477 -> 479 ;
480 [label="X[0] <= 5.5\ngini = 0.48\nsamples = 5\nvalue = [3, 2]"] ;
479 -> 480 ;
481 [label="gini = 0.0\nsamples = 2\nvalue = [2, 0]"] ;
480 -> 481 ;
482 [label="X[0] <= 11.0\ngini = 0.444\nsamples = 3\nvalue = [1, 2]"] ;
480 -> 482 ;
483 [label="gini = 0.0\nsamples = 2\nvalue = [0, 2]"] ;
482 -> 483 ;
484 [label="gini = 0.0\nsamples = 1\nvalue = [1, 0]"] ;
482 -> 484 ;
485 [label="gini = 0.0\nsamples = 6\nvalue = [6, 0]"] ;
479 -> 485 ;
486 [label="gini = 0.0\nsamples = 16\nvalue = [16, 0]"] ;
320 -> 486 ;
487 [label="X[2] <= 20.5\ngini = 0.422\nsamples = 96\nvalue = [67, 29]"] ;
283 -> 487 ;
488 [label="X[2] <= 13.5\ngini = 0.483\nsamples = 49\nvalue = [29, 20]"] ;
487 -> 488 ;
489 [label="X[1] <= 0.857\ngini = 0.417\nsamples = 27\nvalue = [19, 8]"] ;
488 -> 489 ;
490 [label="X[1] <= 0.852\ngini = 0.496\nsamples = 11\nvalue = [6, 5]"] ;
489 -> 490 ;
491 [label="X[1] <= 0.847\ngini = 0.278\nsamples = 6\nvalue = [5, 1]"] ;
490 -> 491 ;
492 [label="X[3] <= 25.0\ngini = 0.5\nsamples = 2\nvalue = [1, 1]"] ;
491 -> 492 ;
493 [label="gini = 0.0\nsamples = 1\nvalue = [0, 1]"] ;
492 -> 493 ;
494 [label="gini = 0.0\nsamples = 1\nvalue = [1, 0]"] ;
492 -> 494 ;
495 [label="gini = 0.0\nsamples = 4\nvalue = [4, 0]"] ;
491 -> 495 ;
496 [label="X[2] <= 12.0\ngini = 0.32\nsamples = 5\nvalue = [1, 4]"] ;
490 -> 496 ;
497 [label="gini = 0.0\nsamples = 3\nvalue = [0, 3]"] ;
496 -> 497 ;
498 [label="X[3] <= 33.0\ngini = 0.5\nsamples = 2\nvalue = [1, 1]"] ;
496 -> 498 ;
499 [label="gini = 0.0\nsamples = 1\nvalue = [1, 0]"] ;
498 -> 499 ;
500 [label="gini = 0.0\nsamples = 1\nvalue = [0, 1]"] ;
498 -> 500 ;
501 [label="X[2] <= 10.5\ngini = 0.305\nsamples = 16\nvalue = [13, 3]"] ;
489 -> 501 ;
502 [label="gini = 0.0\nsamples = 5\nvalue = [5, 0]"] ;
501 -> 502 ;
503 [label="X[3] <= 15.0\ngini = 0.397\nsamples = 11\nvalue = [8, 3]"] ;
501 -> 503 ;
504 [label="gini = 0.0\nsamples = 1\nvalue = [0, 1]"] ;
503 -> 504 ;
505 [label="X[1] <= 0.863\ngini = 0.32\nsamples = 10\nvalue = [8, 2]"] ;
503 -> 505 ;
506 [label="X[1] <= 0.861\ngini = 0.48\nsamples = 5\nvalue = [3, 2]"] ;
505 -> 506 ;
507 [label="gini = 0.0\nsamples = 2\nvalue = [2, 0]"] ;
506 -> 507 ;
508 [label="X[3] <= 20.0\ngini = 0.444\nsamples = 3\nvalue = [1, 2]"] ;
506 -> 508 ;
509 [label="gini = 0.0\nsamples = 1\nvalue = [1, 0]"] ;
508 -> 509 ;
510 [label="gini = 0.0\nsamples = 2\nvalue = [0, 2]"] ;
508 -> 510 ;
511 [label="gini = 0.0\nsamples = 5\nvalue = [5, 0]"] ;
505 -> 511 ;
512 [label="X[1] <= 0.85\ngini = 0.496\nsamples = 22\nvalue = [10, 12]"] ;
488 -> 512 ;
513 [label="gini = 0.0\nsamples = 4\nvalue = [0, 4]"] ;
512 -> 513 ;
514 [label="X[0] <= 1.5\ngini = 0.494\nsamples = 18\nvalue = [10, 8]"] ;
512 -> 514 ;
515 [label="X[3] <= 15.5\ngini = 0.444\nsamples = 15\nvalue = [10, 5]"] ;
514 -> 515 ;
516 [label="gini = 0.0\nsamples = 2\nvalue = [0, 2]"] ;
515 -> 516 ;
517 [label="X[2] <= 15.5\ngini = 0.355\nsamples = 13\nvalue = [10, 3]"] ;
515 -> 517 ;
518 [label="X[3] <= 47.5\ngini = 0.48\nsamples = 5\nvalue = [2, 3]"] ;
517 -> 518 ;
519 [label="X[3] <= 27.0\ngini = 0.444\nsamples = 3\nvalue = [2, 1]"] ;
518 -> 519 ;
520 [label="gini = 0.0\nsamples = 1\nvalue = [0, 1]"] ;
519 -> 520 ;
521 [label="gini = 0.0\nsamples = 2\nvalue = [2, 0]"] ;
519 -> 521 ;
522 [label="gini = 0.0\nsamples = 2\nvalue = [0, 2]"] ;
518 -> 522 ;
523 [label="gini = 0.0\nsamples = 8\nvalue = [8, 0]"] ;
517 -> 523 ;
524 [label="gini = 0.0\nsamples = 3\nvalue = [0, 3]"] ;
514 -> 524 ;
525 [label="X[2] <= 58.5\ngini = 0.31\nsamples = 47\nvalue = [38, 9]"] ;
487 -> 525 ;
526 [label="X[0] <= 12.0\ngini = 0.184\nsamples = 39\nvalue = [35, 4]"] ;
525 -> 526 ;
527 [label="X[1] <= 0.857\ngini = 0.145\nsamples = 38\nvalue = [35, 3]"] ;
526 -> 527 ;
528 [label="X[1] <= 0.856\ngini = 0.266\nsamples = 19\nvalue = [16, 3]"] ;
527 -> 528 ;
529 [label="X[1] <= 0.853\ngini = 0.111\nsamples = 17\nvalue = [16, 1]"] ;
528 -> 529 ;
530 [label="gini = 0.0\nsamples = 13\nvalue = [13, 0]"] ;
529 -> 530 ;
531 [label="X[3] <= 50.5\ngini = 0.375\nsamples = 4\nvalue = [3, 1]"] ;
529 -> 531 ;
532 [label="gini = 0.0\nsamples = 3\nvalue = [3, 0]"] ;
531 -> 532 ;
533 [label="gini = 0.0\nsamples = 1\nvalue = [0, 1]"] ;
531 -> 533 ;
534 [label="gini = 0.0\nsamples = 2\nvalue = [0, 2]"] ;
528 -> 534 ;
535 [label="gini = 0.0\nsamples = 19\nvalue = [19, 0]"] ;
527 -> 535 ;
536 [label="gini = 0.0\nsamples = 1\nvalue = [0, 1]"] ;
526 -> 536 ;
537 [label="X[0] <= 4.0\ngini = 0.469\nsamples = 8\nvalue = [3, 5]"] ;
525 -> 537 ;
538 [label="gini = 0.0\nsamples = 4\nvalue = [0, 4]"] ;
537 -> 538 ;
539 [label="X[3] <= 35.0\ngini = 0.375\nsamples = 4\nvalue = [3, 1]"] ;
537 -> 539 ;
540 [label="gini = 0.0\nsamples = 1\nvalue = [0, 1]"] ;
539 -> 540 ;
541 [label="gini = 0.0\nsamples = 3\nvalue = [3, 0]"] ;
539 -> 541 ;
542 [label="X[2] <= 156.5\ngini = 0.494\nsamples = 18\nvalue = [10, 8]"] ;
282 -> 542 ;
543 [label="X[3] <= 115.0\ngini = 0.444\nsamples = 15\nvalue = [10, 5]"] ;
542 -> 543 ;
544 [label="X[1] <= 0.775\ngini = 0.496\nsamples = 11\nvalue = [6, 5]"] ;
543 -> 544 ;
545 [label="gini = 0.0\nsamples = 2\nvalue = [0, 2]"] ;
544 -> 545 ;
546 [label="X[1] <= 0.821\ngini = 0.444\nsamples = 9\nvalue = [6, 3]"] ;
544 -> 546 ;
547 [label="gini = 0.0\nsamples = 4\nvalue = [4, 0]"] ;
546 -> 547 ;
548 [label="X[1] <= 0.842\ngini = 0.48\nsamples = 5\nvalue = [2, 3]"] ;
546 -> 548 ;
549 [label="gini = 0.0\nsamples = 3\nvalue = [0, 3]"] ;
548 -> 549 ;
550 [label="gini = 0.0\nsamples = 2\nvalue = [2, 0]"] ;
548 -> 550 ;
551 [label="gini = 0.0\nsamples = 4\nvalue = [4, 0]"] ;
543 -> 551 ;
552 [label="gini = 0.0\nsamples = 3\nvalue = [0, 3]"] ;
542 -> 552 ;
553 [label="X[1] <= 0.862\ngini = 0.1\nsamples = 38\nvalue = [36, 2]"] ;
281 -> 553 ;
554 [label="X[2] <= 485.0\ngini = 0.053\nsamples = 37\nvalue = [36, 1]"] ;
553 -> 554 ;
555 [label="gini = 0.0\nsamples = 34\nvalue = [34, 0]"] ;
554 -> 555 ;
556 [label="X[2] <= 512.5\ngini = 0.444\nsamples = 3\nvalue = [2, 1]"] ;
554 -> 556 ;
557 [label="gini = 0.0\nsamples = 1\nvalue = [0, 1]"] ;
556 -> 557 ;
558 [label="gini = 0.0\nsamples = 2\nvalue = [2, 0]"] ;
556 -> 558 ;
559 [label="gini = 0.0\nsamples = 1\nvalue = [0, 1]"] ;
553 -> 559 ;
560 [label="X[3] <= 9.5\ngini = 0.402\nsamples = 478\nvalue = [345, 133]"] ;
280 -> 560 ;
561 [label="X[1] <= 0.758\ngini = 0.444\nsamples = 9\nvalue = [3, 6]"] ;
560 -> 561 ;
562 [label="gini = 0.0\nsamples = 1\nvalue = [1, 0]"] ;
561 -> 562 ;
563 [label="X[1] <= 0.813\ngini = 0.375\nsamples = 8\nvalue = [2, 6]"] ;
561 -> 563 ;
564 [label="gini = 0.0\nsamples = 5\nvalue = [0, 5]"] ;
563 -> 564 ;
565 [label="X[3] <= 8.5\ngini = 0.444\nsamples = 3\nvalue = [2, 1]"] ;
563 -> 565 ;
566 [label="gini = 0.0\nsamples = 1\nvalue = [0, 1]"] ;
565 -> 566 ;
567 [label="gini = 0.0\nsamples = 2\nvalue = [2, 0]"] ;
565 -> 567 ;
568 [label="X[1] <= 0.856\ngini = 0.395\nsamples = 469\nvalue = [342, 127]"] ;
560 -> 568 ;
569 [label="X[1] <= 0.842\ngini = 0.405\nsamples = 440\nvalue = [316, 124]"] ;
568 -> 569 ;
570 [label="X[1] <= 0.725\ngini = 0.392\nsamples = 408\nvalue = [299, 109]"] ;
569 -> 570 ;
571 [label="X[3] <= 23.5\ngini = 0.494\nsamples = 9\nvalue = [4, 5]"] ;
570 -> 571 ;
572 [label="gini = 0.0\nsamples = 3\nvalue = [3, 0]"] ;
571 -> 572 ;
573 [label="X[3] <= 158.0\ngini = 0.278\nsamples = 6\nvalue = [1, 5]"] ;
571 -> 573 ;
574 [label="gini = 0.0\nsamples = 5\nvalue = [0, 5]"] ;
573 -> 574 ;
575 [label="gini = 0.0\nsamples = 1\nvalue = [1, 0]"] ;
573 -> 575 ;
576 [label="X[1] <= 0.742\ngini = 0.385\nsamples = 399\nvalue = [295, 104]"] ;
570 -> 576 ;
577 [label="X[2] <= 14.0\ngini = 0.255\nsamples = 60\nvalue = [51, 9]"] ;
576 -> 577 ;
578 [label="gini = 0.0\nsamples = 2\nvalue = [0, 2]"] ;
577 -> 578 ;
579 [label="X[2] <= 22.5\ngini = 0.212\nsamples = 58\nvalue = [51, 7]"] ;
577 -> 579 ;
580 [label="X[2] <= 20.5\ngini = 0.469\nsamples = 8\nvalue = [5, 3]"] ;
579 -> 580 ;
581 [label="gini = 0.0\nsamples = 5\nvalue = [5, 0]"] ;
580 -> 581 ;
582 [label="gini = 0.0\nsamples = 3\nvalue = [0, 3]"] ;
580 -> 582 ;
583 [label="X[2] <= 56.5\ngini = 0.147\nsamples = 50\nvalue = [46, 4]"] ;
579 -> 583 ;
584 [label="gini = 0.0\nsamples = 28\nvalue = [28, 0]"] ;
583 -> 584 ;
585 [label="X[2] <= 66.5\ngini = 0.298\nsamples = 22\nvalue = [18, 4]"] ;
583 -> 585 ;
586 [label="X[3] <= 82.0\ngini = 0.444\nsamples = 3\nvalue = [1, 2]"] ;
585 -> 586 ;
587 [label="gini = 0.0\nsamples = 2\nvalue = [0, 2]"] ;
586 -> 587 ;
588 [label="gini = 0.0\nsamples = 1\nvalue = [1, 0]"] ;
586 -> 588 ;
589 [label="X[0] <= 26.0\ngini = 0.188\nsamples = 19\nvalue = [17, 2]"] ;
585 -> 589 ;
590 [label="gini = 0.0\nsamples = 1\nvalue = [0, 1]"] ;
589 -> 590 ;
591 [label="X[2] <= 80.5\ngini = 0.105\nsamples = 18\nvalue = [17, 1]"] ;
589 -> 591 ;
592 [label="X[2] <= 79.5\ngini = 0.375\nsamples = 4\nvalue = [3, 1]"] ;
591 -> 592 ;
593 [label="gini = 0.0\nsamples = 3\nvalue = [3, 0]"] ;
592 -> 593 ;
594 [label="gini = 0.0\nsamples = 1\nvalue = [0, 1]"] ;
592 -> 594 ;
595 [label="gini = 0.0\nsamples = 14\nvalue = [14, 0]"] ;
591 -> 595 ;
596 [label="X[1] <= 0.744\ngini = 0.403\nsamples = 339\nvalue = [244, 95]"] ;
576 -> 596 ;
597 [label="X[3] <= 40.5\ngini = 0.444\nsamples = 6\nvalue = [2, 4]"] ;
596 -> 597 ;
598 [label="gini = 0.0\nsamples = 2\nvalue = [2, 0]"] ;
597 -> 598 ;
599 [label="gini = 0.0\nsamples = 4\nvalue = [0, 4]"] ;
597 -> 599 ;
600 [label="X[2] <= 440.5\ngini = 0.397\nsamples = 333\nvalue = [242, 91]"] ;
596 -> 600 ;
601 [label="X[0] <= 45.5\ngini = 0.395\nsamples = 332\nvalue = [242, 90]"] ;
600 -> 601 ;
602 [label="X[2] <= 241.0\ngini = 0.426\nsamples = 182\nvalue = [126, 56]"] ;
601 -> 602 ;
603 [label="X[2] <= 120.5\ngini = 0.437\nsamples = 174\nvalue = [118, 56]"] ;
602 -> 603 ;
604 [label="X[1] <= 0.769\ngini = 0.416\nsamples = 159\nvalue = [112, 47]"] ;
603 -> 604 ;
605 [label="X[1] <= 0.761\ngini = 0.484\nsamples = 34\nvalue = [20, 14]"] ;
604 -> 605 ;
606 [label="X[2] <= 49.0\ngini = 0.426\nsamples = 26\nvalue = [18, 8]"] ;
605 -> 606 ;
607 [label="X[0] <= 26.5\ngini = 0.494\nsamples = 18\nvalue = [10, 8]"] ;
606 -> 607 ;
608 [label="gini = 0.0\nsamples = 4\nvalue = [0, 4]"] ;
607 -> 608 ;
609 [label="X[1] <= 0.748\ngini = 0.408\nsamples = 14\nvalue = [10, 4]"] ;
607 -> 609 ;
610 [label="X[2] <= 24.0\ngini = 0.48\nsamples = 5\nvalue = [2, 3]"] ;
609 -> 610 ;
611 [label="X[1] <= 0.747\ngini = 0.444\nsamples = 3\nvalue = [2, 1]"] ;
610 -> 611 ;
612 [label="gini = 0.0\nsamples = 2\nvalue = [2, 0]"] ;
611 -> 612 ;
613 [label="gini = 0.0\nsamples = 1\nvalue = [0, 1]"] ;
611 -> 613 ;
614 [label="gini = 0.0\nsamples = 2\nvalue = [0, 2]"] ;
610 -> 614 ;
615 [label="X[0] <= 34.0\ngini = 0.198\nsamples = 9\nvalue = [8, 1]"] ;
609 -> 615 ;
616 [label="X[1] <= 0.755\ngini = 0.444\nsamples = 3\nvalue = [2, 1]"] ;
615 -> 616 ;
617 [label="gini = 0.0\nsamples = 1\nvalue = [0, 1]"] ;
616 -> 617 ;
618 [label="gini = 0.0\nsamples = 2\nvalue = [2, 0]"] ;
616 -> 618 ;
619 [label="gini = 0.0\nsamples = 6\nvalue = [6, 0]"] ;
615 -> 619 ;
620 [label="gini = 0.0\nsamples = 8\nvalue = [8, 0]"] ;
606 -> 620 ;
621 [label="X[0] <= 43.5\ngini = 0.375\nsamples = 8\nvalue = [2, 6]"] ;
605 -> 621 ;
622 [label="X[0] <= 25.5\ngini = 0.245\nsamples = 7\nvalue = [1, 6]"] ;
621 -> 622 ;
623 [label="X[2] <= 41.5\ngini = 0.5\nsamples = 2\nvalue = [1, 1]"] ;
622 -> 623 ;
624 [label="gini = 0.0\nsamples = 1\nvalue = [0, 1]"] ;
623 -> 624 ;
625 [label="gini = 0.0\nsamples = 1\nvalue = [1, 0]"] ;
623 -> 625 ;
626 [label="gini = 0.0\nsamples = 5\nvalue = [0, 5]"] ;
622 -> 626 ;
627 [label="gini = 0.0\nsamples = 1\nvalue = [1, 0]"] ;
621 -> 627 ;
628 [label="X[0] <= 43.5\ngini = 0.389\nsamples = 125\nvalue = [92, 33]"] ;
604 -> 628 ;
629 [label="X[0] <= 17.5\ngini = 0.352\nsamples = 114\nvalue = [88, 26]"] ;
628 -> 629 ;
630 [label="gini = 0.0\nsamples = 1\nvalue = [0, 1]"] ;
629 -> 630 ;
631 [label="X[0] <= 25.5\ngini = 0.345\nsamples = 113\nvalue = [88, 25]"] ;
629 -> 631 ;
632 [label="X[3] <= 11.0\ngini = 0.117\nsamples = 16\nvalue = [15, 1]"] ;
631 -> 632 ;
633 [label="gini = 0.0\nsamples = 1\nvalue = [0, 1]"] ;
632 -> 633 ;
634 [label="gini = 0.0\nsamples = 15\nvalue = [15, 0]"] ;
632 -> 634 ;
635 [label="X[2] <= 33.5\ngini = 0.372\nsamples = 97\nvalue = [73, 24]"] ;
631 -> 635 ;
636 [label="X[3] <= 55.0\ngini = 0.302\nsamples = 54\nvalue = [44, 10]"] ;
635 -> 636 ;
637 [label="X[3] <= 45.5\ngini = 0.381\nsamples = 39\nvalue = [29, 10]"] ;
636 -> 637 ;
638 [label="X[3] <= 22.5\ngini = 0.339\nsamples = 37\nvalue = [29, 8]"] ;
637 -> 638 ;
639 [label="X[1] <= 0.837\ngini = 0.124\nsamples = 15\nvalue = [14, 1]"] ;
638 -> 639 ;
640 [label="gini = 0.0\nsamples = 13\nvalue = [13, 0]"] ;
639 -> 640 ;
641 [label="X[0] <= 35.0\ngini = 0.5\nsamples = 2\nvalue = [1, 1]"] ;
639 -> 641 ;
642 [label="gini = 0.0\nsamples = 1\nvalue = [0, 1]"] ;
641 -> 642 ;
643 [label="gini = 0.0\nsamples = 1\nvalue = [1, 0]"] ;
641 -> 643 ;
644 [label="X[3] <= 30.5\ngini = 0.434\nsamples = 22\nvalue = [15, 7]"] ;
638 -> 644 ;
645 [label="X[2] <= 21.0\ngini = 0.408\nsamples = 7\nvalue = [2, 5]"] ;
644 -> 645 ;
646 [label="X[1] <= 0.788\ngini = 0.278\nsamples = 6\nvalue = [1, 5]"] ;
645 -> 646 ;
647 [label="gini = 0.0\nsamples = 1\nvalue = [1, 0]"] ;
646 -> 647 ;
648 [label="gini = 0.0\nsamples = 5\nvalue = [0, 5]"] ;
646 -> 648 ;
649 [label="gini = 0.0\nsamples = 1\nvalue = [1, 0]"] ;
645 -> 649 ;
650 [label="X[2] <= 17.5\ngini = 0.231\nsamples = 15\nvalue = [13, 2]"] ;
644 -> 650 ;
651 [label="gini = 0.0\nsamples = 7\nvalue = [7, 0]"] ;
650 -> 651 ;
652 [label="X[0] <= 36.5\ngini = 0.375\nsamples = 8\nvalue = [6, 2]"] ;
650 -> 652 ;
653 [label="gini = 0.0\nsamples = 4\nvalue = [4, 0]"] ;
652 -> 653 ;
654 [label="X[1] <= 0.772\ngini = 0.5\nsamples = 4\nvalue = [2, 2]"] ;
652 -> 654 ;
655 [label="gini = 0.0\nsamples = 1\nvalue = [1, 0]"] ;
654 -> 655 ;
656 [label="X[3] <= 38.5\ngini = 0.444\nsamples = 3\nvalue = [1, 2]"] ;
654 -> 656 ;
657 [label="gini = 0.0\nsamples = 2\nvalue = [0, 2]"] ;
656 -> 657 ;
658 [label="gini = 0.0\nsamples = 1\nvalue = [1, 0]"] ;
656 -> 658 ;
659 [label="gini = 0.0\nsamples = 2\nvalue = [0, 2]"] ;
637 -> 659 ;
660 [label="gini = 0.0\nsamples = 15\nvalue = [15, 0]"] ;
636 -> 660 ;
661 [label="X[2] <= 45.5\ngini = 0.439\nsamples = 43\nvalue = [29, 14]"] ;
635 -> 661 ;
662 [label="X[1] <= 0.78\ngini = 0.48\nsamples = 10\nvalue = [4, 6]"] ;
661 -> 662 ;
663 [label="gini = 0.0\nsamples = 2\nvalue = [2, 0]"] ;
662 -> 663 ;
664 [label="X[1] <= 0.827\ngini = 0.375\nsamples = 8\nvalue = [2, 6]"] ;
662 -> 664 ;
665 [label="X[0] <= 39.5\ngini = 0.245\nsamples = 7\nvalue = [1, 6]"] ;
664 -> 665 ;
666 [label="X[3] <= 23.5\ngini = 0.444\nsamples = 3\nvalue = [1, 2]"] ;
665 -> 666 ;
667 [label="gini = 0.0\nsamples = 2\nvalue = [0, 2]"] ;
666 -> 667 ;
668 [label="gini = 0.0\nsamples = 1\nvalue = [1, 0]"] ;
666 -> 668 ;
669 [label="gini = 0.0\nsamples = 4\nvalue = [0, 4]"] ;
665 -> 669 ;
670 [label="gini = 0.0\nsamples = 1\nvalue = [1, 0]"] ;
664 -> 670 ;
671 [label="X[3] <= 54.5\ngini = 0.367\nsamples = 33\nvalue = [25, 8]"] ;
661 -> 671 ;
672 [label="gini = 0.0\nsamples = 10\nvalue = [10, 0]"] ;
671 -> 672 ;
673 [label="X[1] <= 0.812\ngini = 0.454\nsamples = 23\nvalue = [15, 8]"] ;
671 -> 673 ;
674 [label="X[0] <= 32.5\ngini = 0.32\nsamples = 15\nvalue = [12, 3]"] ;
673 -> 674 ;
675 [label="X[1] <= 0.793\ngini = 0.42\nsamples = 10\nvalue = [7, 3]"] ;
674 -> 675 ;
676 [label="X[0] <= 27.5\ngini = 0.444\nsamples = 3\nvalue = [1, 2]"] ;
675 -> 676 ;
677 [label="gini = 0.0\nsamples = 2\nvalue = [0, 2]"] ;
676 -> 677 ;
678 [label="gini = 0.0\nsamples = 1\nvalue = [1, 0]"] ;
676 -> 678 ;
679 [label="X[3] <= 57.5\ngini = 0.245\nsamples = 7\nvalue = [6, 1]"] ;
675 -> 679 ;
680 [label="gini = 0.0\nsamples = 1\nvalue = [0, 1]"] ;
679 -> 680 ;
681 [label="gini = 0.0\nsamples = 6\nvalue = [6, 0]"] ;
679 -> 681 ;
682 [label="gini = 0.0\nsamples = 5\nvalue = [5, 0]"] ;
674 -> 682 ;
683 [label="X[1] <= 0.814\ngini = 0.469\nsamples = 8\nvalue = [3, 5]"] ;
673 -> 683 ;
684 [label="gini = 0.0\nsamples = 3\nvalue = [0, 3]"] ;
683 -> 684 ;
685 [label="X[3] <= 88.5\ngini = 0.48\nsamples = 5\nvalue = [3, 2]"] ;
683 -> 685 ;
686 [label="gini = 0.0\nsamples = 2\nvalue = [0, 2]"] ;
685 -> 686 ;
687 [label="gini = 0.0\nsamples = 3\nvalue = [3, 0]"] ;
685 -> 687 ;
688 [label="X[3] <= 33.0\ngini = 0.463\nsamples = 11\nvalue = [4, 7]"] ;
628 -> 688 ;
689 [label="gini = 0.0\nsamples = 3\nvalue = [0, 3]"] ;
688 -> 689 ;
690 [label="X[1] <= 0.82\ngini = 0.5\nsamples = 8\nvalue = [4, 4]"] ;
688 -> 690 ;
691 [label="X[1] <= 0.793\ngini = 0.444\nsamples = 6\nvalue = [2, 4]"] ;
690 -> 691 ;
692 [label="gini = 0.0\nsamples = 1\nvalue = [1, 0]"] ;
691 -> 692 ;
693 [label="X[2] <= 29.0\ngini = 0.32\nsamples = 5\nvalue = [1, 4]"] ;
691 -> 693 ;
694 [label="X[3] <= 44.0\ngini = 0.5\nsamples = 2\nvalue = [1, 1]"] ;
693 -> 694 ;
695 [label="gini = 0.0\nsamples = 1\nvalue = [0, 1]"] ;
694 -> 695 ;
696 [label="gini = 0.0\nsamples = 1\nvalue = [1, 0]"] ;
694 -> 696 ;
697 [label="gini = 0.0\nsamples = 3\nvalue = [0, 3]"] ;
693 -> 697 ;
698 [label="gini = 0.0\nsamples = 2\nvalue = [2, 0]"] ;
690 -> 698 ;
699 [label="X[3] <= 78.0\ngini = 0.48\nsamples = 15\nvalue = [6, 9]"] ;
603 -> 699 ;
700 [label="gini = 0.0\nsamples = 5\nvalue = [0, 5]"] ;
699 -> 700 ;
701 [label="X[1] <= 0.818\ngini = 0.48\nsamples = 10\nvalue = [6, 4]"] ;
699 -> 701 ;
702 [label="X[0] <= 26.5\ngini = 0.245\nsamples = 7\nvalue = [6, 1]"] ;
701 -> 702 ;
703 [label="X[1] <= 0.757\ngini = 0.5\nsamples = 2\nvalue = [1, 1]"] ;
702 -> 703 ;
704 [label="gini = 0.0\nsamples = 1\nvalue = [1, 0]"] ;
703 -> 704 ;
705 [label="gini = 0.0\nsamples = 1\nvalue = [0, 1]"] ;
703 -> 705 ;
706 [label="gini = 0.0\nsamples = 5\nvalue = [5, 0]"] ;
702 -> 706 ;
707 [label="gini = 0.0\nsamples = 3\nvalue = [0, 3]"] ;
701 -> 707 ;
708 [label="gini = 0.0\nsamples = 8\nvalue = [8, 0]"] ;
602 -> 708 ;
709 [label="X[2] <= 18.5\ngini = 0.351\nsamples = 150\nvalue = [116, 34]"] ;
601 -> 709 ;
710 [label="gini = 0.0\nsamples = 9\nvalue = [9, 0]"] ;
709 -> 710 ;
711 [label="X[3] <= 19.5\ngini = 0.366\nsamples = 141\nvalue = [107, 34]"] ;
709 -> 711 ;
712 [label="X[0] <= 56.0\ngini = 0.497\nsamples = 13\nvalue = [7, 6]"] ;
711 -> 712 ;
713 [label="X[1] <= 0.837\ngini = 0.375\nsamples = 8\nvalue = [6, 2]"] ;
712 -> 713 ;
714 [label="X[3] <= 15.0\ngini = 0.245\nsamples = 7\nvalue = [6, 1]"] ;
713 -> 714 ;
715 [label="X[3] <= 13.0\ngini = 0.5\nsamples = 2\nvalue = [1, 1]"] ;
714 -> 715 ;
716 [label="gini = 0.0\nsamples = 1\nvalue = [1, 0]"] ;
715 -> 716 ;
717 [label="gini = 0.0\nsamples = 1\nvalue = [0, 1]"] ;
715 -> 717 ;
718 [label="gini = 0.0\nsamples = 5\nvalue = [5, 0]"] ;
714 -> 718 ;
719 [label="gini = 0.0\nsamples = 1\nvalue = [0, 1]"] ;
713 -> 719 ;
720 [label="X[3] <= 15.0\ngini = 0.32\nsamples = 5\nvalue = [1, 4]"] ;
712 -> 720 ;
721 [label="X[2] <= 21.0\ngini = 0.5\nsamples = 2\nvalue = [1, 1]"] ;
720 -> 721 ;
722 [label="gini = 0.0\nsamples = 1\nvalue = [0, 1]"] ;
721 -> 722 ;
723 [label="gini = 0.0\nsamples = 1\nvalue = [1, 0]"] ;
721 -> 723 ;
724 [label="gini = 0.0\nsamples = 3\nvalue = [0, 3]"] ;
720 -> 724 ;
725 [label="X[3] <= 28.5\ngini = 0.342\nsamples = 128\nvalue = [100, 28]"] ;
711 -> 725 ;
726 [label="X[1] <= 0.75\ngini = 0.153\nsamples = 24\nvalue = [22, 2]"] ;
725 -> 726 ;
727 [label="X[3] <= 26.0\ngini = 0.444\nsamples = 3\nvalue = [2, 1]"] ;
726 -> 727 ;
728 [label="gini = 0.0\nsamples = 1\nvalue = [0, 1]"] ;
727 -> 728 ;
729 [label="gini = 0.0\nsamples = 2\nvalue = [2, 0]"] ;
727 -> 729 ;
730 [label="X[1] <= 0.835\ngini = 0.091\nsamples = 21\nvalue = [20, 1]"] ;
726 -> 730 ;
731 [label="gini = 0.0\nsamples = 18\nvalue = [18, 0]"] ;
730 -> 731 ;
732 [label="X[3] <= 25.5\ngini = 0.444\nsamples = 3\nvalue = [2, 1]"] ;
730 -> 732 ;
733 [label="gini = 0.0\nsamples = 1\nvalue = [0, 1]"] ;
732 -> 733 ;
734 [label="gini = 0.0\nsamples = 2\nvalue = [2, 0]"] ;
732 -> 734 ;
735 [label="X[3] <= 55.0\ngini = 0.375\nsamples = 104\nvalue = [78, 26]"] ;
725 -> 735 ;
736 [label="X[3] <= 51.0\ngini = 0.456\nsamples = 37\nvalue = [24, 13]"] ;
735 -> 736 ;
737 [label="X[1] <= 0.757\ngini = 0.415\nsamples = 34\nvalue = [24, 10]"] ;
736 -> 737 ;
738 [label="X[1] <= 0.746\ngini = 0.444\nsamples = 6\nvalue = [2, 4]"] ;
737 -> 738 ;
739 [label="gini = 0.0\nsamples = 1\nvalue = [1, 0]"] ;
738 -> 739 ;
740 [label="X[2] <= 29.5\ngini = 0.32\nsamples = 5\nvalue = [1, 4]"] ;
738 -> 740 ;
741 [label="gini = 0.0\nsamples = 1\nvalue = [1, 0]"] ;
740 -> 741 ;
742 [label="gini = 0.0\nsamples = 4\nvalue = [0, 4]"] ;
740 -> 742 ;
743 [label="X[2] <= 24.5\ngini = 0.337\nsamples = 28\nvalue = [22, 6]"] ;
737 -> 743 ;
744 [label="gini = 0.0\nsamples = 1\nvalue = [0, 1]"] ;
743 -> 744 ;
745 [label="X[3] <= 29.5\ngini = 0.302\nsamples = 27\nvalue = [22, 5]"] ;
743 -> 745 ;
746 [label="gini = 0.0\nsamples = 1\nvalue = [0, 1]"] ;
745 -> 746 ;
747 [label="X[3] <= 48.5\ngini = 0.26\nsamples = 26\nvalue = [22, 4]"] ;
745 -> 747 ;
748 [label="X[3] <= 40.5\ngini = 0.172\nsamples = 21\nvalue = [19, 2]"] ;
747 -> 748 ;
749 [label="X[2] <= 32.0\ngini = 0.278\nsamples = 12\nvalue = [10, 2]"] ;
748 -> 749 ;
750 [label="X[0] <= 47.5\ngini = 0.5\nsamples = 2\nvalue = [1, 1]"] ;
749 -> 750 ;
751 [label="gini = 0.0\nsamples = 1\nvalue = [0, 1]"] ;
750 -> 751 ;
752 [label="gini = 0.0\nsamples = 1\nvalue = [1, 0]"] ;
750 -> 752 ;
753 [label="X[2] <= 93.0\ngini = 0.18\nsamples = 10\nvalue = [9, 1]"] ;
749 -> 753 ;
754 [label="gini = 0.0\nsamples = 8\nvalue = [8, 0]"] ;
753 -> 754 ;
755 [label="X[2] <= 107.5\ngini = 0.5\nsamples = 2\nvalue = [1, 1]"] ;
753 -> 755 ;
756 [label="gini = 0.0\nsamples = 1\nvalue = [0, 1]"] ;
755 -> 756 ;
757 [label="gini = 0.0\nsamples = 1\nvalue = [1, 0]"] ;
755 -> 757 ;
758 [label="gini = 0.0\nsamples = 9\nvalue = [9, 0]"] ;
748 -> 758 ;
759 [label="X[2] <= 53.0\ngini = 0.48\nsamples = 5\nvalue = [3, 2]"] ;
747 -> 759 ;
760 [label="gini = 0.0\nsamples = 2\nvalue = [0, 2]"] ;
759 -> 760 ;
761 [label="gini = 0.0\nsamples = 3\nvalue = [3, 0]"] ;
759 -> 761 ;
762 [label="gini = 0.0\nsamples = 3\nvalue = [0, 3]"] ;
736 -> 762 ;
763 [label="X[2] <= 252.5\ngini = 0.313\nsamples = 67\nvalue = [54, 13]"] ;
735 -> 763 ;
764 [label="X[3] <= 174.0\ngini = 0.278\nsamples = 60\nvalue = [50, 10]"] ;
763 -> 764 ;
765 [label="X[3] <= 163.5\ngini = 0.315\nsamples = 51\nvalue = [41, 10]"] ;
764 -> 765 ;
766 [label="X[1] <= 0.784\ngini = 0.295\nsamples = 50\nvalue = [41, 9]"] ;
765 -> 766 ;
767 [label="X[1] <= 0.773\ngini = 0.401\nsamples = 18\nvalue = [13, 5]"] ;
766 -> 767 ;
768 [label="X[1] <= 0.764\ngini = 0.26\nsamples = 13\nvalue = [11, 2]"] ;
767 -> 768 ;
769 [label="X[1] <= 0.756\ngini = 0.444\nsamples = 6\nvalue = [4, 2]"] ;
768 -> 769 ;
770 [label="gini = 0.0\nsamples = 4\nvalue = [4, 0]"] ;
769 -> 770 ;
771 [label="gini = 0.0\nsamples = 2\nvalue = [0, 2]"] ;
769 -> 771 ;
772 [label="gini = 0.0\nsamples = 7\nvalue = [7, 0]"] ;
768 -> 772 ;
773 [label="X[0] <= 53.0\ngini = 0.48\nsamples = 5\nvalue = [2, 3]"] ;
767 -> 773 ;
774 [label="gini = 0.0\nsamples = 3\nvalue = [0, 3]"] ;
773 -> 774 ;
775 [label="gini = 0.0\nsamples = 2\nvalue = [2, 0]"] ;
773 -> 775 ;
776 [label="X[0] <= 53.0\ngini = 0.219\nsamples = 32\nvalue = [28, 4]"] ;
766 -> 776 ;
777 [label="X[3] <= 62.0\ngini = 0.105\nsamples = 18\nvalue = [17, 1]"] ;
776 -> 777 ;
778 [label="X[1] <= 0.814\ngini = 0.5\nsamples = 2\nvalue = [1, 1]"] ;
777 -> 778 ;
779 [label="gini = 0.0\nsamples = 1\nvalue = [0, 1]"] ;
778 -> 779 ;
780 [label="gini = 0.0\nsamples = 1\nvalue = [1, 0]"] ;
778 -> 780 ;
781 [label="gini = 0.0\nsamples = 16\nvalue = [16, 0]"] ;
777 -> 781 ;
782 [label="X[2] <= 198.0\ngini = 0.337\nsamples = 14\nvalue = [11, 3]"] ;
776 -> 782 ;
783 [label="X[0] <= 55.5\ngini = 0.26\nsamples = 13\nvalue = [11, 2]"] ;
782 -> 783 ;
784 [label="gini = 0.0\nsamples = 1\nvalue = [0, 1]"] ;
783 -> 784 ;
785 [label="X[2] <= 41.0\ngini = 0.153\nsamples = 12\nvalue = [11, 1]"] ;
783 -> 785 ;
786 [label="X[2] <= 38.5\ngini = 0.444\nsamples = 3\nvalue = [2, 1]"] ;
785 -> 786 ;
787 [label="gini = 0.0\nsamples = 2\nvalue = [2, 0]"] ;
786 -> 787 ;
788 [label="gini = 0.0\nsamples = 1\nvalue = [0, 1]"] ;
786 -> 788 ;
789 [label="gini = 0.0\nsamples = 9\nvalue = [9, 0]"] ;
785 -> 789 ;
790 [label="gini = 0.0\nsamples = 1\nvalue = [0, 1]"] ;
782 -> 790 ;
791 [label="gini = 0.0\nsamples = 1\nvalue = [0, 1]"] ;
765 -> 791 ;
792 [label="gini = 0.0\nsamples = 9\nvalue = [9, 0]"] ;
764 -> 792 ;
793 [label="X[0] <= 54.0\ngini = 0.49\nsamples = 7\nvalue = [4, 3]"] ;
763 -> 793 ;
794 [label="X[2] <= 296.5\ngini = 0.32\nsamples = 5\nvalue = [4, 1]"] ;
793 -> 794 ;
795 [label="gini = 0.0\nsamples = 1\nvalue = [0, 1]"] ;
794 -> 795 ;
796 [label="gini = 0.0\nsamples = 4\nvalue = [4, 0]"] ;
794 -> 796 ;
797 [label="gini = 0.0\nsamples = 2\nvalue = [0, 2]"] ;
793 -> 797 ;
798 [label="gini = 0.0\nsamples = 1\nvalue = [0, 1]"] ;
600 -> 798 ;
799 [label="X[2] <= 31.0\ngini = 0.498\nsamples = 32\nvalue = [17, 15]"] ;
569 -> 799 ;
800 [label="X[2] <= 12.5\ngini = 0.219\nsamples = 8\nvalue = [1, 7]"] ;
799 -> 800 ;
801 [label="gini = 0.0\nsamples = 1\nvalue = [1, 0]"] ;
800 -> 801 ;
802 [label="gini = 0.0\nsamples = 7\nvalue = [0, 7]"] ;
800 -> 802 ;
803 [label="X[2] <= 107.0\ngini = 0.444\nsamples = 24\nvalue = [16, 8]"] ;
799 -> 803 ;
804 [label="X[1] <= 0.843\ngini = 0.305\nsamples = 16\nvalue = [13, 3]"] ;
803 -> 804 ;
805 [label="gini = 0.0\nsamples = 1\nvalue = [0, 1]"] ;
804 -> 805 ;
806 [label="X[0] <= 22.5\ngini = 0.231\nsamples = 15\nvalue = [13, 2]"] ;
804 -> 806 ;
807 [label="gini = 0.0\nsamples = 1\nvalue = [0, 1]"] ;
806 -> 807 ;
808 [label="X[1] <= 0.852\ngini = 0.133\nsamples = 14\nvalue = [13, 1]"] ;
806 -> 808 ;
809 [label="gini = 0.0\nsamples = 11\nvalue = [11, 0]"] ;
808 -> 809 ;
810 [label="X[2] <= 46.5\ngini = 0.444\nsamples = 3\nvalue = [2, 1]"] ;
808 -> 810 ;
811 [label="gini = 0.0\nsamples = 1\nvalue = [0, 1]"] ;
810 -> 811 ;
812 [label="gini = 0.0\nsamples = 2\nvalue = [2, 0]"] ;
810 -> 812 ;
813 [label="X[0] <= 44.0\ngini = 0.469\nsamples = 8\nvalue = [3, 5]"] ;
803 -> 813 ;
814 [label="X[0] <= 23.5\ngini = 0.375\nsamples = 4\nvalue = [3, 1]"] ;
813 -> 814 ;
815 [label="gini = 0.0\nsamples = 1\nvalue = [0, 1]"] ;
814 -> 815 ;
816 [label="gini = 0.0\nsamples = 3\nvalue = [3, 0]"] ;
814 -> 816 ;
817 [label="gini = 0.0\nsamples = 4\nvalue = [0, 4]"] ;
813 -> 817 ;
818 [label="X[3] <= 52.5\ngini = 0.185\nsamples = 29\nvalue = [26, 3]"] ;
568 -> 818 ;
819 [label="X[2] <= 80.5\ngini = 0.32\nsamples = 15\nvalue = [12, 3]"] ;
818 -> 819 ;
820 [label="X[3] <= 46.5\ngini = 0.245\nsamples = 14\nvalue = [12, 2]"] ;
819 -> 820 ;
821 [label="X[0] <= 54.0\ngini = 0.142\nsamples = 13\nvalue = [12, 1]"] ;
820 -> 821 ;
822 [label="gini = 0.0\nsamples = 9\nvalue = [9, 0]"] ;
821 -> 822 ;
823 [label="X[1] <= 0.862\ngini = 0.375\nsamples = 4\nvalue = [3, 1]"] ;
821 -> 823 ;
824 [label="X[2] <= 25.5\ngini = 0.5\nsamples = 2\nvalue = [1, 1]"] ;
823 -> 824 ;
825 [label="gini = 0.0\nsamples = 1\nvalue = [1, 0]"] ;
824 -> 825 ;
826 [label="gini = 0.0\nsamples = 1\nvalue = [0, 1]"] ;
824 -> 826 ;
827 [label="gini = 0.0\nsamples = 2\nvalue = [2, 0]"] ;
823 -> 827 ;
828 [label="gini = 0.0\nsamples = 1\nvalue = [0, 1]"] ;
820 -> 828 ;
829 [label="gini = 0.0\nsamples = 1\nvalue = [0, 1]"] ;
819 -> 829 ;
830 [label="gini = 0.0\nsamples = 14\nvalue = [14, 0]"] ;
818 -> 830 ;
831 [label="gini = 0.0\nsamples = 3\nvalue = [0, 3]"] ;
279 -> 831 ;
832 [label="X[0] <= 62.5\ngini = 0.204\nsamples = 399\nvalue = [353, 46]"] ;
230 -> 832 ;
833 [label="X[3] <= 19.0\ngini = 0.021\nsamples = 95\nvalue = [94, 1]"] ;
832 -> 833 ;
834 [label="gini = 0.0\nsamples = 1\nvalue = [0, 1]"] ;
833 -> 834 ;
835 [label="gini = 0.0\nsamples = 94\nvalue = [94, 0]"] ;
833 -> 835 ;
836 [label="X[2] <= 33.0\ngini = 0.252\nsamples = 304\nvalue = [259, 45]"] ;
832 -> 836 ;
837 [label="X[0] <= 79.5\ngini = 0.15\nsamples = 147\nvalue = [135, 12]"] ;
836 -> 837 ;
838 [label="X[0] <= 64.0\ngini = 0.107\nsamples = 141\nvalue = [133, 8]"] ;
837 -> 838 ;
839 [label="X[3] <= 33.0\ngini = 0.5\nsamples = 2\nvalue = [1, 1]"] ;
838 -> 839 ;
840 [label="gini = 0.0\nsamples = 1\nvalue = [0, 1]"] ;
839 -> 840 ;
841 [label="gini = 0.0\nsamples = 1\nvalue = [1, 0]"] ;
839 -> 841 ;
842 [label="X[3] <= 22.5\ngini = 0.096\nsamples = 139\nvalue = [132, 7]"] ;
838 -> 842 ;
843 [label="X[2] <= 19.5\ngini = 0.269\nsamples = 25\nvalue = [21, 4]"] ;
842 -> 843 ;
844 [label="X[1] <= 0.764\ngini = 0.426\nsamples = 13\nvalue = [9, 4]"] ;
843 -> 844 ;
845 [label="X[2] <= 17.0\ngini = 0.219\nsamples = 8\nvalue = [7, 1]"] ;
844 -> 845 ;
846 [label="gini = 0.0\nsamples = 7\nvalue = [7, 0]"] ;
845 -> 846 ;
847 [label="gini = 0.0\nsamples = 1\nvalue = [0, 1]"] ;
845 -> 847 ;
848 [label="X[1] <= 0.804\ngini = 0.48\nsamples = 5\nvalue = [2, 3]"] ;
844 -> 848 ;
849 [label="gini = 0.0\nsamples = 3\nvalue = [0, 3]"] ;
848 -> 849 ;
850 [label="gini = 0.0\nsamples = 2\nvalue = [2, 0]"] ;
848 -> 850 ;
851 [label="gini = 0.0\nsamples = 12\nvalue = [12, 0]"] ;
843 -> 851 ;
852 [label="X[1] <= 0.861\ngini = 0.051\nsamples = 114\nvalue = [111, 3]"] ;
842 -> 852 ;
853 [label="X[2] <= 14.5\ngini = 0.036\nsamples = 109\nvalue = [107, 2]"] ;
852 -> 853 ;
854 [label="gini = 0.0\nsamples = 70\nvalue = [70, 0]"] ;
853 -> 854 ;
855 [label="X[2] <= 15.5\ngini = 0.097\nsamples = 39\nvalue = [37, 2]"] ;
853 -> 855 ;
856 [label="X[3] <= 45.0\ngini = 0.444\nsamples = 3\nvalue = [1, 2]"] ;
855 -> 856 ;
857 [label="gini = 0.0\nsamples = 2\nvalue = [0, 2]"] ;
856 -> 857 ;
858 [label="gini = 0.0\nsamples = 1\nvalue = [1, 0]"] ;
856 -> 858 ;
859 [label="gini = 0.0\nsamples = 36\nvalue = [36, 0]"] ;
855 -> 859 ;
860 [label="X[3] <= 46.5\ngini = 0.32\nsamples = 5\nvalue = [4, 1]"] ;
852 -> 860 ;
861 [label="gini = 0.0\nsamples = 1\nvalue = [0, 1]"] ;
860 -> 861 ;
862 [label="gini = 0.0\nsamples = 4\nvalue = [4, 0]"] ;
860 -> 862 ;
863 [label="X[3] <= 42.5\ngini = 0.444\nsamples = 6\nvalue = [2, 4]"] ;
837 -> 863 ;
864 [label="X[1] <= 0.733\ngini = 0.444\nsamples = 3\nvalue = [2, 1]"] ;
863 -> 864 ;
865 [label="gini = 0.0\nsamples = 1\nvalue = [0, 1]"] ;
864 -> 865 ;
866 [label="gini = 0.0\nsamples = 2\nvalue = [2, 0]"] ;
864 -> 866 ;
867 [label="gini = 0.0\nsamples = 3\nvalue = [0, 3]"] ;
863 -> 867 ;
868 [label="X[0] <= 74.5\ngini = 0.332\nsamples = 157\nvalue = [124, 33]"] ;
836 -> 868 ;
869 [label="X[1] <= 0.84\ngini = 0.391\nsamples = 124\nvalue = [91, 33]"] ;
868 -> 869 ;
870 [label="X[2] <= 131.5\ngini = 0.339\nsamples = 97\nvalue = [76, 21]"] ;
869 -> 870 ;
871 [label="X[3] <= 295.0\ngini = 0.399\nsamples = 69\nvalue = [50, 19]"] ;
870 -> 871 ;
872 [label="X[0] <= 67.5\ngini = 0.379\nsamples = 67\nvalue = [50, 17]"] ;
871 -> 872 ;
873 [label="X[0] <= 66.5\ngini = 0.494\nsamples = 9\nvalue = [4, 5]"] ;
872 -> 873 ;
874 [label="X[3] <= 41.0\ngini = 0.444\nsamples = 6\nvalue = [4, 2]"] ;
873 -> 874 ;
875 [label="X[1] <= 0.806\ngini = 0.444\nsamples = 3\nvalue = [1, 2]"] ;
874 -> 875 ;
876 [label="gini = 0.0\nsamples = 2\nvalue = [0, 2]"] ;
875 -> 876 ;
877 [label="gini = 0.0\nsamples = 1\nvalue = [1, 0]"] ;
875 -> 877 ;
878 [label="gini = 0.0\nsamples = 3\nvalue = [3, 0]"] ;
874 -> 878 ;
879 [label="gini = 0.0\nsamples = 3\nvalue = [0, 3]"] ;
873 -> 879 ;
880 [label="X[2] <= 116.0\ngini = 0.328\nsamples = 58\nvalue = [46, 12]"] ;
872 -> 880 ;
881 [label="X[3] <= 74.5\ngini = 0.291\nsamples = 51\nvalue = [42, 9]"] ;
880 -> 881 ;
882 [label="X[3] <= 72.5\ngini = 0.343\nsamples = 41\nvalue = [32, 9]"] ;
881 -> 882 ;
883 [label="X[1] <= 0.709\ngini = 0.32\nsamples = 40\nvalue = [32, 8]"] ;
882 -> 883 ;
884 [label="X[1] <= 0.706\ngini = 0.5\nsamples = 4\nvalue = [2, 2]"] ;
883 -> 884 ;
885 [label="gini = 0.0\nsamples = 2\nvalue = [2, 0]"] ;
884 -> 885 ;
886 [label="gini = 0.0\nsamples = 2\nvalue = [0, 2]"] ;
884 -> 886 ;
887 [label="X[1] <= 0.759\ngini = 0.278\nsamples = 36\nvalue = [30, 6]"] ;
883 -> 887 ;
888 [label="X[3] <= 10.5\ngini = 0.117\nsamples = 16\nvalue = [15, 1]"] ;
887 -> 888 ;
889 [label="X[2] <= 55.0\ngini = 0.5\nsamples = 2\nvalue = [1, 1]"] ;
888 -> 889 ;
890 [label="gini = 0.0\nsamples = 1\nvalue = [0, 1]"] ;
889 -> 890 ;
891 [label="gini = 0.0\nsamples = 1\nvalue = [1, 0]"] ;
889 -> 891 ;
892 [label="gini = 0.0\nsamples = 14\nvalue = [14, 0]"] ;
888 -> 892 ;
893 [label="X[1] <= 0.816\ngini = 0.375\nsamples = 20\nvalue = [15, 5]"] ;
887 -> 893 ;
894 [label="X[2] <= 46.5\ngini = 0.486\nsamples = 12\nvalue = [7, 5]"] ;
893 -> 894 ;
895 [label="gini = 0.0\nsamples = 4\nvalue = [4, 0]"] ;
894 -> 895 ;
896 [label="X[1] <= 0.798\ngini = 0.469\nsamples = 8\nvalue = [3, 5]"] ;
894 -> 896 ;
897 [label="X[2] <= 65.5\ngini = 0.48\nsamples = 5\nvalue = [3, 2]"] ;
896 -> 897 ;
898 [label="X[1] <= 0.766\ngini = 0.444\nsamples = 3\nvalue = [1, 2]"] ;
897 -> 898 ;
899 [label="gini = 0.0\nsamples = 1\nvalue = [0, 1]"] ;
898 -> 899 ;
900 [label="X[1] <= 0.773\ngini = 0.5\nsamples = 2\nvalue = [1, 1]"] ;
898 -> 900 ;
901 [label="gini = 0.0\nsamples = 1\nvalue = [1, 0]"] ;
900 -> 901 ;
902 [label="gini = 0.0\nsamples = 1\nvalue = [0, 1]"] ;
900 -> 902 ;
903 [label="gini = 0.0\nsamples = 2\nvalue = [2, 0]"] ;
897 -> 903 ;
904 [label="gini = 0.0\nsamples = 3\nvalue = [0, 3]"] ;
896 -> 904 ;
905 [label="gini = 0.0\nsamples = 8\nvalue = [8, 0]"] ;
893 -> 905 ;
906 [label="gini = 0.0\nsamples = 1\nvalue = [0, 1]"] ;
882 -> 906 ;
907 [label="gini = 0.0\nsamples = 10\nvalue = [10, 0]"] ;
881 -> 907 ;
908 [label="X[2] <= 124.0\ngini = 0.49\nsamples = 7\nvalue = [4, 3]"] ;
880 -> 908 ;
909 [label="gini = 0.0\nsamples = 2\nvalue = [0, 2]"] ;
908 -> 909 ;
910 [label="X[1] <= 0.824\ngini = 0.32\nsamples = 5\nvalue = [4, 1]"] ;
908 -> 910 ;
911 [label="gini = 0.0\nsamples = 4\nvalue = [4, 0]"] ;
910 -> 911 ;
912 [label="gini = 0.0\nsamples = 1\nvalue = [0, 1]"] ;
910 -> 912 ;
913 [label="gini = 0.0\nsamples = 2\nvalue = [0, 2]"] ;
871 -> 913 ;
914 [label="X[0] <= 73.5\ngini = 0.133\nsamples = 28\nvalue = [26, 2]"] ;
870 -> 914 ;
915 [label="gini = 0.0\nsamples = 24\nvalue = [24, 0]"] ;
914 -> 915 ;
916 [label="X[3] <= 191.0\ngini = 0.5\nsamples = 4\nvalue = [2, 2]"] ;
914 -> 916 ;
917 [label="gini = 0.0\nsamples = 2\nvalue = [0, 2]"] ;
916 -> 917 ;
918 [label="gini = 0.0\nsamples = 2\nvalue = [2, 0]"] ;
916 -> 918 ;
919 [label="X[1] <= 0.843\ngini = 0.494\nsamples = 27\nvalue = [15, 12]"] ;
869 -> 919 ;
920 [label="gini = 0.0\nsamples = 5\nvalue = [0, 5]"] ;
919 -> 920 ;
921 [label="X[3] <= 62.5\ngini = 0.434\nsamples = 22\nvalue = [15, 7]"] ;
919 -> 921 ;
922 [label="X[1] <= 0.854\ngini = 0.486\nsamples = 12\nvalue = [5, 7]"] ;
921 -> 922 ;
923 [label="X[1] <= 0.844\ngini = 0.245\nsamples = 7\nvalue = [1, 6]"] ;
922 -> 923 ;
924 [label="gini = 0.0\nsamples = 1\nvalue = [1, 0]"] ;
923 -> 924 ;
925 [label="gini = 0.0\nsamples = 6\nvalue = [0, 6]"] ;
923 -> 925 ;
926 [label="X[1] <= 0.864\ngini = 0.32\nsamples = 5\nvalue = [4, 1]"] ;
922 -> 926 ;
927 [label="gini = 0.0\nsamples = 4\nvalue = [4, 0]"] ;
926 -> 927 ;
928 [label="gini = 0.0\nsamples = 1\nvalue = [0, 1]"] ;
926 -> 928 ;
929 [label="gini = 0.0\nsamples = 10\nvalue = [10, 0]"] ;
921 -> 929 ;
930 [label="gini = 0.0\nsamples = 33\nvalue = [33, 0]"] ;
868 -> 930 ;
931 [label="X[4] <= 0.5\ngini = 0.455\nsamples = 1251\nvalue = [813, 438]"] ;
1 -> 931 ;
932 [label="X[3] <= 64.0\ngini = 0.473\nsamples = 65\nvalue = [25, 40]"] ;
931 -> 932 ;
933 [label="X[0] <= 6.5\ngini = 0.453\nsamples = 26\nvalue = [17, 9]"] ;
932 -> 933 ;
934 [label="X[2] <= 13.0\ngini = 0.497\nsamples = 13\nvalue = [6, 7]"] ;
933 -> 934 ;
935 [label="gini = 0.0\nsamples = 4\nvalue = [4, 0]"] ;
934 -> 935 ;
936 [label="X[1] <= 0.919\ngini = 0.346\nsamples = 9\nvalue = [2, 7]"] ;
934 -> 936 ;
937 [label="gini = 0.0\nsamples = 6\nvalue = [0, 6]"] ;
936 -> 937 ;
938 [label="X[3] <= 34.0\ngini = 0.444\nsamples = 3\nvalue = [2, 1]"] ;
936 -> 938 ;
939 [label="gini = 0.0\nsamples = 1\nvalue = [0, 1]"] ;
938 -> 939 ;
940 [label="gini = 0.0\nsamples = 2\nvalue = [2, 0]"] ;
938 -> 940 ;
941 [label="X[0] <= 53.5\ngini = 0.26\nsamples = 13\nvalue = [11, 2]"] ;
933 -> 941 ;
942 [label="gini = 0.0\nsamples = 10\nvalue = [10, 0]"] ;
941 -> 942 ;
943 [label="X[3] <= 41.0\ngini = 0.444\nsamples = 3\nvalue = [1, 2]"] ;
941 -> 943 ;
944 [label="gini = 0.0\nsamples = 2\nvalue = [0, 2]"] ;
943 -> 944 ;
945 [label="gini = 0.0\nsamples = 1\nvalue = [1, 0]"] ;
943 -> 945 ;
946 [label="X[2] <= 80.0\ngini = 0.326\nsamples = 39\nvalue = [8, 31]"] ;
932 -> 946 ;
947 [label="X[3] <= 130.0\ngini = 0.497\nsamples = 13\nvalue = [6, 7]"] ;
946 -> 947 ;
948 [label="X[2] <= 76.0\ngini = 0.42\nsamples = 10\nvalue = [3, 7]"] ;
947 -> 948 ;
949 [label="X[3] <= 67.0\ngini = 0.346\nsamples = 9\nvalue = [2, 7]"] ;
948 -> 949 ;
950 [label="gini = 0.0\nsamples = 3\nvalue = [0, 3]"] ;
949 -> 950 ;
951 [label="X[3] <= 71.0\ngini = 0.444\nsamples = 6\nvalue = [2, 4]"] ;
949 -> 951 ;
952 [label="gini = 0.0\nsamples = 1\nvalue = [1, 0]"] ;
951 -> 952 ;
953 [label="X[0] <= 15.0\ngini = 0.32\nsamples = 5\nvalue = [1, 4]"] ;
951 -> 953 ;
954 [label="X[1] <= 0.905\ngini = 0.5\nsamples = 2\nvalue = [1, 1]"] ;
953 -> 954 ;
955 [label="gini = 0.0\nsamples = 1\nvalue = [1, 0]"] ;
954 -> 955 ;
956 [label="gini = 0.0\nsamples = 1\nvalue = [0, 1]"] ;
954 -> 956 ;
957 [label="gini = 0.0\nsamples = 3\nvalue = [0, 3]"] ;
953 -> 957 ;
958 [label="gini = 0.0\nsamples = 1\nvalue = [1, 0]"] ;
948 -> 958 ;
959 [label="gini = 0.0\nsamples = 3\nvalue = [3, 0]"] ;
947 -> 959 ;
960 [label="X[1] <= 0.954\ngini = 0.142\nsamples = 26\nvalue = [2, 24]"] ;
946 -> 960 ;
961 [label="X[0] <= 63.0\ngini = 0.08\nsamples = 24\nvalue = [1, 23]"] ;
960 -> 961 ;
962 [label="gini = 0.0\nsamples = 22\nvalue = [0, 22]"] ;
961 -> 962 ;
963 [label="X[1] <= 0.919\ngini = 0.5\nsamples = 2\nvalue = [1, 1]"] ;
961 -> 963 ;
964 [label="gini = 0.0\nsamples = 1\nvalue = [1, 0]"] ;
963 -> 964 ;
965 [label="gini = 0.0\nsamples = 1\nvalue = [0, 1]"] ;
963 -> 965 ;
966 [label="X[2] <= 187.0\ngini = 0.5\nsamples = 2\nvalue = [1, 1]"] ;
960 -> 966 ;
967 [label="gini = 0.0\nsamples = 1\nvalue = [0, 1]"] ;
966 -> 967 ;
968 [label="gini = 0.0\nsamples = 1\nvalue = [1, 0]"] ;
966 -> 968 ;
969 [label="X[3] <= 188.5\ngini = 0.446\nsamples = 1186\nvalue = [788, 398]"] ;
931 -> 969 ;
970 [label="X[0] <= 1.5\ngini = 0.454\nsamples = 1098\nvalue = [716, 382]"] ;
969 -> 970 ;
971 [label="X[3] <= 18.5\ngini = 0.406\nsamples = 428\nvalue = [307, 121]"] ;
970 -> 971 ;
972 [label="X[1] <= 0.939\ngini = 0.499\nsamples = 29\nvalue = [14, 15]"] ;
971 -> 972 ;
973 [label="X[1] <= 0.89\ngini = 0.48\nsamples = 25\nvalue = [10, 15]"] ;
972 -> 973 ;
974 [label="X[1] <= 0.887\ngini = 0.444\nsamples = 6\nvalue = [4, 2]"] ;
973 -> 974 ;
975 [label="gini = 0.0\nsamples = 2\nvalue = [0, 2]"] ;
974 -> 975 ;
976 [label="gini = 0.0\nsamples = 4\nvalue = [4, 0]"] ;
974 -> 976 ;
977 [label="X[2] <= 8.5\ngini = 0.432\nsamples = 19\nvalue = [6, 13]"] ;
973 -> 977 ;
978 [label="X[1] <= 0.894\ngini = 0.444\nsamples = 6\nvalue = [4, 2]"] ;
977 -> 978 ;
979 [label="gini = 0.0\nsamples = 1\nvalue = [0, 1]"] ;
978 -> 979 ;
980 [label="X[3] <= 12.5\ngini = 0.32\nsamples = 5\nvalue = [4, 1]"] ;
978 -> 980 ;
981 [label="X[3] <= 9.0\ngini = 0.5\nsamples = 2\nvalue = [1, 1]"] ;
980 -> 981 ;
982 [label="gini = 0.0\nsamples = 1\nvalue = [1, 0]"] ;
981 -> 982 ;
983 [label="gini = 0.0\nsamples = 1\nvalue = [0, 1]"] ;
981 -> 983 ;
984 [label="gini = 0.0\nsamples = 3\nvalue = [3, 0]"] ;
980 -> 984 ;
985 [label="X[3] <= 12.5\ngini = 0.26\nsamples = 13\nvalue = [2, 11]"] ;
977 -> 985 ;
986 [label="gini = 0.0\nsamples = 1\nvalue = [1, 0]"] ;
985 -> 986 ;
987 [label="X[3] <= 17.5\ngini = 0.153\nsamples = 12\nvalue = [1, 11]"] ;
985 -> 987 ;
988 [label="gini = 0.0\nsamples = 8\nvalue = [0, 8]"] ;
987 -> 988 ;
989 [label="X[2] <= 12.5\ngini = 0.375\nsamples = 4\nvalue = [1, 3]"] ;
987 -> 989 ;
990 [label="X[1] <= 0.924\ngini = 0.5\nsamples = 2\nvalue = [1, 1]"] ;
989 -> 990 ;
991 [label="gini = 0.0\nsamples = 1\nvalue = [0, 1]"] ;
990 -> 991 ;
992 [label="gini = 0.0\nsamples = 1\nvalue = [1, 0]"] ;
990 -> 992 ;
993 [label="gini = 0.0\nsamples = 2\nvalue = [0, 2]"] ;
989 -> 993 ;
994 [label="gini = 0.0\nsamples = 4\nvalue = [4, 0]"] ;
972 -> 994 ;
995 [label="X[1] <= 0.927\ngini = 0.39\nsamples = 399\nvalue = [293, 106]"] ;
971 -> 995 ;
996 [label="X[3] <= 149.5\ngini = 0.338\nsamples = 223\nvalue = [175, 48]"] ;
995 -> 996 ;
997 [label="X[2] <= 45.5\ngini = 0.328\nsamples = 218\nvalue = [173, 45]"] ;
996 -> 997 ;
998 [label="X[3] <= 59.5\ngini = 0.353\nsamples = 188\nvalue = [145, 43]"] ;
997 -> 998 ;
999 [label="X[3] <= 46.5\ngini = 0.324\nsamples = 167\nvalue = [133, 34]"] ;
998 -> 999 ;
1000 [label="X[3] <= 45.5\ngini = 0.367\nsamples = 132\nvalue = [100, 32]"] ;
999 -> 1000 ;
1001 [label="X[1] <= 0.874\ngini = 0.344\nsamples = 127\nvalue = [99, 28]"] ;
1000 -> 1001 ;
1002 [label="X[3] <= 38.0\ngini = 0.497\nsamples = 13\nvalue = [7, 6]"] ;
1001 -> 1002 ;
1003 [label="X[1] <= 0.87\ngini = 0.42\nsamples = 10\nvalue = [7, 3]"] ;
1002 -> 1003 ;
1004 [label="gini = 0.0\nsamples = 4\nvalue = [4, 0]"] ;
1003 -> 1004 ;
1005 [label="X[2] <= 20.0\ngini = 0.5\nsamples = 6\nvalue = [3, 3]"] ;
1003 -> 1005 ;
1006 [label="gini = 0.0\nsamples = 3\nvalue = [0, 3]"] ;
1005 -> 1006 ;
1007 [label="gini = 0.0\nsamples = 3\nvalue = [3, 0]"] ;
1005 -> 1007 ;
1008 [label="gini = 0.0\nsamples = 3\nvalue = [0, 3]"] ;
1002 -> 1008 ;
1009 [label="X[2] <= 44.5\ngini = 0.311\nsamples = 114\nvalue = [92, 22]"] ;
1001 -> 1009 ;
1010 [label="X[3] <= 23.5\ngini = 0.303\nsamples = 113\nvalue = [92, 21]"] ;
1009 -> 1010 ;
1011 [label="X[1] <= 0.896\ngini = 0.469\nsamples = 16\nvalue = [10, 6]"] ;
1010 -> 1011 ;
1012 [label="X[1] <= 0.885\ngini = 0.198\nsamples = 9\nvalue = [8, 1]"] ;
1011 -> 1012 ;
1013 [label="gini = 0.0\nsamples = 5\nvalue = [5, 0]"] ;
1012 -> 1013 ;
1014 [label="X[1] <= 0.887\ngini = 0.375\nsamples = 4\nvalue = [3, 1]"] ;
1012 -> 1014 ;
1015 [label="gini = 0.0\nsamples = 1\nvalue = [0, 1]"] ;
1014 -> 1015 ;
1016 [label="gini = 0.0\nsamples = 3\nvalue = [3, 0]"] ;
1014 -> 1016 ;
1017 [label="X[3] <= 20.5\ngini = 0.408\nsamples = 7\nvalue = [2, 5]"] ;
1011 -> 1017 ;
1018 [label="gini = 0.0\nsamples = 1\nvalue = [1, 0]"] ;
1017 -> 1018 ;
1019 [label="X[1] <= 0.922\ngini = 0.278\nsamples = 6\nvalue = [1, 5]"] ;
1017 -> 1019 ;
1020 [label="gini = 0.0\nsamples = 5\nvalue = [0, 5]"] ;
1019 -> 1020 ;
1021 [label="gini = 0.0\nsamples = 1\nvalue = [1, 0]"] ;
1019 -> 1021 ;
1022 [label="X[3] <= 40.5\ngini = 0.261\nsamples = 97\nvalue = [82, 15]"] ;
1010 -> 1022 ;
1023 [label="X[1] <= 0.878\ngini = 0.307\nsamples = 74\nvalue = [60, 14]"] ;
1022 -> 1023 ;
1024 [label="X[2] <= 36.5\ngini = 0.444\nsamples = 3\nvalue = [1, 2]"] ;
1023 -> 1024 ;
1025 [label="gini = 0.0\nsamples = 2\nvalue = [0, 2]"] ;
1024 -> 1025 ;
1026 [label="gini = 0.0\nsamples = 1\nvalue = [1, 0]"] ;
1024 -> 1026 ;
1027 [label="X[1] <= 0.919\ngini = 0.281\nsamples = 71\nvalue = [59, 12]"] ;
1023 -> 1027 ;
1028 [label="X[2] <= 22.5\ngini = 0.234\nsamples = 59\nvalue = [51, 8]"] ;
1027 -> 1028 ;
1029 [label="X[3] <= 37.5\ngini = 0.308\nsamples = 42\nvalue = [34, 8]"] ;
1028 -> 1029 ;
1030 [label="X[3] <= 32.5\ngini = 0.266\nsamples = 38\nvalue = [32, 6]"] ;
1029 -> 1030 ;
1031 [label="X[3] <= 29.5\ngini = 0.328\nsamples = 29\nvalue = [23, 6]"] ;
1030 -> 1031 ;
1032 [label="X[2] <= 21.5\ngini = 0.18\nsamples = 20\nvalue = [18, 2]"] ;
1031 -> 1032 ;
1033 [label="X[3] <= 24.5\ngini = 0.105\nsamples = 18\nvalue = [17, 1]"] ;
1032 -> 1033 ;
1034 [label="X[2] <= 12.0\ngini = 0.375\nsamples = 4\nvalue = [3, 1]"] ;
1033 -> 1034 ;
1035 [label="gini = 0.0\nsamples = 1\nvalue = [0, 1]"] ;
1034 -> 1035 ;
1036 [label="gini = 0.0\nsamples = 3\nvalue = [3, 0]"] ;
1034 -> 1036 ;
1037 [label="gini = 0.0\nsamples = 14\nvalue = [14, 0]"] ;
1033 -> 1037 ;
1038 [label="X[3] <= 27.5\ngini = 0.5\nsamples = 2\nvalue = [1, 1]"] ;
1032 -> 1038 ;
1039 [label="gini = 0.0\nsamples = 1\nvalue = [0, 1]"] ;
1038 -> 1039 ;
1040 [label="gini = 0.0\nsamples = 1\nvalue = [1, 0]"] ;
1038 -> 1040 ;
1041 [label="X[1] <= 0.896\ngini = 0.494\nsamples = 9\nvalue = [5, 4]"] ;
1031 -> 1041 ;
1042 [label="X[2] <= 17.5\ngini = 0.32\nsamples = 5\nvalue = [4, 1]"] ;
1041 -> 1042 ;
1043 [label="gini = 0.0\nsamples = 4\nvalue = [4, 0]"] ;
1042 -> 1043 ;
1044 [label="gini = 0.0\nsamples = 1\nvalue = [0, 1]"] ;
1042 -> 1044 ;
1045 [label="X[2] <= 19.5\ngini = 0.375\nsamples = 4\nvalue = [1, 3]"] ;
1041 -> 1045 ;
1046 [label="gini = 0.0\nsamples = 3\nvalue = [0, 3]"] ;
1045 -> 1046 ;
1047 [label="gini = 0.0\nsamples = 1\nvalue = [1, 0]"] ;
1045 -> 1047 ;
1048 [label="gini = 0.0\nsamples = 9\nvalue = [9, 0]"] ;
1030 -> 1048 ;
1049 [label="X[1] <= 0.888\ngini = 0.5\nsamples = 4\nvalue = [2, 2]"] ;
1029 -> 1049 ;
1050 [label="gini = 0.0\nsamples = 1\nvalue = [1, 0]"] ;
1049 -> 1050 ;
1051 [label="X[2] <= 15.0\ngini = 0.444\nsamples = 3\nvalue = [1, 2]"] ;
1049 -> 1051 ;
1052 [label="gini = 0.0\nsamples = 1\nvalue = [1, 0]"] ;
1051 -> 1052 ;
1053 [label="gini = 0.0\nsamples = 2\nvalue = [0, 2]"] ;
1051 -> 1053 ;
1054 [label="gini = 0.0\nsamples = 17\nvalue = [17, 0]"] ;
1028 -> 1054 ;
1055 [label="X[1] <= 0.921\ngini = 0.444\nsamples = 12\nvalue = [8, 4]"] ;
1027 -> 1055 ;
1056 [label="gini = 0.0\nsamples = 3\nvalue = [0, 3]"] ;
1055 -> 1056 ;
1057 [label="X[2] <= 12.5\ngini = 0.198\nsamples = 9\nvalue = [8, 1]"] ;
1055 -> 1057 ;
1058 [label="X[3] <= 33.5\ngini = 0.375\nsamples = 4\nvalue = [3, 1]"] ;
1057 -> 1058 ;
1059 [label="gini = 0.0\nsamples = 3\nvalue = [3, 0]"] ;
1058 -> 1059 ;
1060 [label="gini = 0.0\nsamples = 1\nvalue = [0, 1]"] ;
1058 -> 1060 ;
1061 [label="gini = 0.0\nsamples = 5\nvalue = [5, 0]"] ;
1057 -> 1061 ;
1062 [label="X[2] <= 18.5\ngini = 0.083\nsamples = 23\nvalue = [22, 1]"] ;
1022 -> 1062 ;
1063 [label="X[2] <= 15.5\ngini = 0.375\nsamples = 4\nvalue = [3, 1]"] ;
1062 -> 1063 ;
1064 [label="gini = 0.0\nsamples = 3\nvalue = [3, 0]"] ;
1063 -> 1064 ;
1065 [label="gini = 0.0\nsamples = 1\nvalue = [0, 1]"] ;
1063 -> 1065 ;
1066 [label="gini = 0.0\nsamples = 19\nvalue = [19, 0]"] ;
1062 -> 1066 ;
1067 [label="gini = 0.0\nsamples = 1\nvalue = [0, 1]"] ;
1009 -> 1067 ;
1068 [label="X[1] <= 0.911\ngini = 0.32\nsamples = 5\nvalue = [1, 4]"] ;
1000 -> 1068 ;
1069 [label="gini = 0.0\nsamples = 4\nvalue = [0, 4]"] ;
1068 -> 1069 ;
1070 [label="gini = 0.0\nsamples = 1\nvalue = [1, 0]"] ;
1068 -> 1070 ;
1071 [label="X[2] <= 14.5\ngini = 0.108\nsamples = 35\nvalue = [33, 2]"] ;
999 -> 1071 ;
1072 [label="gini = 0.0\nsamples = 1\nvalue = [0, 1]"] ;
1071 -> 1072 ;
1073 [label="X[3] <= 56.5\ngini = 0.057\nsamples = 34\nvalue = [33, 1]"] ;
1071 -> 1073 ;
1074 [label="gini = 0.0\nsamples = 30\nvalue = [30, 0]"] ;
1073 -> 1074 ;
1075 [label="X[3] <= 58.5\ngini = 0.375\nsamples = 4\nvalue = [3, 1]"] ;
1073 -> 1075 ;
1076 [label="gini = 0.0\nsamples = 1\nvalue = [0, 1]"] ;
1075 -> 1076 ;
1077 [label="gini = 0.0\nsamples = 3\nvalue = [3, 0]"] ;
1075 -> 1077 ;
1078 [label="X[3] <= 66.0\ngini = 0.49\nsamples = 21\nvalue = [12, 9]"] ;
998 -> 1078 ;
1079 [label="X[2] <= 25.5\ngini = 0.32\nsamples = 5\nvalue = [1, 4]"] ;
1078 -> 1079 ;
1080 [label="gini = 0.0\nsamples = 1\nvalue = [1, 0]"] ;
1079 -> 1080 ;
1081 [label="gini = 0.0\nsamples = 4\nvalue = [0, 4]"] ;
1079 -> 1081 ;
1082 [label="X[3] <= 84.0\ngini = 0.43\nsamples = 16\nvalue = [11, 5]"] ;
1078 -> 1082 ;
1083 [label="gini = 0.0\nsamples = 6\nvalue = [6, 0]"] ;
1082 -> 1083 ;
1084 [label="X[2] <= 40.5\ngini = 0.5\nsamples = 10\nvalue = [5, 5]"] ;
1082 -> 1084 ;
1085 [label="X[3] <= 114.0\ngini = 0.469\nsamples = 8\nvalue = [3, 5]"] ;
1084 -> 1085 ;
1086 [label="X[3] <= 89.0\ngini = 0.408\nsamples = 7\nvalue = [2, 5]"] ;
1085 -> 1086 ;
1087 [label="gini = 0.0\nsamples = 2\nvalue = [0, 2]"] ;
1086 -> 1087 ;
1088 [label="X[3] <= 91.5\ngini = 0.48\nsamples = 5\nvalue = [2, 3]"] ;
1086 -> 1088 ;
1089 [label="gini = 0.0\nsamples = 1\nvalue = [1, 0]"] ;
1088 -> 1089 ;
1090 [label="X[2] <= 27.0\ngini = 0.375\nsamples = 4\nvalue = [1, 3]"] ;
1088 -> 1090 ;
1091 [label="X[2] <= 21.5\ngini = 0.5\nsamples = 2\nvalue = [1, 1]"] ;
1090 -> 1091 ;
1092 [label="gini = 0.0\nsamples = 1\nvalue = [0, 1]"] ;
1091 -> 1092 ;
1093 [label="gini = 0.0\nsamples = 1\nvalue = [1, 0]"] ;
1091 -> 1093 ;
1094 [label="gini = 0.0\nsamples = 2\nvalue = [0, 2]"] ;
1090 -> 1094 ;
1095 [label="gini = 0.0\nsamples = 1\nvalue = [1, 0]"] ;
1085 -> 1095 ;
1096 [label="gini = 0.0\nsamples = 2\nvalue = [2, 0]"] ;
1084 -> 1096 ;
1097 [label="X[2] <= 64.0\ngini = 0.124\nsamples = 30\nvalue = [28, 2]"] ;
997 -> 1097 ;
1098 [label="gini = 0.0\nsamples = 17\nvalue = [17, 0]"] ;
1097 -> 1098 ;
1099 [label="X[2] <= 69.5\ngini = 0.26\nsamples = 13\nvalue = [11, 2]"] ;
1097 -> 1099 ;
1100 [label="X[1] <= 0.908\ngini = 0.444\nsamples = 3\nvalue = [1, 2]"] ;
1099 -> 1100 ;
1101 [label="gini = 0.0\nsamples = 2\nvalue = [0, 2]"] ;
1100 -> 1101 ;
1102 [label="gini = 0.0\nsamples = 1\nvalue = [1, 0]"] ;
1100 -> 1102 ;
1103 [label="gini = 0.0\nsamples = 10\nvalue = [10, 0]"] ;
1099 -> 1103 ;
1104 [label="X[2] <= 142.0\ngini = 0.48\nsamples = 5\nvalue = [2, 3]"] ;
996 -> 1104 ;
1105 [label="gini = 0.0\nsamples = 3\nvalue = [0, 3]"] ;
1104 -> 1105 ;
1106 [label="gini = 0.0\nsamples = 2\nvalue = [2, 0]"] ;
1104 -> 1106 ;
1107 [label="X[1] <= 0.929\ngini = 0.442\nsamples = 176\nvalue = [118, 58]"] ;
995 -> 1107 ;
1108 [label="X[3] <= 32.5\ngini = 0.444\nsamples = 15\nvalue = [5, 10]"] ;
1107 -> 1108 ;
1109 [label="gini = 0.0\nsamples = 4\nvalue = [0, 4]"] ;
1108 -> 1109 ;
1110 [label="X[3] <= 69.5\ngini = 0.496\nsamples = 11\nvalue = [5, 6]"] ;
1108 -> 1110 ;
1111 [label="X[3] <= 44.0\ngini = 0.494\nsamples = 9\nvalue = [5, 4]"] ;
1110 -> 1111 ;
1112 [label="X[3] <= 35.5\ngini = 0.444\nsamples = 6\nvalue = [2, 4]"] ;
1111 -> 1112 ;
1113 [label="X[2] <= 13.0\ngini = 0.444\nsamples = 3\nvalue = [2, 1]"] ;
1112 -> 1113 ;
1114 [label="gini = 0.0\nsamples = 1\nvalue = [0, 1]"] ;
1113 -> 1114 ;
1115 [label="gini = 0.0\nsamples = 2\nvalue = [2, 0]"] ;
1113 -> 1115 ;
1116 [label="gini = 0.0\nsamples = 3\nvalue = [0, 3]"] ;
1112 -> 1116 ;
1117 [label="gini = 0.0\nsamples = 3\nvalue = [3, 0]"] ;
1111 -> 1117 ;
1118 [label="gini = 0.0\nsamples = 2\nvalue = [0, 2]"] ;
1110 -> 1118 ;
1119 [label="X[2] <= 9.0\ngini = 0.419\nsamples = 161\nvalue = [113, 48]"] ;
1107 -> 1119 ;
1120 [label="gini = 0.0\nsamples = 2\nvalue = [0, 2]"] ;
1119 -> 1120 ;
1121 [label="X[2] <= 39.0\ngini = 0.411\nsamples = 159\nvalue = [113, 46]"] ;
1119 -> 1121 ;
1122 [label="X[2] <= 27.5\ngini = 0.369\nsamples = 119\nvalue = [90, 29]"] ;
1121 -> 1122 ;
1123 [label="X[3] <= 27.5\ngini = 0.435\nsamples = 72\nvalue = [49, 23]"] ;
1122 -> 1123 ;
1124 [label="X[2] <= 14.5\ngini = 0.185\nsamples = 29\nvalue = [26, 3]"] ;
1123 -> 1124 ;
1125 [label="X[2] <= 13.5\ngini = 0.397\nsamples = 11\nvalue = [8, 3]"] ;
1124 -> 1125 ;
1126 [label="X[1] <= 0.957\ngini = 0.219\nsamples = 8\nvalue = [7, 1]"] ;
1125 -> 1126 ;
1127 [label="gini = 0.0\nsamples = 7\nvalue = [7, 0]"] ;
1126 -> 1127 ;
1128 [label="gini = 0.0\nsamples = 1\nvalue = [0, 1]"] ;
1126 -> 1128 ;
1129 [label="X[1] <= 0.939\ngini = 0.444\nsamples = 3\nvalue = [1, 2]"] ;
1125 -> 1129 ;
1130 [label="gini = 0.0\nsamples = 2\nvalue = [0, 2]"] ;
1129 -> 1130 ;
1131 [label="gini = 0.0\nsamples = 1\nvalue = [1, 0]"] ;
1129 -> 1131 ;
1132 [label="gini = 0.0\nsamples = 18\nvalue = [18, 0]"] ;
1124 -> 1132 ;
1133 [label="X[2] <= 15.0\ngini = 0.498\nsamples = 43\nvalue = [23, 20]"] ;
1123 -> 1133 ;
1134 [label="X[1] <= 0.932\ngini = 0.346\nsamples = 9\nvalue = [7, 2]"] ;
1133 -> 1134 ;
1135 [label="gini = 0.0\nsamples = 1\nvalue = [0, 1]"] ;
1134 -> 1135 ;
1136 [label="X[1] <= 0.954\ngini = 0.219\nsamples = 8\nvalue = [7, 1]"] ;
1134 -> 1136 ;
1137 [label="gini = 0.0\nsamples = 6\nvalue = [6, 0]"] ;
1136 -> 1137 ;
1138 [label="X[2] <= 11.5\ngini = 0.5\nsamples = 2\nvalue = [1, 1]"] ;
1136 -> 1138 ;
1139 [label="gini = 0.0\nsamples = 1\nvalue = [1, 0]"] ;
1138 -> 1139 ;
1140 [label="gini = 0.0\nsamples = 1\nvalue = [0, 1]"] ;
1138 -> 1140 ;
1141 [label="X[1] <= 0.938\ngini = 0.498\nsamples = 34\nvalue = [16, 18]"] ;
1133 -> 1141 ;
1142 [label="X[3] <= 41.0\ngini = 0.32\nsamples = 5\nvalue = [4, 1]"] ;
1141 -> 1142 ;
1143 [label="X[2] <= 20.0\ngini = 0.5\nsamples = 2\nvalue = [1, 1]"] ;
1142 -> 1143 ;
1144 [label="gini = 0.0\nsamples = 1\nvalue = [0, 1]"] ;
1143 -> 1144 ;
1145 [label="gini = 0.0\nsamples = 1\nvalue = [1, 0]"] ;
1143 -> 1145 ;
1146 [label="gini = 0.0\nsamples = 3\nvalue = [3, 0]"] ;
1142 -> 1146 ;
1147 [label="X[3] <= 32.5\ngini = 0.485\nsamples = 29\nvalue = [12, 17]"] ;
1141 -> 1147 ;
1148 [label="X[2] <= 20.5\ngini = 0.245\nsamples = 7\nvalue = [1, 6]"] ;
1147 -> 1148 ;
1149 [label="gini = 0.0\nsamples = 4\nvalue = [0, 4]"] ;
1148 -> 1149 ;
1150 [label="X[2] <= 21.5\ngini = 0.444\nsamples = 3\nvalue = [1, 2]"] ;
1148 -> 1150 ;
1151 [label="gini = 0.0\nsamples = 1\nvalue = [1, 0]"] ;
1150 -> 1151 ;
1152 [label="gini = 0.0\nsamples = 2\nvalue = [0, 2]"] ;
1150 -> 1152 ;
1153 [label="X[3] <= 51.5\ngini = 0.5\nsamples = 22\nvalue = [11, 11]"] ;
1147 -> 1153 ;
1154 [label="X[1] <= 0.957\ngini = 0.459\nsamples = 14\nvalue = [9, 5]"] ;
1153 -> 1154 ;
1155 [label="X[1] <= 0.945\ngini = 0.375\nsamples = 12\nvalue = [9, 3]"] ;
1154 -> 1155 ;
1156 [label="X[2] <= 22.5\ngini = 0.5\nsamples = 4\nvalue = [2, 2]"] ;
1155 -> 1156 ;
1157 [label="gini = 0.0\nsamples = 2\nvalue = [0, 2]"] ;
1156 -> 1157 ;
1158 [label="gini = 0.0\nsamples = 2\nvalue = [2, 0]"] ;
1156 -> 1158 ;
1159 [label="X[3] <= 35.5\ngini = 0.219\nsamples = 8\nvalue = [7, 1]"] ;
1155 -> 1159 ;
1160 [label="X[2] <= 21.5\ngini = 0.444\nsamples = 3\nvalue = [2, 1]"] ;
1159 -> 1160 ;
1161 [label="gini = 0.0\nsamples = 2\nvalue = [2, 0]"] ;
1160 -> 1161 ;
1162 [label="gini = 0.0\nsamples = 1\nvalue = [0, 1]"] ;
1160 -> 1162 ;
1163 [label="gini = 0.0\nsamples = 5\nvalue = [5, 0]"] ;
1159 -> 1163 ;
1164 [label="gini = 0.0\nsamples = 2\nvalue = [0, 2]"] ;
1154 -> 1164 ;
1165 [label="X[2] <= 21.5\ngini = 0.375\nsamples = 8\nvalue = [2, 6]"] ;
1153 -> 1165 ;
1166 [label="X[1] <= 0.957\ngini = 0.444\nsamples = 3\nvalue = [2, 1]"] ;
1165 -> 1166 ;
1167 [label="gini = 0.0\nsamples = 1\nvalue = [0, 1]"] ;
1166 -> 1167 ;
1168 [label="gini = 0.0\nsamples = 2\nvalue = [2, 0]"] ;
1166 -> 1168 ;
1169 [label="gini = 0.0\nsamples = 5\nvalue = [0, 5]"] ;
1165 -> 1169 ;
1170 [label="X[3] <= 26.5\ngini = 0.223\nsamples = 47\nvalue = [41, 6]"] ;
1122 -> 1170 ;
1171 [label="X[1] <= 0.941\ngini = 0.5\nsamples = 2\nvalue = [1, 1]"] ;
1170 -> 1171 ;
1172 [label="gini = 0.0\nsamples = 1\nvalue = [0, 1]"] ;
1171 -> 1172 ;
1173 [label="gini = 0.0\nsamples = 1\nvalue = [1, 0]"] ;
1171 -> 1173 ;
1174 [label="X[1] <= 0.952\ngini = 0.198\nsamples = 45\nvalue = [40, 5]"] ;
1170 -> 1174 ;
1175 [label="X[1] <= 0.932\ngini = 0.117\nsamples = 32\nvalue = [30, 2]"] ;
1174 -> 1175 ;
1176 [label="X[3] <= 50.0\ngini = 0.408\nsamples = 7\nvalue = [5, 2]"] ;
1175 -> 1176 ;
1177 [label="gini = 0.0\nsamples = 4\nvalue = [4, 0]"] ;
1176 -> 1177 ;
1178 [label="X[3] <= 65.5\ngini = 0.444\nsamples = 3\nvalue = [1, 2]"] ;
1176 -> 1178 ;
1179 [label="gini = 0.0\nsamples = 2\nvalue = [0, 2]"] ;
1178 -> 1179 ;
1180 [label="gini = 0.0\nsamples = 1\nvalue = [1, 0]"] ;
1178 -> 1180 ;
1181 [label="gini = 0.0\nsamples = 25\nvalue = [25, 0]"] ;
1175 -> 1181 ;
1182 [label="X[1] <= 0.955\ngini = 0.355\nsamples = 13\nvalue = [10, 3]"] ;
1174 -> 1182 ;
1183 [label="gini = 0.0\nsamples = 3\nvalue = [0, 3]"] ;
1182 -> 1183 ;
1184 [label="gini = 0.0\nsamples = 10\nvalue = [10, 0]"] ;
1182 -> 1184 ;
1185 [label="X[2] <= 95.5\ngini = 0.489\nsamples = 40\nvalue = [23, 17]"] ;
1121 -> 1185 ;
1186 [label="X[1] <= 0.944\ngini = 0.5\nsamples = 34\nvalue = [17, 17]"] ;
1185 -> 1186 ;
1187 [label="X[1] <= 0.932\ngini = 0.375\nsamples = 12\nvalue = [3, 9]"] ;
1186 -> 1187 ;
1188 [label="X[1] <= 0.929\ngini = 0.48\nsamples = 5\nvalue = [3, 2]"] ;
1187 -> 1188 ;
1189 [label="gini = 0.0\nsamples = 2\nvalue = [0, 2]"] ;
1188 -> 1189 ;
1190 [label="gini = 0.0\nsamples = 3\nvalue = [3, 0]"] ;
1188 -> 1190 ;
1191 [label="gini = 0.0\nsamples = 7\nvalue = [0, 7]"] ;
1187 -> 1191 ;
1192 [label="X[3] <= 36.0\ngini = 0.463\nsamples = 22\nvalue = [14, 8]"] ;
1186 -> 1192 ;
1193 [label="gini = 0.0\nsamples = 3\nvalue = [0, 3]"] ;
1192 -> 1193 ;
1194 [label="X[1] <= 0.954\ngini = 0.388\nsamples = 19\nvalue = [14, 5]"] ;
1192 -> 1194 ;
1195 [label="gini = 0.0\nsamples = 8\nvalue = [8, 0]"] ;
1194 -> 1195 ;
1196 [label="X[1] <= 0.958\ngini = 0.496\nsamples = 11\nvalue = [6, 5]"] ;
1194 -> 1196 ;
1197 [label="gini = 0.0\nsamples = 4\nvalue = [0, 4]"] ;
1196 -> 1197 ;
1198 [label="X[2] <= 41.0\ngini = 0.245\nsamples = 7\nvalue = [6, 1]"] ;
1196 -> 1198 ;
1199 [label="X[3] <= 100.0\ngini = 0.5\nsamples = 2\nvalue = [1, 1]"] ;
1198 -> 1199 ;
1200 [label="gini = 0.0\nsamples = 1\nvalue = [1, 0]"] ;
1199 -> 1200 ;
1201 [label="gini = 0.0\nsamples = 1\nvalue = [0, 1]"] ;
1199 -> 1201 ;
1202 [label="gini = 0.0\nsamples = 5\nvalue = [5, 0]"] ;
1198 -> 1202 ;
1203 [label="gini = 0.0\nsamples = 6\nvalue = [6, 0]"] ;
1185 -> 1203 ;
1204 [label="X[2] <= 21.5\ngini = 0.476\nsamples = 670\nvalue = [409, 261]"] ;
970 -> 1204 ;
1205 [label="X[3] <= 8.5\ngini = 0.408\nsamples = 133\nvalue = [95, 38]"] ;
1204 -> 1205 ;
1206 [label="X[2] <= 13.0\ngini = 0.444\nsamples = 9\nvalue = [3, 6]"] ;
1205 -> 1206 ;
1207 [label="X[1] <= 0.904\ngini = 0.375\nsamples = 8\nvalue = [2, 6]"] ;
1206 -> 1207 ;
1208 [label="gini = 0.0\nsamples = 3\nvalue = [0, 3]"] ;
1207 -> 1208 ;
1209 [label="X[1] <= 0.916\ngini = 0.48\nsamples = 5\nvalue = [2, 3]"] ;
1207 -> 1209 ;
1210 [label="gini = 0.0\nsamples = 1\nvalue = [1, 0]"] ;
1209 -> 1210 ;
1211 [label="X[2] <= 10.5\ngini = 0.375\nsamples = 4\nvalue = [1, 3]"] ;
1209 -> 1211 ;
1212 [label="X[3] <= 7.5\ngini = 0.5\nsamples = 2\nvalue = [1, 1]"] ;
1211 -> 1212 ;
1213 [label="gini = 0.0\nsamples = 1\nvalue = [1, 0]"] ;
1212 -> 1213 ;
1214 [label="gini = 0.0\nsamples = 1\nvalue = [0, 1]"] ;
1212 -> 1214 ;
1215 [label="gini = 0.0\nsamples = 2\nvalue = [0, 2]"] ;
1211 -> 1215 ;
1216 [label="gini = 0.0\nsamples = 1\nvalue = [1, 0]"] ;
1206 -> 1216 ;
1217 [label="X[1] <= 0.888\ngini = 0.383\nsamples = 124\nvalue = [92, 32]"] ;
1205 -> 1217 ;
1218 [label="X[0] <= 74.5\ngini = 0.149\nsamples = 37\nvalue = [34, 3]"] ;
1217 -> 1218 ;
1219 [label="X[1] <= 0.87\ngini = 0.056\nsamples = 35\nvalue = [34, 1]"] ;
1218 -> 1219 ;
1220 [label="X[1] <= 0.87\ngini = 0.245\nsamples = 7\nvalue = [6, 1]"] ;
1219 -> 1220 ;
1221 [label="gini = 0.0\nsamples = 6\nvalue = [6, 0]"] ;
1220 -> 1221 ;
1222 [label="gini = 0.0\nsamples = 1\nvalue = [0, 1]"] ;
1220 -> 1222 ;
1223 [label="gini = 0.0\nsamples = 28\nvalue = [28, 0]"] ;
1219 -> 1223 ;
1224 [label="gini = 0.0\nsamples = 2\nvalue = [0, 2]"] ;
1218 -> 1224 ;
1225 [label="X[1] <= 0.891\ngini = 0.444\nsamples = 87\nvalue = [58, 29]"] ;
1217 -> 1225 ;
1226 [label="gini = 0.0\nsamples = 3\nvalue = [0, 3]"] ;
1225 -> 1226 ;
1227 [label="X[1] <= 0.949\ngini = 0.427\nsamples = 84\nvalue = [58, 26]"] ;
1225 -> 1227 ;
1228 [label="X[0] <= 6.0\ngini = 0.382\nsamples = 70\nvalue = [52, 18]"] ;
1227 -> 1228 ;
1229 [label="X[1] <= 0.911\ngini = 0.48\nsamples = 5\nvalue = [2, 3]"] ;
1228 -> 1229 ;
1230 [label="gini = 0.0\nsamples = 3\nvalue = [0, 3]"] ;
1229 -> 1230 ;
1231 [label="gini = 0.0\nsamples = 2\nvalue = [2, 0]"] ;
1229 -> 1231 ;
1232 [label="X[0] <= 13.5\ngini = 0.355\nsamples = 65\nvalue = [50, 15]"] ;
1228 -> 1232 ;
1233 [label="gini = 0.0\nsamples = 13\nvalue = [13, 0]"] ;
1232 -> 1233 ;
1234 [label="X[1] <= 0.92\ngini = 0.411\nsamples = 52\nvalue = [37, 15]"] ;
1232 -> 1234 ;
1235 [label="X[1] <= 0.909\ngini = 0.334\nsamples = 33\nvalue = [26, 7]"] ;
1234 -> 1235 ;
1236 [label="X[1] <= 0.906\ngini = 0.444\nsamples = 21\nvalue = [14, 7]"] ;
1235 -> 1236 ;
1237 [label="X[1] <= 0.902\ngini = 0.36\nsamples = 17\nvalue = [13, 4]"] ;
1236 -> 1237 ;
1238 [label="X[2] <= 16.5\ngini = 0.463\nsamples = 11\nvalue = [7, 4]"] ;
1237 -> 1238 ;
1239 [label="X[2] <= 11.0\ngini = 0.49\nsamples = 7\nvalue = [3, 4]"] ;
1238 -> 1239 ;
1240 [label="gini = 0.0\nsamples = 2\nvalue = [2, 0]"] ;
1239 -> 1240 ;
1241 [label="X[0] <= 58.0\ngini = 0.32\nsamples = 5\nvalue = [1, 4]"] ;
1239 -> 1241 ;
1242 [label="gini = 0.0\nsamples = 3\nvalue = [0, 3]"] ;
1241 -> 1242 ;
1243 [label="X[3] <= 45.0\ngini = 0.5\nsamples = 2\nvalue = [1, 1]"] ;
1241 -> 1243 ;
1244 [label="gini = 0.0\nsamples = 1\nvalue = [0, 1]"] ;
1243 -> 1244 ;
1245 [label="gini = 0.0\nsamples = 1\nvalue = [1, 0]"] ;
1243 -> 1245 ;
1246 [label="gini = 0.0\nsamples = 4\nvalue = [4, 0]"] ;
1238 -> 1246 ;
1247 [label="gini = 0.0\nsamples = 6\nvalue = [6, 0]"] ;
1237 -> 1247 ;
1248 [label="X[3] <= 52.0\ngini = 0.375\nsamples = 4\nvalue = [1, 3]"] ;
1236 -> 1248 ;
1249 [label="gini = 0.0\nsamples = 3\nvalue = [0, 3]"] ;
1248 -> 1249 ;
1250 [label="gini = 0.0\nsamples = 1\nvalue = [1, 0]"] ;
1248 -> 1250 ;
1251 [label="gini = 0.0\nsamples = 12\nvalue = [12, 0]"] ;
1235 -> 1251 ;
1252 [label="X[1] <= 0.943\ngini = 0.488\nsamples = 19\nvalue = [11, 8]"] ;
1234 -> 1252 ;
1253 [label="X[0] <= 61.5\ngini = 0.498\nsamples = 15\nvalue = [7, 8]"] ;
1252 -> 1253 ;
1254 [label="X[3] <= 15.5\ngini = 0.32\nsamples = 5\nvalue = [4, 1]"] ;
1253 -> 1254 ;
1255 [label="gini = 0.0\nsamples = 1\nvalue = [0, 1]"] ;
1254 -> 1255 ;
1256 [label="gini = 0.0\nsamples = 4\nvalue = [4, 0]"] ;
1254 -> 1256 ;
1257 [label="X[0] <= 67.0\ngini = 0.42\nsamples = 10\nvalue = [3, 7]"] ;
1253 -> 1257 ;
1258 [label="gini = 0.0\nsamples = 4\nvalue = [0, 4]"] ;
1257 -> 1258 ;
1259 [label="X[2] <= 16.5\ngini = 0.5\nsamples = 6\nvalue = [3, 3]"] ;
1257 -> 1259 ;
1260 [label="X[3] <= 46.0\ngini = 0.375\nsamples = 4\nvalue = [3, 1]"] ;
1259 -> 1260 ;
1261 [label="gini = 0.0\nsamples = 3\nvalue = [3, 0]"] ;
1260 -> 1261 ;
1262 [label="gini = 0.0\nsamples = 1\nvalue = [0, 1]"] ;
1260 -> 1262 ;
1263 [label="gini = 0.0\nsamples = 2\nvalue = [0, 2]"] ;
1259 -> 1263 ;
1264 [label="gini = 0.0\nsamples = 4\nvalue = [4, 0]"] ;
1252 -> 1264 ;
1265 [label="X[0] <= 39.5\ngini = 0.49\nsamples = 14\nvalue = [6, 8]"] ;
1227 -> 1265 ;
1266 [label="X[3] <= 19.0\ngini = 0.278\nsamples = 6\nvalue = [5, 1]"] ;
1265 -> 1266 ;
1267 [label="gini = 0.0\nsamples = 1\nvalue = [0, 1]"] ;
1266 -> 1267 ;
1268 [label="gini = 0.0\nsamples = 5\nvalue = [5, 0]"] ;
1266 -> 1268 ;
1269 [label="X[1] <= 0.956\ngini = 0.219\nsamples = 8\nvalue = [1, 7]"] ;
1265 -> 1269 ;
1270 [label="gini = 0.0\nsamples = 6\nvalue = [0, 6]"] ;
1269 -> 1270 ;
1271 [label="X[3] <= 40.0\ngini = 0.5\nsamples = 2\nvalue = [1, 1]"] ;
1269 -> 1271 ;
1272 [label="gini = 0.0\nsamples = 1\nvalue = [1, 0]"] ;
1271 -> 1272 ;
1273 [label="gini = 0.0\nsamples = 1\nvalue = [0, 1]"] ;
1271 -> 1273 ;
1274 [label="X[0] <= 58.0\ngini = 0.486\nsamples = 537\nvalue = [314, 223]"] ;
1204 -> 1274 ;
1275 [label="X[2] <= 48.5\ngini = 0.496\nsamples = 380\nvalue = [207, 173]"] ;
1274 -> 1275 ;
1276 [label="X[3] <= 10.5\ngini = 0.498\nsamples = 156\nvalue = [73, 83]"] ;
1275 -> 1276 ;
