digraph Tree {
node [shape=box] ;
0 [label="X[5] <= 0.981\ngini = 0.468\nsamples = 3906\nvalue = [1457, 2449]"] ;
1 [label="X[4] <= 58.5\ngini = 0.498\nsamples = 1411\nvalue = [659, 752]"] ;
0 -> 1 [labeldistance=2.5, labelangle=45, headlabel="True"] ;
2 [label="X[5] <= 0.791\ngini = 0.489\nsamples = 1184\nvalue = [506, 678]"] ;
1 -> 2 ;
3 [label="X[5] <= 0.713\ngini = 0.453\nsamples = 130\nvalue = [85, 45]"] ;
2 -> 3 ;
4 [label="X[4] <= 44.5\ngini = 0.465\nsamples = 19\nvalue = [7, 12]"] ;
3 -> 4 ;
5 [label="X[6] <= 130.5\ngini = 0.5\nsamples = 14\nvalue = [7, 7]"] ;
4 -> 5 ;
6 [label="X[5] <= 0.708\ngini = 0.463\nsamples = 11\nvalue = [4, 7]"] ;
5 -> 6 ;
7 [label="X[3] <= 18.0\ngini = 0.49\nsamples = 7\nvalue = [4, 3]"] ;
6 -> 7 ;
8 [label="gini = 0.0\nsamples = 1\nvalue = [0, 1]"] ;
7 -> 8 ;
9 [label="X[6] <= 42.5\ngini = 0.444\nsamples = 6\nvalue = [4, 2]"] ;
7 -> 9 ;
10 [label="gini = 0.0\nsamples = 3\nvalue = [3, 0]"] ;
9 -> 10 ;
11 [label="X[3] <= 66.0\ngini = 0.444\nsamples = 3\nvalue = [1, 2]"] ;
9 -> 11 ;
12 [label="gini = 0.0\nsamples = 1\nvalue = [1, 0]"] ;
11 -> 12 ;
13 [label="gini = 0.0\nsamples = 2\nvalue = [0, 2]"] ;
11 -> 13 ;
14 [label="gini = 0.0\nsamples = 4\nvalue = [0, 4]"] ;
6 -> 14 ;
15 [label="gini = 0.0\nsamples = 3\nvalue = [3, 0]"] ;
5 -> 15 ;
16 [label="gini = 0.0\nsamples = 5\nvalue = [0, 5]"] ;
4 -> 16 ;
17 [label="X[5] <= 0.726\ngini = 0.418\nsamples = 111\nvalue = [78, 33]"] ;
3 -> 17 ;
18 [label="X[1] <= 0.571\ngini = 0.117\nsamples = 16\nvalue = [15, 1]"] ;
17 -> 18 ;
19 [label="X[1] <= 0.57\ngini = 0.375\nsamples = 4\nvalue = [3, 1]"] ;
18 -> 19 ;
20 [label="gini = 0.0\nsamples = 3\nvalue = [3, 0]"] ;
19 -> 20 ;
21 [label="gini = 0.0\nsamples = 1\nvalue = [0, 1]"] ;
19 -> 21 ;
22 [label="gini = 0.0\nsamples = 12\nvalue = [12, 0]"] ;
18 -> 22 ;
23 [label="X[5] <= 0.728\ngini = 0.447\nsamples = 95\nvalue = [63, 32]"] ;
17 -> 23 ;
24 [label="gini = 0.0\nsamples = 2\nvalue = [0, 2]"] ;
23 -> 24 ;
25 [label="X[1] <= 0.655\ngini = 0.437\nsamples = 93\nvalue = [63, 30]"] ;
23 -> 25 ;
26 [label="X[3] <= 14.0\ngini = 0.32\nsamples = 35\nvalue = [28, 7]"] ;
25 -> 26 ;
27 [label="gini = 0.0\nsamples = 2\nvalue = [0, 2]"] ;
26 -> 27 ;
28 [label="X[5] <= 0.789\ngini = 0.257\nsamples = 33\nvalue = [28, 5]"] ;
26 -> 28 ;
29 [label="X[1] <= 0.53\ngini = 0.219\nsamples = 32\nvalue = [28, 4]"] ;
28 -> 29 ;
30 [label="X[2] <= 32.0\ngini = 0.444\nsamples = 6\nvalue = [4, 2]"] ;
29 -> 30 ;
31 [label="gini = 0.0\nsamples = 3\nvalue = [3, 0]"] ;
30 -> 31 ;
32 [label="X[5] <= 0.731\ngini = 0.444\nsamples = 3\nvalue = [1, 2]"] ;
30 -> 32 ;
33 [label="gini = 0.0\nsamples = 1\nvalue = [1, 0]"] ;
32 -> 33 ;
34 [label="gini = 0.0\nsamples = 2\nvalue = [0, 2]"] ;
32 -> 34 ;
35 [label="X[6] <= 31.5\ngini = 0.142\nsamples = 26\nvalue = [24, 2]"] ;
29 -> 35 ;
36 [label="X[3] <= 40.0\ngini = 0.375\nsamples = 8\nvalue = [6, 2]"] ;
35 -> 36 ;
37 [label="gini = 0.0\nsamples = 5\nvalue = [5, 0]"] ;
36 -> 37 ;
38 [label="X[1] <= 0.553\ngini = 0.444\nsamples = 3\nvalue = [1, 2]"] ;
36 -> 38 ;
39 [label="gini = 0.0\nsamples = 1\nvalue = [1, 0]"] ;
38 -> 39 ;
40 [label="gini = 0.0\nsamples = 2\nvalue = [0, 2]"] ;
38 -> 40 ;
41 [label="gini = 0.0\nsamples = 18\nvalue = [18, 0]"] ;
35 -> 41 ;
42 [label="gini = 0.0\nsamples = 1\nvalue = [0, 1]"] ;
28 -> 42 ;
43 [label="X[1] <= 0.976\ngini = 0.479\nsamples = 58\nvalue = [35, 23]"] ;
25 -> 43 ;
44 [label="X[2] <= 136.0\ngini = 0.495\nsamples = 51\nvalue = [28, 23]"] ;
43 -> 44 ;
45 [label="X[1] <= 0.768\ngini = 0.472\nsamples = 42\nvalue = [26, 16]"] ;
44 -> 45 ;
46 [label="X[7] <= 16.0\ngini = 0.484\nsamples = 17\nvalue = [7, 10]"] ;
45 -> 46 ;
47 [label="gini = 0.0\nsamples = 2\nvalue = [2, 0]"] ;
46 -> 47 ;
48 [label="X[1] <= 0.696\ngini = 0.444\nsamples = 15\nvalue = [5, 10]"] ;
46 -> 48 ;
49 [label="gini = 0.0\nsamples = 4\nvalue = [0, 4]"] ;
48 -> 49 ;
50 [label="X[1] <= 0.723\ngini = 0.496\nsamples = 11\nvalue = [5, 6]"] ;
48 -> 50 ;
51 [label="gini = 0.0\nsamples = 3\nvalue = [3, 0]"] ;
50 -> 51 ;
52 [label="X[0] <= 57.5\ngini = 0.375\nsamples = 8\nvalue = [2, 6]"] ;
50 -> 52 ;
53 [label="X[1] <= 0.76\ngini = 0.245\nsamples = 7\nvalue = [1, 6]"] ;
52 -> 53 ;
54 [label="gini = 0.0\nsamples = 5\nvalue = [0, 5]"] ;
53 -> 54 ;
55 [label="X[3] <= 42.0\ngini = 0.5\nsamples = 2\nvalue = [1, 1]"] ;
53 -> 55 ;
56 [label="gini = 0.0\nsamples = 1\nvalue = [0, 1]"] ;
55 -> 56 ;
57 [label="gini = 0.0\nsamples = 1\nvalue = [1, 0]"] ;
55 -> 57 ;
58 [label="gini = 0.0\nsamples = 1\nvalue = [1, 0]"] ;
52 -> 58 ;
59 [label="X[5] <= 0.735\ngini = 0.365\nsamples = 25\nvalue = [19, 6]"] ;
45 -> 59 ;
60 [label="gini = 0.0\nsamples = 3\nvalue = [0, 3]"] ;
59 -> 60 ;
61 [label="X[7] <= 32.5\ngini = 0.236\nsamples = 22\nvalue = [19, 3]"] ;
59 -> 61 ;
62 [label="X[5] <= 0.753\ngini = 0.49\nsamples = 7\nvalue = [4, 3]"] ;
61 -> 62 ;
63 [label="gini = 0.0\nsamples = 3\nvalue = [3, 0]"] ;
62 -> 63 ;
64 [label="X[1] <= 0.792\ngini = 0.375\nsamples = 4\nvalue = [1, 3]"] ;
62 -> 64 ;
65 [label="gini = 0.0\nsamples = 1\nvalue = [1, 0]"] ;
64 -> 65 ;
66 [label="gini = 0.0\nsamples = 3\nvalue = [0, 3]"] ;
64 -> 66 ;
67 [label="gini = 0.0\nsamples = 15\nvalue = [15, 0]"] ;
61 -> 67 ;
68 [label="X[1] <= 0.866\ngini = 0.346\nsamples = 9\nvalue = [2, 7]"] ;
44 -> 68 ;
69 [label="X[6] <= 228.5\ngini = 0.444\nsamples = 3\nvalue = [2, 1]"] ;
68 -> 69 ;
70 [label="gini = 0.0\nsamples = 1\nvalue = [0, 1]"] ;
69 -> 70 ;
71 [label="gini = 0.0\nsamples = 2\nvalue = [2, 0]"] ;
69 -> 71 ;
72 [label="gini = 0.0\nsamples = 6\nvalue = [0, 6]"] ;
68 -> 72 ;
73 [label="gini = 0.0\nsamples = 7\nvalue = [7, 0]"] ;
43 -> 73 ;
74 [label="X[0] <= 53.5\ngini = 0.48\nsamples = 1054\nvalue = [421, 633]"] ;
2 -> 74 ;
75 [label="X[5] <= 0.981\ngini = 0.486\nsamples = 929\nvalue = [388, 541]"] ;
74 -> 75 ;
76 [label="X[1] <= 0.869\ngini = 0.485\nsamples = 921\nvalue = [381, 540]"] ;
75 -> 76 ;
77 [label="X[6] <= 42.5\ngini = 0.475\nsamples = 612\nvalue = [237, 375]"] ;
76 -> 77 ;
78 [label="X[0] <= 8.5\ngini = 0.494\nsamples = 372\nvalue = [165, 207]"] ;
77 -> 78 ;
79 [label="X[1] <= 0.662\ngini = 0.482\nsamples = 250\nvalue = [101, 149]"] ;
78 -> 79 ;
80 [label="X[5] <= 0.968\ngini = 0.5\nsamples = 100\nvalue = [50, 50]"] ;
79 -> 80 ;
81 [label="X[5] <= 0.956\ngini = 0.493\nsamples = 77\nvalue = [34, 43]"] ;
80 -> 81 ;
82 [label="X[5] <= 0.952\ngini = 0.5\nsamples = 66\nvalue = [32, 34]"] ;
81 -> 82 ;
83 [label="X[1] <= 0.574\ngini = 0.493\nsamples = 61\nvalue = [27, 34]"] ;
82 -> 83 ;
84 [label="X[1] <= 0.536\ngini = 0.482\nsamples = 32\nvalue = [19, 13]"] ;
83 -> 84 ;
85 [label="X[2] <= 42.0\ngini = 0.469\nsamples = 16\nvalue = [6, 10]"] ;
84 -> 85 ;
86 [label="X[4] <= 1.5\ngini = 0.408\nsamples = 14\nvalue = [4, 10]"] ;
85 -> 86 ;
87 [label="X[1] <= 0.504\ngini = 0.198\nsamples = 9\nvalue = [1, 8]"] ;
86 -> 87 ;
88 [label="gini = 0.0\nsamples = 1\nvalue = [1, 0]"] ;
87 -> 88 ;
89 [label="gini = 0.0\nsamples = 8\nvalue = [0, 8]"] ;
87 -> 89 ;
90 [label="X[2] <= 26.0\ngini = 0.48\nsamples = 5\nvalue = [3, 2]"] ;
86 -> 90 ;
91 [label="gini = 0.0\nsamples = 3\nvalue = [3, 0]"] ;
90 -> 91 ;
92 [label="gini = 0.0\nsamples = 2\nvalue = [0, 2]"] ;
90 -> 92 ;
93 [label="gini = 0.0\nsamples = 2\nvalue = [2, 0]"] ;
85 -> 93 ;
94 [label="X[5] <= 0.91\ngini = 0.305\nsamples = 16\nvalue = [13, 3]"] ;
84 -> 94 ;
95 [label="X[1] <= 0.549\ngini = 0.49\nsamples = 7\nvalue = [4, 3]"] ;
94 -> 95 ;
96 [label="gini = 0.0\nsamples = 3\nvalue = [3, 0]"] ;
95 -> 96 ;
97 [label="X[3] <= 25.0\ngini = 0.375\nsamples = 4\nvalue = [1, 3]"] ;
95 -> 97 ;
98 [label="X[3] <= 17.0\ngini = 0.5\nsamples = 2\nvalue = [1, 1]"] ;
97 -> 98 ;
99 [label="gini = 0.0\nsamples = 1\nvalue = [0, 1]"] ;
98 -> 99 ;
100 [label="gini = 0.0\nsamples = 1\nvalue = [1, 0]"] ;
98 -> 100 ;
101 [label="gini = 0.0\nsamples = 2\nvalue = [0, 2]"] ;
97 -> 101 ;
102 [label="gini = 0.0\nsamples = 9\nvalue = [9, 0]"] ;
94 -> 102 ;
103 [label="X[1] <= 0.659\ngini = 0.4\nsamples = 29\nvalue = [8, 21]"] ;
83 -> 103 ;
104 [label="X[6] <= 39.0\ngini = 0.346\nsamples = 27\nvalue = [6, 21]"] ;
103 -> 104 ;
105 [label="X[6] <= 15.5\ngini = 0.311\nsamples = 26\nvalue = [5, 21]"] ;
104 -> 105 ;
106 [label="X[5] <= 0.882\ngini = 0.48\nsamples = 10\nvalue = [4, 6]"] ;
105 -> 106 ;
107 [label="gini = 0.0\nsamples = 3\nvalue = [3, 0]"] ;
106 -> 107 ;
108 [label="X[5] <= 0.935\ngini = 0.245\nsamples = 7\nvalue = [1, 6]"] ;
106 -> 108 ;
109 [label="gini = 0.0\nsamples = 5\nvalue = [0, 5]"] ;
108 -> 109 ;
110 [label="X[7] <= 31.0\ngini = 0.5\nsamples = 2\nvalue = [1, 1]"] ;
108 -> 110 ;
111 [label="gini = 0.0\nsamples = 1\nvalue = [0, 1]"] ;
110 -> 111 ;
112 [label="gini = 0.0\nsamples = 1\nvalue = [1, 0]"] ;
110 -> 112 ;
113 [label="X[1] <= 0.625\ngini = 0.117\nsamples = 16\nvalue = [1, 15]"] ;
105 -> 113 ;
114 [label="gini = 0.0\nsamples = 11\nvalue = [0, 11]"] ;
113 -> 114 ;
115 [label="X[1] <= 0.634\ngini = 0.32\nsamples = 5\nvalue = [1, 4]"] ;
113 -> 115 ;
116 [label="X[4] <= 29.0\ngini = 0.5\nsamples = 2\nvalue = [1, 1]"] ;
115 -> 116 ;
117 [label="gini = 0.0\nsamples = 1\nvalue = [1, 0]"] ;
116 -> 117 ;
118 [label="gini = 0.0\nsamples = 1\nvalue = [0, 1]"] ;
116 -> 118 ;
119 [label="gini = 0.0\nsamples = 3\nvalue = [0, 3]"] ;
115 -> 119 ;
120 [label="gini = 0.0\nsamples = 1\nvalue = [1, 0]"] ;
104 -> 120 ;
121 [label="gini = 0.0\nsamples = 2\nvalue = [2, 0]"] ;
103 -> 121 ;
122 [label="gini = 0.0\nsamples = 5\nvalue = [5, 0]"] ;
82 -> 122 ;
123 [label="X[2] <= 42.0\ngini = 0.298\nsamples = 11\nvalue = [2, 9]"] ;
81 -> 123 ;
124 [label="X[1] <= 0.548\ngini = 0.18\nsamples = 10\nvalue = [1, 9]"] ;
123 -> 124 ;
125 [label="gini = 0.0\nsamples = 7\nvalue = [0, 7]"] ;
124 -> 125 ;
126 [label="X[7] <= 39.5\ngini = 0.444\nsamples = 3\nvalue = [1, 2]"] ;
124 -> 126 ;
127 [label="gini = 0.0\nsamples = 2\nvalue = [0, 2]"] ;
126 -> 127 ;
128 [label="gini = 0.0\nsamples = 1\nvalue = [1, 0]"] ;
126 -> 128 ;
129 [label="gini = 0.0\nsamples = 1\nvalue = [1, 0]"] ;
123 -> 129 ;
130 [label="X[6] <= 15.0\ngini = 0.423\nsamples = 23\nvalue = [16, 7]"] ;
80 -> 130 ;
131 [label="gini = 0.0\nsamples = 2\nvalue = [0, 2]"] ;
130 -> 131 ;
132 [label="X[7] <= 53.5\ngini = 0.363\nsamples = 21\nvalue = [16, 5]"] ;
130 -> 132 ;
133 [label="X[4] <= 2.0\ngini = 0.142\nsamples = 13\nvalue = [12, 1]"] ;
132 -> 133 ;
134 [label="gini = 0.0\nsamples = 10\nvalue = [10, 0]"] ;
133 -> 134 ;
135 [label="X[7] <= 20.5\ngini = 0.444\nsamples = 3\nvalue = [2, 1]"] ;
133 -> 135 ;
136 [label="gini = 0.0\nsamples = 2\nvalue = [2, 0]"] ;
135 -> 136 ;
137 [label="gini = 0.0\nsamples = 1\nvalue = [0, 1]"] ;
135 -> 137 ;
138 [label="X[5] <= 0.975\ngini = 0.5\nsamples = 8\nvalue = [4, 4]"] ;
132 -> 138 ;
139 [label="gini = 0.0\nsamples = 3\nvalue = [3, 0]"] ;
138 -> 139 ;
140 [label="X[5] <= 0.981\ngini = 0.32\nsamples = 5\nvalue = [1, 4]"] ;
138 -> 140 ;
141 [label="gini = 0.0\nsamples = 4\nvalue = [0, 4]"] ;
140 -> 141 ;
142 [label="gini = 0.0\nsamples = 1\nvalue = [1, 0]"] ;
140 -> 142 ;
143 [label="X[6] <= 11.5\ngini = 0.449\nsamples = 150\nvalue = [51, 99]"] ;
79 -> 143 ;
144 [label="X[7] <= 22.0\ngini = 0.48\nsamples = 25\nvalue = [15, 10]"] ;
143 -> 144 ;
145 [label="X[7] <= 12.5\ngini = 0.49\nsamples = 14\nvalue = [6, 8]"] ;
144 -> 145 ;
146 [label="gini = 0.0\nsamples = 3\nvalue = [3, 0]"] ;
145 -> 146 ;
147 [label="X[5] <= 0.939\ngini = 0.397\nsamples = 11\nvalue = [3, 8]"] ;
145 -> 147 ;
148 [label="X[1] <= 0.699\ngini = 0.5\nsamples = 6\nvalue = [3, 3]"] ;
147 -> 148 ;
149 [label="gini = 0.0\nsamples = 2\nvalue = [0, 2]"] ;
148 -> 149 ;
150 [label="X[5] <= 0.883\ngini = 0.375\nsamples = 4\nvalue = [3, 1]"] ;
148 -> 150 ;
151 [label="X[7] <= 18.0\ngini = 0.5\nsamples = 2\nvalue = [1, 1]"] ;
150 -> 151 ;
152 [label="gini = 0.0\nsamples = 1\nvalue = [0, 1]"] ;
151 -> 152 ;
153 [label="gini = 0.0\nsamples = 1\nvalue = [1, 0]"] ;
151 -> 153 ;
154 [label="gini = 0.0\nsamples = 2\nvalue = [2, 0]"] ;
150 -> 154 ;
155 [label="gini = 0.0\nsamples = 5\nvalue = [0, 5]"] ;
147 -> 155 ;
156 [label="X[5] <= 0.924\ngini = 0.298\nsamples = 11\nvalue = [9, 2]"] ;
144 -> 156 ;
157 [label="X[3] <= 20.0\ngini = 0.444\nsamples = 3\nvalue = [1, 2]"] ;
156 -> 157 ;
158 [label="gini = 0.0\nsamples = 1\nvalue = [1, 0]"] ;
157 -> 158 ;
159 [label="gini = 0.0\nsamples = 2\nvalue = [0, 2]"] ;
157 -> 159 ;
160 [label="gini = 0.0\nsamples = 8\nvalue = [8, 0]"] ;
156 -> 160 ;
161 [label="X[3] <= 75.0\ngini = 0.41\nsamples = 125\nvalue = [36, 89]"] ;
143 -> 161 ;
162 [label="X[1] <= 0.715\ngini = 0.368\nsamples = 111\nvalue = [27, 84]"] ;
161 -> 162 ;
163 [label="X[1] <= 0.667\ngini = 0.198\nsamples = 27\nvalue = [3, 24]"] ;
162 -> 163 ;
164 [label="X[5] <= 0.901\ngini = 0.5\nsamples = 2\nvalue = [1, 1]"] ;
163 -> 164 ;
165 [label="gini = 0.0\nsamples = 1\nvalue = [0, 1]"] ;
164 -> 165 ;
166 [label="gini = 0.0\nsamples = 1\nvalue = [1, 0]"] ;
164 -> 166 ;
167 [label="X[3] <= 11.0\ngini = 0.147\nsamples = 25\nvalue = [2, 23]"] ;
163 -> 167 ;
168 [label="X[6] <= 22.0\ngini = 0.444\nsamples = 3\nvalue = [1, 2]"] ;
167 -> 168 ;
169 [label="gini = 0.0\nsamples = 2\nvalue = [0, 2]"] ;
168 -> 169 ;
170 [label="gini = 0.0\nsamples = 1\nvalue = [1, 0]"] ;
168 -> 170 ;
171 [label="X[2] <= 38.0\ngini = 0.087\nsamples = 22\nvalue = [1, 21]"] ;
167 -> 171 ;
172 [label="gini = 0.0\nsamples = 17\nvalue = [0, 17]"] ;
171 -> 172 ;
173 [label="X[6] <= 40.0\ngini = 0.32\nsamples = 5\nvalue = [1, 4]"] ;
171 -> 173 ;
174 [label="gini = 0.0\nsamples = 1\nvalue = [1, 0]"] ;
173 -> 174 ;
175 [label="gini = 0.0\nsamples = 4\nvalue = [0, 4]"] ;
173 -> 175 ;
176 [label="X[4] <= 6.0\ngini = 0.408\nsamples = 84\nvalue = [24, 60]"] ;
162 -> 176 ;
177 [label="X[2] <= 31.0\ngini = 0.393\nsamples = 82\nvalue = [22, 60]"] ;
176 -> 177 ;
178 [label="X[5] <= 0.972\ngini = 0.346\nsamples = 63\nvalue = [14, 49]"] ;
177 -> 178 ;
179 [label="X[5] <= 0.969\ngini = 0.389\nsamples = 53\nvalue = [14, 39]"] ;
178 -> 179 ;
180 [label="X[7] <= 55.5\ngini = 0.353\nsamples = 48\nvalue = [11, 37]"] ;
179 -> 180 ;
181 [label="X[1] <= 0.8\ngini = 0.335\nsamples = 47\nvalue = [10, 37]"] ;
180 -> 181 ;
182 [label="X[1] <= 0.722\ngini = 0.198\nsamples = 27\nvalue = [3, 24]"] ;
181 -> 182 ;
183 [label="X[3] <= 24.0\ngini = 0.5\nsamples = 2\nvalue = [1, 1]"] ;
182 -> 183 ;
184 [label="gini = 0.0\nsamples = 1\nvalue = [0, 1]"] ;
183 -> 184 ;
185 [label="gini = 0.0\nsamples = 1\nvalue = [1, 0]"] ;
183 -> 185 ;
186 [label="X[5] <= 0.952\ngini = 0.147\nsamples = 25\nvalue = [2, 23]"] ;
182 -> 186 ;
187 [label="gini = 0.0\nsamples = 14\nvalue = [0, 14]"] ;
186 -> 187 ;
188 [label="X[5] <= 0.955\ngini = 0.298\nsamples = 11\nvalue = [2, 9]"] ;
186 -> 188 ;
189 [label="gini = 0.0\nsamples = 2\nvalue = [2, 0]"] ;
188 -> 189 ;
190 [label="gini = 0.0\nsamples = 9\nvalue = [0, 9]"] ;
188 -> 190 ;
191 [label="X[7] <= 15.0\ngini = 0.455\nsamples = 20\nvalue = [7, 13]"] ;
181 -> 191 ;
192 [label="gini = 0.0\nsamples = 2\nvalue = [2, 0]"] ;
191 -> 192 ;
193 [label="X[1] <= 0.809\ngini = 0.401\nsamples = 18\nvalue = [5, 13]"] ;
191 -> 193 ;
194 [label="gini = 0.0\nsamples = 2\nvalue = [2, 0]"] ;
193 -> 194 ;
195 [label="X[6] <= 18.5\ngini = 0.305\nsamples = 16\nvalue = [3, 13]"] ;
193 -> 195 ;
196 [label="X[2] <= 19.0\ngini = 0.49\nsamples = 7\nvalue = [3, 4]"] ;
195 -> 196 ;
197 [label="X[5] <= 0.926\ngini = 0.32\nsamples = 5\nvalue = [1, 4]"] ;
196 -> 197 ;
198 [label="gini = 0.0\nsamples = 1\nvalue = [1, 0]"] ;
197 -> 198 ;
199 [label="gini = 0.0\nsamples = 4\nvalue = [0, 4]"] ;
197 -> 199 ;
200 [label="gini = 0.0\nsamples = 2\nvalue = [2, 0]"] ;
196 -> 200 ;
201 [label="gini = 0.0\nsamples = 9\nvalue = [0, 9]"] ;
195 -> 201 ;
202 [label="gini = 0.0\nsamples = 1\nvalue = [1, 0]"] ;
180 -> 202 ;
203 [label="X[1] <= 0.791\ngini = 0.48\nsamples = 5\nvalue = [3, 2]"] ;
179 -> 203 ;
204 [label="gini = 0.0\nsamples = 2\nvalue = [2, 0]"] ;
203 -> 204 ;
205 [label="X[6] <= 23.5\ngini = 0.444\nsamples = 3\nvalue = [1, 2]"] ;
203 -> 205 ;
206 [label="gini = 0.0\nsamples = 2\nvalue = [0, 2]"] ;
205 -> 206 ;
207 [label="gini = 0.0\nsamples = 1\nvalue = [1, 0]"] ;
205 -> 207 ;
208 [label="gini = 0.0\nsamples = 10\nvalue = [0, 10]"] ;
178 -> 208 ;
209 [label="X[5] <= 0.973\ngini = 0.488\nsamples = 19\nvalue = [8, 11]"] ;
177 -> 209 ;
210 [label="X[2] <= 39.0\ngini = 0.43\nsamples = 16\nvalue = [5, 11]"] ;
209 -> 210 ;
211 [label="X[5] <= 0.962\ngini = 0.49\nsamples = 7\nvalue = [4, 3]"] ;
210 -> 211 ;
212 [label="X[5] <= 0.801\ngini = 0.32\nsamples = 5\nvalue = [4, 1]"] ;
211 -> 212 ;
213 [label="gini = 0.0\nsamples = 1\nvalue = [0, 1]"] ;
212 -> 213 ;
214 [label="gini = 0.0\nsamples = 4\nvalue = [4, 0]"] ;
212 -> 214 ;
215 [label="gini = 0.0\nsamples = 2\nvalue = [0, 2]"] ;
211 -> 215 ;
216 [label="X[1] <= 0.756\ngini = 0.198\nsamples = 9\nvalue = [1, 8]"] ;
210 -> 216 ;
217 [label="gini = 0.0\nsamples = 1\nvalue = [1, 0]"] ;
216 -> 217 ;
218 [label="gini = 0.0\nsamples = 8\nvalue = [0, 8]"] ;
216 -> 218 ;
219 [label="gini = 0.0\nsamples = 3\nvalue = [3, 0]"] ;
209 -> 219 ;
220 [label="gini = 0.0\nsamples = 2\nvalue = [2, 0]"] ;
176 -> 220 ;
221 [label="X[7] <= 122.5\ngini = 0.459\nsamples = 14\nvalue = [9, 5]"] ;
161 -> 221 ;
222 [label="X[6] <= 32.5\ngini = 0.298\nsamples = 11\nvalue = [9, 2]"] ;
221 -> 222 ;
223 [label="gini = 0.0\nsamples = 8\nvalue = [8, 0]"] ;
222 -> 223 ;
224 [label="X[5] <= 0.95\ngini = 0.444\nsamples = 3\nvalue = [1, 2]"] ;
222 -> 224 ;
225 [label="gini = 0.0\nsamples = 1\nvalue = [0, 1]"] ;
224 -> 225 ;
226 [label="X[5] <= 0.966\ngini = 0.5\nsamples = 2\nvalue = [1, 1]"] ;
224 -> 226 ;
227 [label="gini = 0.0\nsamples = 1\nvalue = [1, 0]"] ;
226 -> 227 ;
228 [label="gini = 0.0\nsamples = 1\nvalue = [0, 1]"] ;
226 -> 228 ;
229 [label="gini = 0.0\nsamples = 3\nvalue = [0, 3]"] ;
221 -> 229 ;
230 [label="X[0] <= 14.0\ngini = 0.499\nsamples = 122\nvalue = [64, 58]"] ;
78 -> 230 ;
231 [label="X[2] <= 36.0\ngini = 0.1\nsamples = 19\nvalue = [18, 1]"] ;
230 -> 231 ;
232 [label="gini = 0.0\nsamples = 18\nvalue = [18, 0]"] ;
231 -> 232 ;
233 [label="gini = 0.0\nsamples = 1\nvalue = [0, 1]"] ;
231 -> 233 ;
234 [label="X[1] <= 0.52\ngini = 0.494\nsamples = 103\nvalue = [46, 57]"] ;
230 -> 234 ;
235 [label="gini = 0.0\nsamples = 4\nvalue = [4, 0]"] ;
234 -> 235 ;
236 [label="X[1] <= 0.557\ngini = 0.489\nsamples = 99\nvalue = [42, 57]"] ;
234 -> 236 ;
237 [label="gini = 0.0\nsamples = 10\nvalue = [0, 10]"] ;
236 -> 237 ;
238 [label="X[5] <= 0.841\ngini = 0.498\nsamples = 89\nvalue = [42, 47]"] ;
236 -> 238 ;
239 [label="X[7] <= 11.5\ngini = 0.219\nsamples = 8\nvalue = [7, 1]"] ;
238 -> 239 ;
240 [label="gini = 0.0\nsamples = 1\nvalue = [0, 1]"] ;
239 -> 240 ;
241 [label="gini = 0.0\nsamples = 7\nvalue = [7, 0]"] ;
239 -> 241 ;
242 [label="X[3] <= 13.0\ngini = 0.491\nsamples = 81\nvalue = [35, 46]"] ;
238 -> 242 ;
243 [label="X[6] <= 7.5\ngini = 0.346\nsamples = 9\nvalue = [7, 2]"] ;
242 -> 243 ;
244 [label="gini = 0.0\nsamples = 1\nvalue = [0, 1]"] ;
243 -> 244 ;
245 [label="X[1] <= 0.606\ngini = 0.219\nsamples = 8\nvalue = [7, 1]"] ;
243 -> 245 ;
246 [label="X[7] <= 13.0\ngini = 0.5\nsamples = 2\nvalue = [1, 1]"] ;
245 -> 246 ;
247 [label="gini = 0.0\nsamples = 1\nvalue = [0, 1]"] ;
246 -> 247 ;
248 [label="gini = 0.0\nsamples = 1\nvalue = [1, 0]"] ;
246 -> 248 ;
249 [label="gini = 0.0\nsamples = 6\nvalue = [6, 0]"] ;
245 -> 249 ;
250 [label="X[0] <= 18.5\ngini = 0.475\nsamples = 72\nvalue = [28, 44]"] ;
242 -> 250 ;
251 [label="gini = 0.0\nsamples = 8\nvalue = [0, 8]"] ;
250 -> 251 ;
252 [label="X[6] <= 34.0\ngini = 0.492\nsamples = 64\nvalue = [28, 36]"] ;
250 -> 252 ;
253 [label="X[2] <= 11.0\ngini = 0.47\nsamples = 53\nvalue = [20, 33]"] ;
252 -> 253 ;
254 [label="gini = 0.0\nsamples = 3\nvalue = [3, 0]"] ;
253 -> 254 ;
255 [label="X[1] <= 0.571\ngini = 0.449\nsamples = 50\nvalue = [17, 33]"] ;
253 -> 255 ;
256 [label="gini = 0.0\nsamples = 2\nvalue = [2, 0]"] ;
255 -> 256 ;
257 [label="X[1] <= 0.852\ngini = 0.43\nsamples = 48\nvalue = [15, 33]"] ;
255 -> 257 ;
258 [label="X[4] <= 31.0\ngini = 0.397\nsamples = 44\nvalue = [12, 32]"] ;
257 -> 258 ;
259 [label="gini = 0.0\nsamples = 7\nvalue = [0, 7]"] ;
258 -> 259 ;
260 [label="X[4] <= 37.5\ngini = 0.438\nsamples = 37\nvalue = [12, 25]"] ;
258 -> 260 ;
261 [label="gini = 0.0\nsamples = 2\nvalue = [2, 0]"] ;
260 -> 261 ;
262 [label="X[7] <= 24.5\ngini = 0.408\nsamples = 35\nvalue = [10, 25]"] ;
260 -> 262 ;
263 [label="gini = 0.0\nsamples = 6\nvalue = [0, 6]"] ;
262 -> 263 ;
264 [label="X[7] <= 57.5\ngini = 0.452\nsamples = 29\nvalue = [10, 19]"] ;
262 -> 264 ;
265 [label="X[3] <= 54.0\ngini = 0.495\nsamples = 20\nvalue = [9, 11]"] ;
264 -> 265 ;
266 [label="X[7] <= 51.5\ngini = 0.457\nsamples = 17\nvalue = [6, 11]"] ;
265 -> 266 ;
267 [label="X[3] <= 47.0\ngini = 0.49\nsamples = 14\nvalue = [6, 8]"] ;
266 -> 267 ;
268 [label="X[6] <= 31.0\ngini = 0.444\nsamples = 12\nvalue = [4, 8]"] ;
267 -> 268 ;
269 [label="X[5] <= 0.917\ngini = 0.397\nsamples = 11\nvalue = [3, 8]"] ;
268 -> 269 ;
270 [label="gini = 0.0\nsamples = 5\nvalue = [0, 5]"] ;
269 -> 270 ;
271 [label="X[7] <= 29.5\ngini = 0.5\nsamples = 6\nvalue = [3, 3]"] ;
269 -> 271 ;
272 [label="gini = 0.0\nsamples = 1\nvalue = [0, 1]"] ;
271 -> 272 ;
273 [label="X[6] <= 14.0\ngini = 0.48\nsamples = 5\nvalue = [3, 2]"] ;
271 -> 273 ;
274 [label="gini = 0.0\nsamples = 1\nvalue = [0, 1]"] ;
273 -> 274 ;
275 [label="X[2] <= 30.0\ngini = 0.375\nsamples = 4\nvalue = [3, 1]"] ;
273 -> 275 ;
276 [label="gini = 0.0\nsamples = 3\nvalue = [3, 0]"] ;
275 -> 276 ;
277 [label="gini = 0.0\nsamples = 1\nvalue = [0, 1]"] ;
275 -> 277 ;
278 [label="gini = 0.0\nsamples = 1\nvalue = [1, 0]"] ;
268 -> 278 ;
279 [label="gini = 0.0\nsamples = 2\nvalue = [2, 0]"] ;
267 -> 279 ;
280 [label="gini = 0.0\nsamples = 3\nvalue = [0, 3]"] ;
266 -> 280 ;
281 [label="gini = 0.0\nsamples = 3\nvalue = [3, 0]"] ;
265 -> 281 ;
282 [label="X[1] <= 0.815\ngini = 0.198\nsamples = 9\nvalue = [1, 8]"] ;
264 -> 282 ;
283 [label="gini = 0.0\nsamples = 8\nvalue = [0, 8]"] ;
282 -> 283 ;
284 [label="gini = 0.0\nsamples = 1\nvalue = [1, 0]"] ;
282 -> 284 ;
285 [label="X[1] <= 0.864\ngini = 0.375\nsamples = 4\nvalue = [3, 1]"] ;
257 -> 285 ;
286 [label="gini = 0.0\nsamples = 3\nvalue = [3, 0]"] ;
285 -> 286 ;
287 [label="gini = 0.0\nsamples = 1\nvalue = [0, 1]"] ;
285 -> 287 ;
288 [label="X[1] <= 0.726\ngini = 0.397\nsamples = 11\nvalue = [8, 3]"] ;
252 -> 288 ;
289 [label="X[0] <= 40.5\ngini = 0.48\nsamples = 5\nvalue = [2, 3]"] ;
288 -> 289 ;
290 [label="gini = 0.0\nsamples = 3\nvalue = [0, 3]"] ;
289 -> 290 ;
291 [label="gini = 0.0\nsamples = 2\nvalue = [2, 0]"] ;
289 -> 291 ;
292 [label="gini = 0.0\nsamples = 6\nvalue = [6, 0]"] ;
288 -> 292 ;
293 [label="X[0] <= 40.5\ngini = 0.42\nsamples = 240\nvalue = [72, 168]"] ;
77 -> 293 ;
294 [label="X[1] <= 0.588\ngini = 0.359\nsamples = 158\nvalue = [37, 121]"] ;
293 -> 294 ;
295 [label="X[0] <= 5.5\ngini = 0.466\nsamples = 27\nvalue = [10, 17]"] ;
294 -> 295 ;
296 [label="X[1] <= 0.57\ngini = 0.484\nsamples = 17\nvalue = [10, 7]"] ;
295 -> 296 ;
297 [label="X[7] <= 54.0\ngini = 0.5\nsamples = 14\nvalue = [7, 7]"] ;
296 -> 297 ;
298 [label="gini = 0.0\nsamples = 3\nvalue = [0, 3]"] ;
297 -> 298 ;
299 [label="X[3] <= 101.0\ngini = 0.463\nsamples = 11\nvalue = [7, 4]"] ;
297 -> 299 ;
300 [label="gini = 0.0\nsamples = 5\nvalue = [5, 0]"] ;
299 -> 300 ;
301 [label="X[7] <= 184.5\ngini = 0.444\nsamples = 6\nvalue = [2, 4]"] ;
299 -> 301 ;
302 [label="gini = 0.0\nsamples = 3\nvalue = [0, 3]"] ;
301 -> 302 ;
303 [label="X[7] <= 278.0\ngini = 0.444\nsamples = 3\nvalue = [2, 1]"] ;
301 -> 303 ;
304 [label="gini = 0.0\nsamples = 2\nvalue = [2, 0]"] ;
303 -> 304 ;
305 [label="gini = 0.0\nsamples = 1\nvalue = [0, 1]"] ;
303 -> 305 ;
306 [label="gini = 0.0\nsamples = 3\nvalue = [3, 0]"] ;
296 -> 306 ;
307 [label="gini = 0.0\nsamples = 10\nvalue = [0, 10]"] ;
295 -> 307 ;
308 [label="X[7] <= 135.0\ngini = 0.327\nsamples = 131\nvalue = [27, 104]"] ;
294 -> 308 ;
309 [label="X[7] <= 127.5\ngini = 0.37\nsamples = 102\nvalue = [25, 77]"] ;
308 -> 309 ;
310 [label="X[2] <= 195.0\ngini = 0.337\nsamples = 98\nvalue = [21, 77]"] ;
309 -> 310 ;
311 [label="X[6] <= 60.5\ngini = 0.317\nsamples = 96\nvalue = [19, 77]"] ;
310 -> 311 ;
312 [label="X[6] <= 54.5\ngini = 0.395\nsamples = 48\nvalue = [13, 35]"] ;
311 -> 312 ;
313 [label="X[6] <= 47.5\ngini = 0.278\nsamples = 36\nvalue = [6, 30]"] ;
312 -> 313 ;
314 [label="X[2] <= 50.0\ngini = 0.444\nsamples = 15\nvalue = [5, 10]"] ;
313 -> 314 ;
315 [label="X[3] <= 64.0\ngini = 0.355\nsamples = 13\nvalue = [3, 10]"] ;
314 -> 315 ;
316 [label="gini = 0.0\nsamples = 6\nvalue = [0, 6]"] ;
315 -> 316 ;
317 [label="X[3] <= 70.0\ngini = 0.49\nsamples = 7\nvalue = [3, 4]"] ;
315 -> 317 ;
318 [label="gini = 0.0\nsamples = 2\nvalue = [2, 0]"] ;
317 -> 318 ;
319 [label="X[1] <= 0.798\ngini = 0.32\nsamples = 5\nvalue = [1, 4]"] ;
317 -> 319 ;
320 [label="gini = 0.0\nsamples = 3\nvalue = [0, 3]"] ;
319 -> 320 ;
321 [label="X[5] <= 0.958\ngini = 0.5\nsamples = 2\nvalue = [1, 1]"] ;
319 -> 321 ;
322 [label="gini = 0.0\nsamples = 1\nvalue = [1, 0]"] ;
321 -> 322 ;
323 [label="gini = 0.0\nsamples = 1\nvalue = [0, 1]"] ;
321 -> 323 ;
324 [label="gini = 0.0\nsamples = 2\nvalue = [2, 0]"] ;
314 -> 324 ;
325 [label="X[5] <= 0.975\ngini = 0.091\nsamples = 21\nvalue = [1, 20]"] ;
313 -> 325 ;
326 [label="gini = 0.0\nsamples = 15\nvalue = [0, 15]"] ;
325 -> 326 ;
327 [label="X[2] <= 44.0\ngini = 0.278\nsamples = 6\nvalue = [1, 5]"] ;
325 -> 327 ;
328 [label="gini = 0.0\nsamples = 1\nvalue = [1, 0]"] ;
327 -> 328 ;
329 [label="gini = 0.0\nsamples = 5\nvalue = [0, 5]"] ;
327 -> 329 ;
330 [label="X[1] <= 0.673\ngini = 0.486\nsamples = 12\nvalue = [7, 5]"] ;
312 -> 330 ;
331 [label="gini = 0.0\nsamples = 2\nvalue = [0, 2]"] ;
330 -> 331 ;
332 [label="X[5] <= 0.973\ngini = 0.42\nsamples = 10\nvalue = [7, 3]"] ;
330 -> 332 ;
333 [label="gini = 0.0\nsamples = 6\nvalue = [6, 0]"] ;
332 -> 333 ;
334 [label="X[6] <= 56.0\ngini = 0.375\nsamples = 4\nvalue = [1, 3]"] ;
332 -> 334 ;
335 [label="gini = 0.0\nsamples = 1\nvalue = [1, 0]"] ;
334 -> 335 ;
336 [label="gini = 0.0\nsamples = 3\nvalue = [0, 3]"] ;
334 -> 336 ;
337 [label="X[5] <= 0.944\ngini = 0.219\nsamples = 48\nvalue = [6, 42]"] ;
311 -> 337 ;
338 [label="gini = 0.0\nsamples = 24\nvalue = [0, 24]"] ;
337 -> 338 ;
339 [label="X[0] <= 31.5\ngini = 0.375\nsamples = 24\nvalue = [6, 18]"] ;
337 -> 339 ;
340 [label="X[7] <= 90.0\ngini = 0.255\nsamples = 20\nvalue = [3, 17]"] ;
339 -> 340 ;
341 [label="gini = 0.0\nsamples = 15\nvalue = [0, 15]"] ;
340 -> 341 ;
342 [label="X[7] <= 106.0\ngini = 0.48\nsamples = 5\nvalue = [3, 2]"] ;
340 -> 342 ;
343 [label="gini = 0.0\nsamples = 3\nvalue = [3, 0]"] ;
342 -> 343 ;
344 [label="gini = 0.0\nsamples = 2\nvalue = [0, 2]"] ;
342 -> 344 ;
345 [label="X[0] <= 36.5\ngini = 0.375\nsamples = 4\nvalue = [3, 1]"] ;
339 -> 345 ;
346 [label="gini = 0.0\nsamples = 3\nvalue = [3, 0]"] ;
345 -> 346 ;
347 [label="gini = 0.0\nsamples = 1\nvalue = [0, 1]"] ;
345 -> 347 ;
348 [label="gini = 0.0\nsamples = 2\nvalue = [2, 0]"] ;
310 -> 348 ;
349 [label="gini = 0.0\nsamples = 4\nvalue = [4, 0]"] ;
309 -> 349 ;
350 [label="X[4] <= 18.5\ngini = 0.128\nsamples = 29\nvalue = [2, 27]"] ;
308 -> 350 ;
351 [label="gini = 0.0\nsamples = 20\nvalue = [0, 20]"] ;
350 -> 351 ;
352 [label="X[0] <= 19.5\ngini = 0.346\nsamples = 9\nvalue = [2, 7]"] ;
350 -> 352 ;
353 [label="X[1] <= 0.774\ngini = 0.444\nsamples = 3\nvalue = [2, 1]"] ;
352 -> 353 ;
354 [label="gini = 0.0\nsamples = 2\nvalue = [2, 0]"] ;
353 -> 354 ;
355 [label="gini = 0.0\nsamples = 1\nvalue = [0, 1]"] ;
353 -> 355 ;
356 [label="gini = 0.0\nsamples = 6\nvalue = [0, 6]"] ;
352 -> 356 ;
357 [label="X[5] <= 0.939\ngini = 0.489\nsamples = 82\nvalue = [35, 47]"] ;
293 -> 357 ;
358 [label="X[2] <= 80.0\ngini = 0.483\nsamples = 44\nvalue = [26, 18]"] ;
357 -> 358 ;
359 [label="X[1] <= 0.66\ngini = 0.488\nsamples = 19\nvalue = [8, 11]"] ;
358 -> 359 ;
360 [label="X[3] <= 41.0\ngini = 0.463\nsamples = 11\nvalue = [7, 4]"] ;
359 -> 360 ;
361 [label="gini = 0.0\nsamples = 2\nvalue = [0, 2]"] ;
360 -> 361 ;
362 [label="X[2] <= 72.0\ngini = 0.346\nsamples = 9\nvalue = [7, 2]"] ;
360 -> 362 ;
363 [label="gini = 0.0\nsamples = 6\nvalue = [6, 0]"] ;
362 -> 363 ;
364 [label="X[3] <= 55.0\ngini = 0.444\nsamples = 3\nvalue = [1, 2]"] ;
362 -> 364 ;
365 [label="gini = 0.0\nsamples = 1\nvalue = [1, 0]"] ;
364 -> 365 ;
366 [label="gini = 0.0\nsamples = 2\nvalue = [0, 2]"] ;
364 -> 366 ;
367 [label="X[2] <= 42.0\ngini = 0.219\nsamples = 8\nvalue = [1, 7]"] ;
359 -> 367 ;
368 [label="gini = 0.0\nsamples = 1\nvalue = [1, 0]"] ;
367 -> 368 ;
369 [label="gini = 0.0\nsamples = 7\nvalue = [0, 7]"] ;
367 -> 369 ;
370 [label="X[2] <= 111.0\ngini = 0.403\nsamples = 25\nvalue = [18, 7]"] ;
358 -> 370 ;
371 [label="gini = 0.0\nsamples = 10\nvalue = [10, 0]"] ;
370 -> 371 ;
372 [label="X[5] <= 0.918\ngini = 0.498\nsamples = 15\nvalue = [8, 7]"] ;
370 -> 372 ;
373 [label="X[6] <= 187.0\ngini = 0.486\nsamples = 12\nvalue = [5, 7]"] ;
372 -> 373 ;
374 [label="X[1] <= 0.851\ngini = 0.278\nsamples = 6\nvalue = [1, 5]"] ;
373 -> 374 ;
375 [label="gini = 0.0\nsamples = 5\nvalue = [0, 5]"] ;
374 -> 375 ;
376 [label="gini = 0.0\nsamples = 1\nvalue = [1, 0]"] ;
374 -> 376 ;
377 [label="X[6] <= 439.0\ngini = 0.444\nsamples = 6\nvalue = [4, 2]"] ;
373 -> 377 ;
378 [label="gini = 0.0\nsamples = 3\nvalue = [3, 0]"] ;
377 -> 378 ;
379 [label="X[6] <= 552.5\ngini = 0.444\nsamples = 3\nvalue = [1, 2]"] ;
377 -> 379 ;
380 [label="gini = 0.0\nsamples = 2\nvalue = [0, 2]"] ;
379 -> 380 ;
381 [label="gini = 0.0\nsamples = 1\nvalue = [1, 0]"] ;
379 -> 381 ;
382 [label="gini = 0.0\nsamples = 3\nvalue = [3, 0]"] ;
372 -> 382 ;
383 [label="X[5] <= 0.974\ngini = 0.361\nsamples = 38\nvalue = [9, 29]"] ;
357 -> 383 ;
384 [label="X[3] <= 257.0\ngini = 0.245\nsamples = 28\nvalue = [4, 24]"] ;
383 -> 384 ;
385 [label="X[1] <= 0.79\ngini = 0.198\nsamples = 27\nvalue = [3, 24]"] ;
384 -> 385 ;
386 [label="X[1] <= 0.54\ngini = 0.091\nsamples = 21\nvalue = [1, 20]"] ;
385 -> 386 ;
387 [label="X[1] <= 0.535\ngini = 0.375\nsamples = 4\nvalue = [1, 3]"] ;
386 -> 387 ;
388 [label="gini = 0.0\nsamples = 3\nvalue = [0, 3]"] ;
387 -> 388 ;
389 [label="gini = 0.0\nsamples = 1\nvalue = [1, 0]"] ;
387 -> 389 ;
390 [label="gini = 0.0\nsamples = 17\nvalue = [0, 17]"] ;
386 -> 390 ;
391 [label="X[1] <= 0.811\ngini = 0.444\nsamples = 6\nvalue = [2, 4]"] ;
385 -> 391 ;
392 [label="gini = 0.0\nsamples = 2\nvalue = [2, 0]"] ;
391 -> 392 ;
393 [label="gini = 0.0\nsamples = 4\nvalue = [0, 4]"] ;
391 -> 393 ;
394 [label="gini = 0.0\nsamples = 1\nvalue = [1, 0]"] ;
384 -> 394 ;
395 [label="X[7] <= 161.0\ngini = 0.5\nsamples = 10\nvalue = [5, 5]"] ;
383 -> 395 ;
396 [label="X[7] <= 29.5\ngini = 0.278\nsamples = 6\nvalue = [5, 1]"] ;
395 -> 396 ;
397 [label="gini = 0.0\nsamples = 1\nvalue = [0, 1]"] ;
396 -> 397 ;
398 [label="gini = 0.0\nsamples = 5\nvalue = [5, 0]"] ;
396 -> 398 ;
399 [label="gini = 0.0\nsamples = 4\nvalue = [0, 4]"] ;
395 -> 399 ;
400 [label="X[5] <= 0.946\ngini = 0.498\nsamples = 309\nvalue = [144, 165]"] ;
76 -> 400 ;
401 [label="X[7] <= 37.5\ngini = 0.491\nsamples = 111\nvalue = [63, 48]"] ;
400 -> 401 ;
402 [label="X[5] <= 0.9\ngini = 0.332\nsamples = 19\nvalue = [4, 15]"] ;
401 -> 402 ;
403 [label="X[4] <= 43.0\ngini = 0.142\nsamples = 13\nvalue = [1, 12]"] ;
402 -> 403 ;
404 [label="gini = 0.0\nsamples = 11\nvalue = [0, 11]"] ;
403 -> 404 ;
405 [label="X[3] <= 28.0\ngini = 0.5\nsamples = 2\nvalue = [1, 1]"] ;
403 -> 405 ;
406 [label="gini = 0.0\nsamples = 1\nvalue = [0, 1]"] ;
405 -> 406 ;
407 [label="gini = 0.0\nsamples = 1\nvalue = [1, 0]"] ;
405 -> 407 ;
408 [label="X[6] <= 41.5\ngini = 0.5\nsamples = 6\nvalue = [3, 3]"] ;
402 -> 408 ;
409 [label="gini = 0.0\nsamples = 3\nvalue = [3, 0]"] ;
408 -> 409 ;
410 [label="gini = 0.0\nsamples = 3\nvalue = [0, 3]"] ;
408 -> 410 ;
411 [label="X[0] <= 45.5\ngini = 0.46\nsamples = 92\nvalue = [59, 33]"] ;
401 -> 411 ;
412 [label="X[4] <= 8.5\ngini = 0.49\nsamples = 77\nvalue = [44, 33]"] ;
411 -> 412 ;
413 [label="X[5] <= 0.904\ngini = 0.382\nsamples = 35\nvalue = [26, 9]"] ;
412 -> 413 ;
414 [label="X[5] <= 0.897\ngini = 0.494\nsamples = 18\nvalue = [10, 8]"] ;
413 -> 414 ;
415 [label="X[3] <= 402.0\ngini = 0.444\nsamples = 15\nvalue = [10, 5]"] ;
414 -> 415 ;
416 [label="X[5] <= 0.846\ngini = 0.355\nsamples = 13\nvalue = [10, 3]"] ;
415 -> 416 ;
417 [label="gini = 0.0\nsamples = 6\nvalue = [6, 0]"] ;
416 -> 417 ;
418 [label="X[6] <= 53.0\ngini = 0.49\nsamples = 7\nvalue = [4, 3]"] ;
416 -> 418 ;
419 [label="gini = 0.0\nsamples = 3\nvalue = [3, 0]"] ;
418 -> 419 ;
420 [label="X[2] <= 273.0\ngini = 0.375\nsamples = 4\nvalue = [1, 3]"] ;
418 -> 420 ;
421 [label="gini = 0.0\nsamples = 3\nvalue = [0, 3]"] ;
420 -> 421 ;
422 [label="gini = 0.0\nsamples = 1\nvalue = [1, 0]"] ;
420 -> 422 ;
423 [label="gini = 0.0\nsamples = 2\nvalue = [0, 2]"] ;
415 -> 423 ;
424 [label="gini = 0.0\nsamples = 3\nvalue = [0, 3]"] ;
414 -> 424 ;
425 [label="X[6] <= 373.0\ngini = 0.111\nsamples = 17\nvalue = [16, 1]"] ;
413 -> 425 ;
426 [label="gini = 0.0\nsamples = 15\nvalue = [15, 0]"] ;
425 -> 426 ;
427 [label="X[1] <= 0.958\ngini = 0.5\nsamples = 2\nvalue = [1, 1]"] ;
425 -> 427 ;
428 [label="gini = 0.0\nsamples = 1\nvalue = [0, 1]"] ;
427 -> 428 ;
429 [label="gini = 0.0\nsamples = 1\nvalue = [1, 0]"] ;
427 -> 429 ;
430 [label="X[3] <= 51.0\ngini = 0.49\nsamples = 42\nvalue = [18, 24]"] ;
412 -> 430 ;
431 [label="gini = 0.0\nsamples = 4\nvalue = [4, 0]"] ;
430 -> 431 ;
432 [label="X[5] <= 0.858\ngini = 0.465\nsamples = 38\nvalue = [14, 24]"] ;
430 -> 432 ;
433 [label="X[3] <= 295.0\ngini = 0.492\nsamples = 16\nvalue = [9, 7]"] ;
432 -> 433 ;
434 [label="X[6] <= 157.5\ngini = 0.459\nsamples = 14\nvalue = [9, 5]"] ;
433 -> 434 ;
435 [label="X[6] <= 102.5\ngini = 0.494\nsamples = 9\nvalue = [4, 5]"] ;
434 -> 435 ;
436 [label="X[5] <= 0.817\ngini = 0.32\nsamples = 5\nvalue = [4, 1]"] ;
435 -> 436 ;
437 [label="X[6] <= 72.5\ngini = 0.5\nsamples = 2\nvalue = [1, 1]"] ;
436 -> 437 ;
438 [label="gini = 0.0\nsamples = 1\nvalue = [0, 1]"] ;
437 -> 438 ;
439 [label="gini = 0.0\nsamples = 1\nvalue = [1, 0]"] ;
437 -> 439 ;
440 [label="gini = 0.0\nsamples = 3\nvalue = [3, 0]"] ;
436 -> 440 ;
441 [label="gini = 0.0\nsamples = 4\nvalue = [0, 4]"] ;
435 -> 441 ;
442 [label="gini = 0.0\nsamples = 5\nvalue = [5, 0]"] ;
434 -> 442 ;
443 [label="gini = 0.0\nsamples = 2\nvalue = [0, 2]"] ;
433 -> 443 ;
444 [label="X[7] <= 261.0\ngini = 0.351\nsamples = 22\nvalue = [5, 17]"] ;
432 -> 444 ;
445 [label="X[1] <= 0.991\ngini = 0.255\nsamples = 20\nvalue = [3, 17]"] ;
444 -> 445 ;
446 [label="X[1] <= 0.912\ngini = 0.188\nsamples = 19\nvalue = [2, 17]"] ;
445 -> 446 ;
447 [label="X[5] <= 0.937\ngini = 0.5\nsamples = 4\nvalue = [2, 2]"] ;
446 -> 447 ;
448 [label="gini = 0.0\nsamples = 2\nvalue = [2, 0]"] ;
447 -> 448 ;
449 [label="gini = 0.0\nsamples = 2\nvalue = [0, 2]"] ;
447 -> 449 ;
450 [label="gini = 0.0\nsamples = 15\nvalue = [0, 15]"] ;
446 -> 450 ;
451 [label="gini = 0.0\nsamples = 1\nvalue = [1, 0]"] ;
445 -> 451 ;
452 [label="gini = 0.0\nsamples = 2\nvalue = [2, 0]"] ;
444 -> 452 ;
453 [label="gini = 0.0\nsamples = 15\nvalue = [15, 0]"] ;
411 -> 453 ;
454 [label="X[5] <= 0.98\ngini = 0.483\nsamples = 198\nvalue = [81, 117]"] ;
400 -> 454 ;
455 [label="X[5] <= 0.951\ngini = 0.478\nsamples = 192\nvalue = [76, 116]"] ;
454 -> 455 ;
456 [label="X[2] <= 532.0\ngini = 0.26\nsamples = 13\nvalue = [2, 11]"] ;
455 -> 456 ;
457 [label="X[6] <= 28.0\ngini = 0.153\nsamples = 12\nvalue = [1, 11]"] ;
456 -> 457 ;
458 [label="X[1] <= 0.912\ngini = 0.444\nsamples = 3\nvalue = [1, 2]"] ;
457 -> 458 ;
459 [label="gini = 0.0\nsamples = 2\nvalue = [0, 2]"] ;
458 -> 459 ;
460 [label="gini = 0.0\nsamples = 1\nvalue = [1, 0]"] ;
458 -> 460 ;
461 [label="gini = 0.0\nsamples = 9\nvalue = [0, 9]"] ;
457 -> 461 ;
462 [label="gini = 0.0\nsamples = 1\nvalue = [1, 0]"] ;
456 -> 462 ;
463 [label="X[5] <= 0.958\ngini = 0.485\nsamples = 179\nvalue = [74, 105]"] ;
455 -> 463 ;
464 [label="X[4] <= 23.5\ngini = 0.472\nsamples = 21\nvalue = [13, 8]"] ;
463 -> 464 ;
465 [label="X[5] <= 0.954\ngini = 0.5\nsamples = 14\nvalue = [7, 7]"] ;
464 -> 465 ;
466 [label="X[6] <= 26.0\ngini = 0.375\nsamples = 8\nvalue = [6, 2]"] ;
465 -> 466 ;
467 [label="gini = 0.0\nsamples = 1\nvalue = [0, 1]"] ;
466 -> 467 ;
468 [label="X[6] <= 197.5\ngini = 0.245\nsamples = 7\nvalue = [6, 1]"] ;
466 -> 468 ;
469 [label="gini = 0.0\nsamples = 5\nvalue = [5, 0]"] ;
468 -> 469 ;
470 [label="X[1] <= 0.99\ngini = 0.5\nsamples = 2\nvalue = [1, 1]"] ;
468 -> 470 ;
471 [label="gini = 0.0\nsamples = 1\nvalue = [0, 1]"] ;
470 -> 471 ;
472 [label="gini = 0.0\nsamples = 1\nvalue = [1, 0]"] ;
470 -> 472 ;
473 [label="X[4] <= 18.5\ngini = 0.278\nsamples = 6\nvalue = [1, 5]"] ;
465 -> 473 ;
474 [label="gini = 0.0\nsamples = 5\nvalue = [0, 5]"] ;
473 -> 474 ;
475 [label="gini = 0.0\nsamples = 1\nvalue = [1, 0]"] ;
473 -> 475 ;
476 [label="X[5] <= 0.952\ngini = 0.245\nsamples = 7\nvalue = [6, 1]"] ;
464 -> 476 ;
477 [label="gini = 0.0\nsamples = 1\nvalue = [0, 1]"] ;
476 -> 477 ;
478 [label="gini = 0.0\nsamples = 6\nvalue = [6, 0]"] ;
476 -> 478 ;
479 [label="X[7] <= 14.0\ngini = 0.474\nsamples = 158\nvalue = [61, 97]"] ;
463 -> 479 ;
480 [label="gini = 0.0\nsamples = 3\nvalue = [3, 0]"] ;
479 -> 480 ;
481 [label="X[5] <= 0.964\ngini = 0.468\nsamples = 155\nvalue = [58, 97]"] ;
479 -> 481 ;
482 [label="X[3] <= 320.0\ngini = 0.231\nsamples = 15\nvalue = [2, 13]"] ;
481 -> 482 ;
483 [label="X[5] <= 0.959\ngini = 0.133\nsamples = 14\nvalue = [1, 13]"] ;
482 -> 483 ;
484 [label="X[5] <= 0.959\ngini = 0.375\nsamples = 4\nvalue = [1, 3]"] ;
483 -> 484 ;
485 [label="gini = 0.0\nsamples = 3\nvalue = [0, 3]"] ;
484 -> 485 ;
486 [label="gini = 0.0\nsamples = 1\nvalue = [1, 0]"] ;
484 -> 486 ;
487 [label="gini = 0.0\nsamples = 10\nvalue = [0, 10]"] ;
483 -> 487 ;
488 [label="gini = 0.0\nsamples = 1\nvalue = [1, 0]"] ;
482 -> 488 ;
489 [label="X[5] <= 0.977\ngini = 0.48\nsamples = 140\nvalue = [56, 84]"] ;
481 -> 489 ;
490 [label="X[4] <= 3.5\ngini = 0.498\nsamples = 90\nvalue = [42, 48]"] ;
489 -> 490 ;
491 [label="X[3] <= 209.0\ngini = 0.463\nsamples = 44\nvalue = [16, 28]"] ;
490 -> 491 ;
492 [label="X[7] <= 155.0\ngini = 0.491\nsamples = 37\nvalue = [16, 21]"] ;
491 -> 492 ;
493 [label="X[6] <= 39.5\ngini = 0.472\nsamples = 34\nvalue = [13, 21]"] ;
492 -> 493 ;
494 [label="X[6] <= 14.5\ngini = 0.498\nsamples = 15\nvalue = [8, 7]"] ;
493 -> 494 ;
495 [label="X[1] <= 0.954\ngini = 0.278\nsamples = 6\nvalue = [1, 5]"] ;
494 -> 495 ;
496 [label="gini = 0.0\nsamples = 4\nvalue = [0, 4]"] ;
495 -> 496 ;
497 [label="X[5] <= 0.97\ngini = 0.5\nsamples = 2\nvalue = [1, 1]"] ;
495 -> 497 ;
498 [label="gini = 0.0\nsamples = 1\nvalue = [0, 1]"] ;
497 -> 498 ;
499 [label="gini = 0.0\nsamples = 1\nvalue = [1, 0]"] ;
497 -> 499 ;
500 [label="X[2] <= 39.0\ngini = 0.346\nsamples = 9\nvalue = [7, 2]"] ;
494 -> 500 ;
501 [label="X[3] <= 70.0\ngini = 0.219\nsamples = 8\nvalue = [7, 1]"] ;
500 -> 501 ;
502 [label="gini = 0.0\nsamples = 7\nvalue = [7, 0]"] ;
501 -> 502 ;
503 [label="gini = 0.0\nsamples = 1\nvalue = [0, 1]"] ;
501 -> 503 ;
504 [label="gini = 0.0\nsamples = 1\nvalue = [0, 1]"] ;
500 -> 504 ;
505 [label="X[6] <= 42.5\ngini = 0.388\nsamples = 19\nvalue = [5, 14]"] ;
493 -> 505 ;
506 [label="gini = 0.0\nsamples = 7\nvalue = [0, 7]"] ;
505 -> 506 ;
507 [label="X[5] <= 0.969\ngini = 0.486\nsamples = 12\nvalue = [5, 7]"] ;
505 -> 507 ;
508 [label="gini = 0.0\nsamples = 2\nvalue = [2, 0]"] ;
507 -> 508 ;
509 [label="X[5] <= 0.976\ngini = 0.42\nsamples = 10\nvalue = [3, 7]"] ;
507 -> 509 ;
510 [label="X[3] <= 94.0\ngini = 0.245\nsamples = 7\nvalue = [1, 6]"] ;
509 -> 510 ;
511 [label="gini = 0.0\nsamples = 4\nvalue = [0, 4]"] ;
510 -> 511 ;
512 [label="X[3] <= 112.0\ngini = 0.444\nsamples = 3\nvalue = [1, 2]"] ;
510 -> 512 ;
513 [label="gini = 0.0\nsamples = 1\nvalue = [1, 0]"] ;
512 -> 513 ;
514 [label="gini = 0.0\nsamples = 2\nvalue = [0, 2]"] ;
512 -> 514 ;
515 [label="X[1] <= 0.904\ngini = 0.444\nsamples = 3\nvalue = [2, 1]"] ;
509 -> 515 ;
516 [label="gini = 0.0\nsamples = 1\nvalue = [0, 1]"] ;
515 -> 516 ;
517 [label="gini = 0.0\nsamples = 2\nvalue = [2, 0]"] ;
515 -> 517 ;
518 [label="gini = 0.0\nsamples = 3\nvalue = [3, 0]"] ;
492 -> 518 ;
519 [label="gini = 0.0\nsamples = 7\nvalue = [0, 7]"] ;
491 -> 519 ;
520 [label="X[2] <= 433.0\ngini = 0.491\nsamples = 46\nvalue = [26, 20]"] ;
490 -> 520 ;
521 [label="X[0] <= 12.0\ngini = 0.478\nsamples = 43\nvalue = [26, 17]"] ;
520 -> 521 ;
522 [label="X[1] <= 0.888\ngini = 0.198\nsamples = 9\nvalue = [8, 1]"] ;
521 -> 522 ;
523 [label="gini = 0.0\nsamples = 1\nvalue = [0, 1]"] ;
522 -> 523 ;
524 [label="gini = 0.0\nsamples = 8\nvalue = [8, 0]"] ;
522 -> 524 ;
525 [label="X[5] <= 0.974\ngini = 0.498\nsamples = 34\nvalue = [18, 16]"] ;
521 -> 525 ;
526 [label="X[7] <= 188.5\ngini = 0.493\nsamples = 25\nvalue = [11, 14]"] ;
525 -> 526 ;
527 [label="X[1] <= 0.991\ngini = 0.499\nsamples = 21\nvalue = [11, 10]"] ;
526 -> 527 ;
528 [label="X[5] <= 0.973\ngini = 0.484\nsamples = 17\nvalue = [7, 10]"] ;
527 -> 528 ;
529 [label="X[2] <= 124.0\ngini = 0.5\nsamples = 14\nvalue = [7, 7]"] ;
528 -> 529 ;
530 [label="X[5] <= 0.969\ngini = 0.463\nsamples = 11\nvalue = [7, 4]"] ;
529 -> 530 ;
531 [label="X[2] <= 67.0\ngini = 0.444\nsamples = 6\nvalue = [2, 4]"] ;
530 -> 531 ;
532 [label="gini = 0.0\nsamples = 4\nvalue = [0, 4]"] ;
531 -> 532 ;
533 [label="gini = 0.0\nsamples = 2\nvalue = [2, 0]"] ;
531 -> 533 ;
534 [label="gini = 0.0\nsamples = 5\nvalue = [5, 0]"] ;
530 -> 534 ;
535 [label="gini = 0.0\nsamples = 3\nvalue = [0, 3]"] ;
529 -> 535 ;
536 [label="gini = 0.0\nsamples = 3\nvalue = [0, 3]"] ;
528 -> 536 ;
537 [label="gini = 0.0\nsamples = 4\nvalue = [4, 0]"] ;
527 -> 537 ;
538 [label="gini = 0.0\nsamples = 4\nvalue = [0, 4]"] ;
526 -> 538 ;
539 [label="X[5] <= 0.975\ngini = 0.346\nsamples = 9\nvalue = [7, 2]"] ;
525 -> 539 ;
540 [label="gini = 0.0\nsamples = 5\nvalue = [5, 0]"] ;
539 -> 540 ;
541 [label="X[5] <= 0.976\ngini = 0.5\nsamples = 4\nvalue = [2, 2]"] ;
539 -> 541 ;
542 [label="gini = 0.0\nsamples = 2\nvalue = [0, 2]"] ;
541 -> 542 ;
543 [label="gini = 0.0\nsamples = 2\nvalue = [2, 0]"] ;
541 -> 543 ;
544 [label="gini = 0.0\nsamples = 3\nvalue = [0, 3]"] ;
520 -> 544 ;
545 [label="X[0] <= 19.5\ngini = 0.403\nsamples = 50\nvalue = [14, 36]"] ;
489 -> 545 ;
546 [label="X[1] <= 0.984\ngini = 0.49\nsamples = 28\nvalue = [12, 16]"] ;
545 -> 546 ;
547 [label="X[3] <= 30.0\ngini = 0.499\nsamples = 23\nvalue = [12, 11]"] ;
546 -> 547 ;
548 [label="gini = 0.0\nsamples = 3\nvalue = [0, 3]"] ;
547 -> 548 ;
549 [label="X[3] <= 69.0\ngini = 0.48\nsamples = 20\nvalue = [12, 8]"] ;
547 -> 549 ;
550 [label="X[1] <= 0.956\ngini = 0.32\nsamples = 10\nvalue = [8, 2]"] ;
549 -> 550 ;
551 [label="gini = 0.0\nsamples = 7\nvalue = [7, 0]"] ;
550 -> 551 ;
552 [label="X[7] <= 38.0\ngini = 0.444\nsamples = 3\nvalue = [1, 2]"] ;
550 -> 552 ;
553 [label="gini = 0.0\nsamples = 1\nvalue = [1, 0]"] ;
552 -> 553 ;
554 [label="gini = 0.0\nsamples = 2\nvalue = [0, 2]"] ;
552 -> 554 ;
555 [label="X[0] <= 6.0\ngini = 0.48\nsamples = 10\nvalue = [4, 6]"] ;
549 -> 555 ;
556 [label="X[1] <= 0.876\ngini = 0.278\nsamples = 6\nvalue = [1, 5]"] ;
555 -> 556 ;
557 [label="gini = 0.0\nsamples = 1\nvalue = [1, 0]"] ;
556 -> 557 ;
558 [label="gini = 0.0\nsamples = 5\nvalue = [0, 5]"] ;
556 -> 558 ;
559 [label="X[0] <= 13.5\ngini = 0.375\nsamples = 4\nvalue = [3, 1]"] ;
555 -> 559 ;
560 [label="gini = 0.0\nsamples = 3\nvalue = [3, 0]"] ;
559 -> 560 ;
561 [label="gini = 0.0\nsamples = 1\nvalue = [0, 1]"] ;
559 -> 561 ;
562 [label="gini = 0.0\nsamples = 5\nvalue = [0, 5]"] ;
546 -> 562 ;
563 [label="X[3] <= 137.0\ngini = 0.165\nsamples = 22\nvalue = [2, 20]"] ;
545 -> 563 ;
564 [label="gini = 0.0\nsamples = 16\nvalue = [0, 16]"] ;
563 -> 564 ;
565 [label="X[7] <= 132.0\ngini = 0.444\nsamples = 6\nvalue = [2, 4]"] ;
563 -> 565 ;
566 [label="gini = 0.0\nsamples = 1\nvalue = [1, 0]"] ;
565 -> 566 ;
567 [label="X[4] <= 45.5\ngini = 0.32\nsamples = 5\nvalue = [1, 4]"] ;
565 -> 567 ;
568 [label="gini = 0.0\nsamples = 4\nvalue = [0, 4]"] ;
567 -> 568 ;
569 [label="gini = 0.0\nsamples = 1\nvalue = [1, 0]"] ;
567 -> 569 ;
570 [label="X[4] <= 31.5\ngini = 0.278\nsamples = 6\nvalue = [5, 1]"] ;
454 -> 570 ;
571 [label="gini = 0.0\nsamples = 5\nvalue = [5, 0]"] ;
570 -> 571 ;
572 [label="gini = 0.0\nsamples = 1\nvalue = [0, 1]"] ;
570 -> 572 ;
573 [label="X[4] <= 2.0\ngini = 0.219\nsamples = 8\nvalue = [7, 1]"] ;
75 -> 573 ;
574 [label="X[3] <= 71.0\ngini = 0.5\nsamples = 2\nvalue = [1, 1]"] ;
573 -> 574 ;
575 [label="gini = 0.0\nsamples = 1\nvalue = [1, 0]"] ;
574 -> 575 ;
576 [label="gini = 0.0\nsamples = 1\nvalue = [0, 1]"] ;
574 -> 576 ;
577 [label="gini = 0.0\nsamples = 6\nvalue = [6, 0]"] ;
573 -> 577 ;
578 [label="X[1] <= 0.938\ngini = 0.389\nsamples = 125\nvalue = [33, 92]"] ;
74 -> 578 ;
579 [label="X[4] <= 39.5\ngini = 0.315\nsamples = 92\nvalue = [18, 74]"] ;
578 -> 579 ;
580 [label="gini = 0.0\nsamples = 2\nvalue = [2, 0]"] ;
579 -> 580 ;
581 [label="X[5] <= 0.981\ngini = 0.292\nsamples = 90\nvalue = [16, 74]"] ;
579 -> 581 ;
582 [label="X[5] <= 0.936\ngini = 0.28\nsamples = 89\nvalue = [15, 74]"] ;
581 -> 582 ;
583 [label="X[2] <= 345.0\ngini = 0.393\nsamples = 41\nvalue = [11, 30]"] ;
582 -> 583 ;
584 [label="X[5] <= 0.922\ngini = 0.355\nsamples = 39\nvalue = [9, 30]"] ;
583 -> 584 ;
585 [label="X[6] <= 26.0\ngini = 0.307\nsamples = 37\nvalue = [7, 30]"] ;
584 -> 585 ;
586 [label="gini = 0.0\nsamples = 1\nvalue = [1, 0]"] ;
585 -> 586 ;
587 [label="X[3] <= 40.0\ngini = 0.278\nsamples = 36\nvalue = [6, 30]"] ;
585 -> 587 ;
588 [label="gini = 0.0\nsamples = 14\nvalue = [0, 14]"] ;
587 -> 588 ;
589 [label="X[7] <= 42.0\ngini = 0.397\nsamples = 22\nvalue = [6, 16]"] ;
587 -> 589 ;
590 [label="gini = 0.0\nsamples = 2\nvalue = [2, 0]"] ;
589 -> 590 ;
591 [label="X[2] <= 74.0\ngini = 0.32\nsamples = 20\nvalue = [4, 16]"] ;
589 -> 591 ;
592 [label="X[5] <= 0.897\ngini = 0.48\nsamples = 10\nvalue = [4, 6]"] ;
591 -> 592 ;
593 [label="X[3] <= 55.0\ngini = 0.32\nsamples = 5\nvalue = [4, 1]"] ;
592 -> 593 ;
594 [label="gini = 0.0\nsamples = 1\nvalue = [0, 1]"] ;
593 -> 594 ;
595 [label="gini = 0.0\nsamples = 4\nvalue = [4, 0]"] ;
593 -> 595 ;
596 [label="gini = 0.0\nsamples = 5\nvalue = [0, 5]"] ;
592 -> 596 ;
597 [label="gini = 0.0\nsamples = 10\nvalue = [0, 10]"] ;
591 -> 597 ;
598 [label="gini = 0.0\nsamples = 2\nvalue = [2, 0]"] ;
584 -> 598 ;
599 [label="gini = 0.0\nsamples = 2\nvalue = [2, 0]"] ;
583 -> 599 ;
600 [label="X[1] <= 0.925\ngini = 0.153\nsamples = 48\nvalue = [4, 44]"] ;
582 -> 600 ;
601 [label="X[1] <= 0.764\ngini = 0.122\nsamples = 46\nvalue = [3, 43]"] ;
600 -> 601 ;
602 [label="gini = 0.0\nsamples = 23\nvalue = [0, 23]"] ;
601 -> 602 ;
603 [label="X[1] <= 0.77\ngini = 0.227\nsamples = 23\nvalue = [3, 20]"] ;
601 -> 603 ;
604 [label="gini = 0.0\nsamples = 1\nvalue = [1, 0]"] ;
603 -> 604 ;
605 [label="X[7] <= 168.0\ngini = 0.165\nsamples = 22\nvalue = [2, 20]"] ;
603 -> 605 ;
606 [label="X[2] <= 69.0\ngini = 0.1\nsamples = 19\nvalue = [1, 18]"] ;
605 -> 606 ;
607 [label="gini = 0.0\nsamples = 11\nvalue = [0, 11]"] ;
606 -> 607 ;
608 [label="X[6] <= 77.0\ngini = 0.219\nsamples = 8\nvalue = [1, 7]"] ;
606 -> 608 ;
609 [label="gini = 0.0\nsamples = 1\nvalue = [1, 0]"] ;
608 -> 609 ;
610 [label="gini = 0.0\nsamples = 7\nvalue = [0, 7]"] ;
608 -> 610 ;
611 [label="X[3] <= 256.0\ngini = 0.444\nsamples = 3\nvalue = [1, 2]"] ;
605 -> 611 ;
612 [label="gini = 0.0\nsamples = 1\nvalue = [1, 0]"] ;
611 -> 612 ;
613 [label="gini = 0.0\nsamples = 2\nvalue = [0, 2]"] ;
611 -> 613 ;
614 [label="X[3] <= 132.0\ngini = 0.5\nsamples = 2\nvalue = [1, 1]"] ;
600 -> 614 ;
615 [label="gini = 0.0\nsamples = 1\nvalue = [1, 0]"] ;
614 -> 615 ;
616 [label="gini = 0.0\nsamples = 1\nvalue = [0, 1]"] ;
614 -> 616 ;
617 [label="gini = 0.0\nsamples = 1\nvalue = [1, 0]"] ;
581 -> 617 ;
618 [label="X[6] <= 200.5\ngini = 0.496\nsamples = 33\nvalue = [15, 18]"] ;
578 -> 618 ;
619 [label="X[5] <= 0.914\ngini = 0.465\nsamples = 19\nvalue = [12, 7]"] ;
618 -> 619 ;
620 [label="gini = 0.0\nsamples = 5\nvalue = [5, 0]"] ;
619 -> 620 ;
621 [label="X[6] <= 180.5\ngini = 0.5\nsamples = 14\nvalue = [7, 7]"] ;
619 -> 621 ;
622 [label="X[7] <= 219.0\ngini = 0.486\nsamples = 12\nvalue = [5, 7]"] ;
621 -> 622 ;
623 [label="X[7] <= 33.0\ngini = 0.42\nsamples = 10\nvalue = [3, 7]"] ;
622 -> 623 ;
624 [label="X[1] <= 0.952\ngini = 0.375\nsamples = 4\nvalue = [3, 1]"] ;
623 -> 624 ;
625 [label="gini = 0.0\nsamples = 1\nvalue = [0, 1]"] ;
624 -> 625 ;
626 [label="gini = 0.0\nsamples = 3\nvalue = [3, 0]"] ;
624 -> 626 ;
627 [label="gini = 0.0\nsamples = 6\nvalue = [0, 6]"] ;
623 -> 627 ;
628 [label="gini = 0.0\nsamples = 2\nvalue = [2, 0]"] ;
622 -> 628 ;
629 [label="gini = 0.0\nsamples = 2\nvalue = [2, 0]"] ;
621 -> 629 ;
630 [label="X[1] <= 0.948\ngini = 0.337\nsamples = 14\nvalue = [3, 11]"] ;
618 -> 630 ;
631 [label="gini = 0.0\nsamples = 1\nvalue = [1, 0]"] ;
630 -> 631 ;
632 [label="X[2] <= 462.0\ngini = 0.26\nsamples = 13\nvalue = [2, 11]"] ;
630 -> 632 ;
633 [label="gini = 0.0\nsamples = 7\nvalue = [0, 7]"] ;
632 -> 633 ;
634 [label="X[2] <= 485.0\ngini = 0.444\nsamples = 6\nvalue = [2, 4]"] ;
632 -> 634 ;
635 [label="gini = 0.0\nsamples = 2\nvalue = [2, 0]"] ;
634 -> 635 ;
636 [label="gini = 0.0\nsamples = 4\nvalue = [0, 4]"] ;
634 -> 636 ;
637 [label="X[4] <= 64.5\ngini = 0.439\nsamples = 227\nvalue = [153, 74]"] ;
1 -> 637 ;
638 [label="X[0] <= 62.0\ngini = 0.183\nsamples = 108\nvalue = [97, 11]"] ;
637 -> 638 ;
639 [label="X[4] <= 60.5\ngini = 0.089\nsamples = 86\nvalue = [82, 4]"] ;
638 -> 639 ;
640 [label="X[0] <= 59.5\ngini = 0.238\nsamples = 29\nvalue = [25, 4]"] ;
639 -> 640 ;
641 [label="gini = 0.0\nsamples = 24\nvalue = [24, 0]"] ;
640 -> 641 ;
642 [label="X[5] <= 0.848\ngini = 0.32\nsamples = 5\nvalue = [1, 4]"] ;
640 -> 642 ;
643 [label="X[2] <= 435.0\ngini = 0.5\nsamples = 2\nvalue = [1, 1]"] ;
642 -> 643 ;
644 [label="gini = 0.0\nsamples = 1\nvalue = [1, 0]"] ;
643 -> 644 ;
645 [label="gini = 0.0\nsamples = 1\nvalue = [0, 1]"] ;
643 -> 645 ;
646 [label="gini = 0.0\nsamples = 3\nvalue = [0, 3]"] ;
642 -> 646 ;
647 [label="gini = 0.0\nsamples = 57\nvalue = [57, 0]"] ;
639 -> 647 ;
648 [label="X[3] <= 93.0\ngini = 0.434\nsamples = 22\nvalue = [15, 7]"] ;
638 -> 648 ;
649 [label="gini = 0.0\nsamples = 8\nvalue = [8, 0]"] ;
648 -> 649 ;
650 [label="X[2] <= 374.0\ngini = 0.5\nsamples = 14\nvalue = [7, 7]"] ;
648 -> 650 ;
651 [label="X[5] <= 0.751\ngini = 0.375\nsamples = 8\nvalue = [2, 6]"] ;
650 -> 651 ;
652 [label="X[3] <= 162.0\ngini = 0.444\nsamples = 3\nvalue = [2, 1]"] ;
651 -> 652 ;
653 [label="gini = 0.0\nsamples = 1\nvalue = [0, 1]"] ;
652 -> 653 ;
654 [label="gini = 0.0\nsamples = 2\nvalue = [2, 0]"] ;
652 -> 654 ;
655 [label="gini = 0.0\nsamples = 5\nvalue = [0, 5]"] ;
651 -> 655 ;
656 [label="X[4] <= 60.5\ngini = 0.278\nsamples = 6\nvalue = [5, 1]"] ;
650 -> 656 ;
657 [label="gini = 0.0\nsamples = 1\nvalue = [0, 1]"] ;
656 -> 657 ;
658 [label="gini = 0.0\nsamples = 5\nvalue = [5, 0]"] ;
656 -> 658 ;
659 [label="X[0] <= 66.5\ngini = 0.498\nsamples = 119\nvalue = [56, 63]"] ;
637 -> 659 ;
660 [label="X[1] <= 0.622\ngini = 0.208\nsamples = 17\nvalue = [2, 15]"] ;
659 -> 660 ;
661 [label="gini = 0.0\nsamples = 2\nvalue = [2, 0]"] ;
660 -> 661 ;
662 [label="gini = 0.0\nsamples = 15\nvalue = [0, 15]"] ;
660 -> 662 ;
663 [label="X[0] <= 68.5\ngini = 0.498\nsamples = 102\nvalue = [54, 48]"] ;
659 -> 663 ;
664 [label="X[1] <= 0.998\ngini = 0.111\nsamples = 17\nvalue = [16, 1]"] ;
663 -> 664 ;
665 [label="gini = 0.0\nsamples = 16\nvalue = [16, 0]"] ;
664 -> 665 ;
666 [label="gini = 0.0\nsamples = 1\nvalue = [0, 1]"] ;
664 -> 666 ;
667 [label="X[2] <= 11.0\ngini = 0.494\nsamples = 85\nvalue = [38, 47]"] ;
663 -> 667 ;
668 [label="X[6] <= 7.5\ngini = 0.198\nsamples = 9\nvalue = [1, 8]"] ;
667 -> 668 ;
669 [label="X[1] <= 0.541\ngini = 0.444\nsamples = 3\nvalue = [1, 2]"] ;
668 -> 669 ;
670 [label="gini = 0.0\nsamples = 1\nvalue = [1, 0]"] ;
669 -> 670 ;
671 [label="gini = 0.0\nsamples = 2\nvalue = [0, 2]"] ;
669 -> 671 ;
672 [label="gini = 0.0\nsamples = 6\nvalue = [0, 6]"] ;
668 -> 672 ;
673 [label="X[1] <= 0.523\ngini = 0.5\nsamples = 76\nvalue = [37, 39]"] ;
667 -> 673 ;
674 [label="gini = 0.0\nsamples = 5\nvalue = [0, 5]"] ;
673 -> 674 ;
675 [label="X[5] <= 0.933\ngini = 0.499\nsamples = 71\nvalue = [37, 34]"] ;
673 -> 675 ;
676 [label="X[2] <= 45.0\ngini = 0.47\nsamples = 37\nvalue = [23, 14]"] ;
675 -> 676 ;
677 [label="X[1] <= 0.601\ngini = 0.495\nsamples = 20\nvalue = [9, 11]"] ;
676 -> 677 ;
678 [label="X[6] <= 14.0\ngini = 0.346\nsamples = 9\nvalue = [2, 7]"] ;
677 -> 678 ;
679 [label="X[7] <= 50.5\ngini = 0.444\nsamples = 3\nvalue = [2, 1]"] ;
678 -> 679 ;
680 [label="gini = 0.0\nsamples = 1\nvalue = [0, 1]"] ;
679 -> 680 ;
681 [label="gini = 0.0\nsamples = 2\nvalue = [2, 0]"] ;
679 -> 681 ;
682 [label="gini = 0.0\nsamples = 6\nvalue = [0, 6]"] ;
678 -> 682 ;
683 [label="X[6] <= 46.5\ngini = 0.463\nsamples = 11\nvalue = [7, 4]"] ;
677 -> 683 ;
684 [label="X[1] <= 0.714\ngini = 0.346\nsamples = 9\nvalue = [7, 2]"] ;
683 -> 684 ;
685 [label="gini = 0.0\nsamples = 6\nvalue = [6, 0]"] ;
684 -> 685 ;
686 [label="X[3] <= 62.0\ngini = 0.444\nsamples = 3\nvalue = [1, 2]"] ;
684 -> 686 ;
687 [label="gini = 0.0\nsamples = 2\nvalue = [0, 2]"] ;
686 -> 687 ;
688 [label="gini = 0.0\nsamples = 1\nvalue = [1, 0]"] ;
686 -> 688 ;
689 [label="gini = 0.0\nsamples = 2\nvalue = [0, 2]"] ;
683 -> 689 ;
690 [label="X[4] <= 69.5\ngini = 0.291\nsamples = 17\nvalue = [14, 3]"] ;
676 -> 690 ;
691 [label="gini = 0.0\nsamples = 1\nvalue = [0, 1]"] ;
690 -> 691 ;
692 [label="X[5] <= 0.831\ngini = 0.219\nsamples = 16\nvalue = [14, 2]"] ;
690 -> 692 ;
693 [label="X[5] <= 0.8\ngini = 0.5\nsamples = 4\nvalue = [2, 2]"] ;
692 -> 693 ;
694 [label="gini = 0.0\nsamples = 2\nvalue = [2, 0]"] ;
693 -> 694 ;
695 [label="gini = 0.0\nsamples = 2\nvalue = [0, 2]"] ;
693 -> 695 ;
696 [label="gini = 0.0\nsamples = 12\nvalue = [12, 0]"] ;
692 -> 696 ;
697 [label="X[1] <= 0.582\ngini = 0.484\nsamples = 34\nvalue = [14, 20]"] ;
675 -> 697 ;
698 [label="X[3] <= 46.0\ngini = 0.32\nsamples = 5\nvalue = [4, 1]"] ;
697 -> 698 ;
699 [label="gini = 0.0\nsamples = 1\nvalue = [0, 1]"] ;
698 -> 699 ;
700 [label="gini = 0.0\nsamples = 4\nvalue = [4, 0]"] ;
698 -> 700 ;
701 [label="X[7] <= 48.0\ngini = 0.452\nsamples = 29\nvalue = [10, 19]"] ;
697 -> 701 ;
702 [label="X[1] <= 0.672\ngini = 0.32\nsamples = 5\nvalue = [4, 1]"] ;
701 -> 702 ;
703 [label="gini = 0.0\nsamples = 1\nvalue = [0, 1]"] ;
702 -> 703 ;
704 [label="gini = 0.0\nsamples = 4\nvalue = [4, 0]"] ;
702 -> 704 ;
705 [label="X[3] <= 275.0\ngini = 0.375\nsamples = 24\nvalue = [6, 18]"] ;
701 -> 705 ;
706 [label="X[4] <= 76.5\ngini = 0.298\nsamples = 22\nvalue = [4, 18]"] ;
705 -> 706 ;
707 [label="X[3] <= 172.0\ngini = 0.188\nsamples = 19\nvalue = [2, 17]"] ;
706 -> 707 ;
708 [label="X[3] <= 143.0\ngini = 0.32\nsamples = 10\nvalue = [2, 8]"] ;
707 -> 708 ;
709 [label="gini = 0.0\nsamples = 8\nvalue = [0, 8]"] ;
708 -> 709 ;
710 [label="gini = 0.0\nsamples = 2\nvalue = [2, 0]"] ;
708 -> 710 ;
711 [label="gini = 0.0\nsamples = 9\nvalue = [0, 9]"] ;
707 -> 711 ;
712 [label="X[0] <= 79.0\ngini = 0.444\nsamples = 3\nvalue = [2, 1]"] ;
706 -> 712 ;
713 [label="gini = 0.0\nsamples = 2\nvalue = [2, 0]"] ;
712 -> 713 ;
714 [label="gini = 0.0\nsamples = 1\nvalue = [0, 1]"] ;
712 -> 714 ;
715 [label="gini = 0.0\nsamples = 2\nvalue = [2, 0]"] ;
705 -> 715 ;
716 [label="X[5] <= 0.999\ngini = 0.435\nsamples = 2495\nvalue = [798, 1697]"] ;
0 -> 716 [labeldistance=2.5, labelangle=-45, headlabel="False"] ;
717 [label="X[1] <= 0.87\ngini = 0.459\nsamples = 1606\nvalue = [574, 1032]"] ;
716 -> 717 ;
718 [label="X[1] <= 0.838\ngini = 0.395\nsamples = 468\nvalue = [127, 341]"] ;
717 -> 718 ;
719 [label="X[4] <= 58.0\ngini = 0.423\nsamples = 389\nvalue = [118, 271]"] ;
718 -> 719 ;
720 [label="X[6] <= 24.5\ngini = 0.396\nsamples = 346\nvalue = [94, 252]"] ;
719 -> 720 ;
721 [label="X[1] <= 0.768\ngini = 0.494\nsamples = 85\nvalue = [38, 47]"] ;
720 -> 721 ;
722 [label="X[5] <= 0.991\ngini = 0.444\nsamples = 51\nvalue = [17, 34]"] ;
721 -> 722 ;
723 [label="X[1] <= 0.627\ngini = 0.342\nsamples = 32\nvalue = [7, 25]"] ;
722 -> 723 ;
724 [label="X[5] <= 0.986\ngini = 0.494\nsamples = 9\nvalue = [4, 5]"] ;
723 -> 724 ;
725 [label="gini = 0.0\nsamples = 4\nvalue = [4, 0]"] ;
724 -> 725 ;
726 [label="gini = 0.0\nsamples = 5\nvalue = [0, 5]"] ;
724 -> 726 ;
727 [label="X[6] <= 12.0\ngini = 0.227\nsamples = 23\nvalue = [3, 20]"] ;
723 -> 727 ;
728 [label="X[6] <= 9.5\ngini = 0.5\nsamples = 4\nvalue = [2, 2]"] ;
727 -> 728 ;
729 [label="gini = 0.0\nsamples = 2\nvalue = [0, 2]"] ;
728 -> 729 ;
730 [label="gini = 0.0\nsamples = 2\nvalue = [2, 0]"] ;
728 -> 730 ;
731 [label="X[6] <= 22.5\ngini = 0.1\nsamples = 19\nvalue = [1, 18]"] ;
727 -> 731 ;
732 [label="gini = 0.0\nsamples = 17\nvalue = [0, 17]"] ;
731 -> 732 ;
733 [label="X[6] <= 23.5\ngini = 0.5\nsamples = 2\nvalue = [1, 1]"] ;
731 -> 733 ;
734 [label="gini = 0.0\nsamples = 1\nvalue = [1, 0]"] ;
733 -> 734 ;
735 [label="gini = 0.0\nsamples = 1\nvalue = [0, 1]"] ;
733 -> 735 ;
736 [label="X[5] <= 0.992\ngini = 0.499\nsamples = 19\nvalue = [10, 9]"] ;
722 -> 736 ;
737 [label="gini = 0.0\nsamples = 5\nvalue = [5, 0]"] ;
736 -> 737 ;
738 [label="X[1] <= 0.656\ngini = 0.459\nsamples = 14\nvalue = [5, 9]"] ;
736 -> 738 ;
739 [label="X[1] <= 0.611\ngini = 0.49\nsamples = 7\nvalue = [4, 3]"] ;
738 -> 739 ;
740 [label="X[2] <= 21.0\ngini = 0.375\nsamples = 4\nvalue = [1, 3]"] ;
739 -> 740 ;
741 [label="gini = 0.0\nsamples = 3\nvalue = [0, 3]"] ;
740 -> 741 ;
742 [label="gini = 0.0\nsamples = 1\nvalue = [1, 0]"] ;
740 -> 742 ;
743 [label="gini = 0.0\nsamples = 3\nvalue = [3, 0]"] ;
739 -> 743 ;
744 [label="X[5] <= 0.993\ngini = 0.245\nsamples = 7\nvalue = [1, 6]"] ;
738 -> 744 ;
745 [label="X[1] <= 0.752\ngini = 0.5\nsamples = 2\nvalue = [1, 1]"] ;
744 -> 745 ;
746 [label="gini = 0.0\nsamples = 1\nvalue = [1, 0]"] ;
745 -> 746 ;
747 [label="gini = 0.0\nsamples = 1\nvalue = [0, 1]"] ;
745 -> 747 ;
748 [label="gini = 0.0\nsamples = 5\nvalue = [0, 5]"] ;
744 -> 748 ;
749 [label="X[6] <= 17.5\ngini = 0.472\nsamples = 34\nvalue = [21, 13]"] ;
721 -> 749 ;
750 [label="X[3] <= 33.0\ngini = 0.459\nsamples = 14\nvalue = [5, 9]"] ;
749 -> 750 ;
751 [label="X[6] <= 9.0\ngini = 0.219\nsamples = 8\nvalue = [1, 7]"] ;
750 -> 751 ;
752 [label="gini = 0.0\nsamples = 1\nvalue = [1, 0]"] ;
751 -> 752 ;
753 [label="gini = 0.0\nsamples = 7\nvalue = [0, 7]"] ;
751 -> 753 ;
754 [label="X[6] <= 15.5\ngini = 0.444\nsamples = 6\nvalue = [4, 2]"] ;
750 -> 754 ;
755 [label="gini = 0.0\nsamples = 4\nvalue = [4, 0]"] ;
754 -> 755 ;
756 [label="gini = 0.0\nsamples = 2\nvalue = [0, 2]"] ;
754 -> 756 ;
757 [label="X[3] <= 60.0\ngini = 0.32\nsamples = 20\nvalue = [16, 4]"] ;
749 -> 757 ;
758 [label="X[2] <= 21.0\ngini = 0.117\nsamples = 16\nvalue = [15, 1]"] ;
757 -> 758 ;
759 [label="gini = 0.0\nsamples = 13\nvalue = [13, 0]"] ;
758 -> 759 ;
760 [label="X[5] <= 0.987\ngini = 0.444\nsamples = 3\nvalue = [2, 1]"] ;
758 -> 760 ;
761 [label="gini = 0.0\nsamples = 1\nvalue = [0, 1]"] ;
760 -> 761 ;
762 [label="gini = 0.0\nsamples = 2\nvalue = [2, 0]"] ;
760 -> 762 ;
763 [label="X[6] <= 22.5\ngini = 0.375\nsamples = 4\nvalue = [1, 3]"] ;
757 -> 763 ;
764 [label="gini = 0.0\nsamples = 3\nvalue = [0, 3]"] ;
763 -> 764 ;
765 [label="gini = 0.0\nsamples = 1\nvalue = [1, 0]"] ;
763 -> 765 ;
766 [label="X[1] <= 0.503\ngini = 0.337\nsamples = 261\nvalue = [56, 205]"] ;
720 -> 766 ;
767 [label="gini = 0.0\nsamples = 3\nvalue = [3, 0]"] ;
766 -> 767 ;
768 [label="X[1] <= 0.595\ngini = 0.326\nsamples = 258\nvalue = [53, 205]"] ;
766 -> 768 ;
769 [label="X[2] <= 250.0\ngini = 0.124\nsamples = 45\nvalue = [3, 42]"] ;
768 -> 769 ;
770 [label="X[5] <= 0.984\ngini = 0.089\nsamples = 43\nvalue = [2, 41]"] ;
769 -> 770 ;
771 [label="X[4] <= 28.5\ngini = 0.5\nsamples = 2\nvalue = [1, 1]"] ;
770 -> 771 ;
772 [label="gini = 0.0\nsamples = 1\nvalue = [1, 0]"] ;
771 -> 772 ;
773 [label="gini = 0.0\nsamples = 1\nvalue = [0, 1]"] ;
771 -> 773 ;
774 [label="X[1] <= 0.514\ngini = 0.048\nsamples = 41\nvalue = [1, 40]"] ;
770 -> 774 ;
775 [label="X[1] <= 0.512\ngini = 0.245\nsamples = 7\nvalue = [1, 6]"] ;
774 -> 775 ;
776 [label="gini = 0.0\nsamples = 6\nvalue = [0, 6]"] ;
775 -> 776 ;
777 [label="gini = 0.0\nsamples = 1\nvalue = [1, 0]"] ;
775 -> 777 ;
778 [label="gini = 0.0\nsamples = 34\nvalue = [0, 34]"] ;
774 -> 778 ;
779 [label="X[3] <= 123.0\ngini = 0.5\nsamples = 2\nvalue = [1, 1]"] ;
769 -> 779 ;
780 [label="gini = 0.0\nsamples = 1\nvalue = [1, 0]"] ;
779 -> 780 ;
781 [label="gini = 0.0\nsamples = 1\nvalue = [0, 1]"] ;
779 -> 781 ;
782 [label="X[6] <= 193.5\ngini = 0.359\nsamples = 213\nvalue = [50, 163]"] ;
768 -> 782 ;
783 [label="X[5] <= 0.998\ngini = 0.384\nsamples = 193\nvalue = [50, 143]"] ;
782 -> 783 ;
784 [label="X[1] <= 0.598\ngini = 0.376\nsamples = 191\nvalue = [48, 143]"] ;
783 -> 784 ;
785 [label="gini = 0.0\nsamples = 2\nvalue = [2, 0]"] ;
784 -> 785 ;
786 [label="X[1] <= 0.831\ngini = 0.368\nsamples = 189\nvalue = [46, 143]"] ;
784 -> 786 ;
787 [label="X[3] <= 29.0\ngini = 0.348\nsamples = 178\nvalue = [40, 138]"] ;
786 -> 787 ;
788 [label="X[6] <= 27.5\ngini = 0.5\nsamples = 8\nvalue = [4, 4]"] ;
787 -> 788 ;
789 [label="gini = 0.0\nsamples = 2\nvalue = [0, 2]"] ;
788 -> 789 ;
790 [label="X[7] <= 19.5\ngini = 0.444\nsamples = 6\nvalue = [4, 2]"] ;
788 -> 790 ;
791 [label="gini = 0.0\nsamples = 1\nvalue = [0, 1]"] ;
790 -> 791 ;
792 [label="X[1] <= 0.78\ngini = 0.32\nsamples = 5\nvalue = [4, 1]"] ;
790 -> 792 ;
793 [label="gini = 0.0\nsamples = 3\nvalue = [3, 0]"] ;
792 -> 793 ;
794 [label="X[1] <= 0.798\ngini = 0.5\nsamples = 2\nvalue = [1, 1]"] ;
792 -> 794 ;
795 [label="gini = 0.0\nsamples = 1\nvalue = [0, 1]"] ;
794 -> 795 ;
796 [label="gini = 0.0\nsamples = 1\nvalue = [1, 0]"] ;
794 -> 796 ;
797 [label="X[2] <= 192.0\ngini = 0.334\nsamples = 170\nvalue = [36, 134]"] ;
787 -> 797 ;
798 [label="X[4] <= 13.0\ngini = 0.328\nsamples = 169\nvalue = [35, 134]"] ;
797 -> 798 ;
799 [label="X[4] <= 9.5\ngini = 0.373\nsamples = 109\nvalue = [27, 82]"] ;
798 -> 799 ;
800 [label="X[6] <= 42.5\ngini = 0.35\nsamples = 106\nvalue = [24, 82]"] ;
799 -> 800 ;
801 [label="X[5] <= 0.995\ngini = 0.252\nsamples = 54\nvalue = [8, 46]"] ;
800 -> 801 ;
802 [label="X[5] <= 0.987\ngini = 0.162\nsamples = 45\nvalue = [4, 41]"] ;
801 -> 802 ;
803 [label="X[1] <= 0.765\ngini = 0.375\nsamples = 16\nvalue = [4, 12]"] ;
802 -> 803 ;
804 [label="X[2] <= 36.0\ngini = 0.5\nsamples = 8\nvalue = [4, 4]"] ;
803 -> 804 ;
805 [label="X[6] <= 37.5\ngini = 0.444\nsamples = 6\nvalue = [2, 4]"] ;
804 -> 805 ;
806 [label="X[1] <= 0.76\ngini = 0.32\nsamples = 5\nvalue = [1, 4]"] ;
805 -> 806 ;
807 [label="gini = 0.0\nsamples = 4\nvalue = [0, 4]"] ;
806 -> 807 ;
808 [label="gini = 0.0\nsamples = 1\nvalue = [1, 0]"] ;
806 -> 808 ;
809 [label="gini = 0.0\nsamples = 1\nvalue = [1, 0]"] ;
805 -> 809 ;
810 [label="gini = 0.0\nsamples = 2\nvalue = [2, 0]"] ;
804 -> 810 ;
811 [label="gini = 0.0\nsamples = 8\nvalue = [0, 8]"] ;
803 -> 811 ;
812 [label="gini = 0.0\nsamples = 29\nvalue = [0, 29]"] ;
802 -> 812 ;
813 [label="X[7] <= 66.5\ngini = 0.494\nsamples = 9\nvalue = [4, 5]"] ;
801 -> 813 ;
814 [label="gini = 0.0\nsamples = 3\nvalue = [0, 3]"] ;
813 -> 814 ;
815 [label="X[6] <= 34.5\ngini = 0.444\nsamples = 6\nvalue = [4, 2]"] ;
813 -> 815 ;
816 [label="gini = 0.0\nsamples = 4\nvalue = [4, 0]"] ;
815 -> 816 ;
817 [label="gini = 0.0\nsamples = 2\nvalue = [0, 2]"] ;
815 -> 817 ;
818 [label="X[7] <= 44.5\ngini = 0.426\nsamples = 52\nvalue = [16, 36]"] ;
800 -> 818 ;
819 [label="X[4] <= 6.0\ngini = 0.32\nsamples = 5\nvalue = [4, 1]"] ;
818 -> 819 ;
820 [label="gini = 0.0\nsamples = 4\nvalue = [4, 0]"] ;
819 -> 820 ;
821 [label="gini = 0.0\nsamples = 1\nvalue = [0, 1]"] ;
819 -> 821 ;
822 [label="X[5] <= 0.994\ngini = 0.38\nsamples = 47\nvalue = [12, 35]"] ;
818 -> 822 ;
823 [label="X[5] <= 0.994\ngini = 0.457\nsamples = 34\nvalue = [12, 22]"] ;
822 -> 823 ;
824 [label="X[1] <= 0.642\ngini = 0.412\nsamples = 31\nvalue = [9, 22]"] ;
823 -> 824 ;
825 [label="gini = 0.0\nsamples = 2\nvalue = [2, 0]"] ;
824 -> 825 ;
826 [label="X[6] <= 63.5\ngini = 0.366\nsamples = 29\nvalue = [7, 22]"] ;
824 -> 826 ;
827 [label="X[3] <= 145.0\ngini = 0.465\nsamples = 19\nvalue = [7, 12]"] ;
826 -> 827 ;
828 [label="X[2] <= 59.0\ngini = 0.375\nsamples = 16\nvalue = [4, 12]"] ;
827 -> 828 ;
829 [label="X[1] <= 0.74\ngini = 0.32\nsamples = 15\nvalue = [3, 12]"] ;
828 -> 829 ;
830 [label="gini = 0.0\nsamples = 7\nvalue = [0, 7]"] ;
829 -> 830 ;
831 [label="X[7] <= 85.0\ngini = 0.469\nsamples = 8\nvalue = [3, 5]"] ;
829 -> 831 ;
832 [label="X[3] <= 57.0\ngini = 0.48\nsamples = 5\nvalue = [3, 2]"] ;
831 -> 832 ;
833 [label="gini = 0.0\nsamples = 2\nvalue = [0, 2]"] ;
832 -> 833 ;
834 [label="gini = 0.0\nsamples = 3\nvalue = [3, 0]"] ;
832 -> 834 ;
835 [label="gini = 0.0\nsamples = 3\nvalue = [0, 3]"] ;
831 -> 835 ;
836 [label="gini = 0.0\nsamples = 1\nvalue = [1, 0]"] ;
828 -> 836 ;
837 [label="gini = 0.0\nsamples = 3\nvalue = [3, 0]"] ;
827 -> 837 ;
838 [label="gini = 0.0\nsamples = 10\nvalue = [0, 10]"] ;
826 -> 838 ;
839 [label="gini = 0.0\nsamples = 3\nvalue = [3, 0]"] ;
823 -> 839 ;
840 [label="gini = 0.0\nsamples = 13\nvalue = [0, 13]"] ;
822 -> 840 ;
841 [label="gini = 0.0\nsamples = 3\nvalue = [3, 0]"] ;
799 -> 841 ;
842 [label="X[6] <= 33.5\ngini = 0.231\nsamples = 60\nvalue = [8, 52]"] ;
798 -> 842 ;
843 [label="gini = 0.0\nsamples = 1\nvalue = [1, 0]"] ;
842 -> 843 ;
844 [label="X[7] <= 292.0\ngini = 0.209\nsamples = 59\nvalue = [7, 52]"] ;
842 -> 844 ;
845 [label="X[2] <= 33.0\ngini = 0.185\nsamples = 58\nvalue = [6, 52]"] ;
844 -> 845 ;
846 [label="X[5] <= 0.988\ngini = 0.5\nsamples = 2\nvalue = [1, 1]"] ;
845 -> 846 ;
847 [label="gini = 0.0\nsamples = 1\nvalue = [1, 0]"] ;
846 -> 847 ;
848 [label="gini = 0.0\nsamples = 1\nvalue = [0, 1]"] ;
846 -> 848 ;
849 [label="X[5] <= 0.996\ngini = 0.163\nsamples = 56\nvalue = [5, 51]"] ;
845 -> 849 ;
850 [label="X[5] <= 0.995\ngini = 0.229\nsamples = 38\nvalue = [5, 33]"] ;
849 -> 850 ;
851 [label="X[5] <= 0.989\ngini = 0.193\nsamples = 37\nvalue = [4, 33]"] ;
850 -> 851 ;
852 [label="gini = 0.0\nsamples = 17\nvalue = [0, 17]"] ;
851 -> 852 ;
853 [label="X[5] <= 0.991\ngini = 0.32\nsamples = 20\nvalue = [4, 16]"] ;
851 -> 853 ;
854 [label="X[2] <= 49.0\ngini = 0.444\nsamples = 3\nvalue = [2, 1]"] ;
853 -> 854 ;
855 [label="gini = 0.0\nsamples = 1\nvalue = [0, 1]"] ;
854 -> 855 ;
856 [label="gini = 0.0\nsamples = 2\nvalue = [2, 0]"] ;
854 -> 856 ;
857 [label="X[6] <= 42.5\ngini = 0.208\nsamples = 17\nvalue = [2, 15]"] ;
853 -> 857 ;
858 [label="X[0] <= 39.5\ngini = 0.5\nsamples = 2\nvalue = [1, 1]"] ;
857 -> 858 ;
859 [label="gini = 0.0\nsamples = 1\nvalue = [1, 0]"] ;
858 -> 859 ;
860 [label="gini = 0.0\nsamples = 1\nvalue = [0, 1]"] ;
858 -> 860 ;
861 [label="X[0] <= 44.5\ngini = 0.124\nsamples = 15\nvalue = [1, 14]"] ;
857 -> 861 ;
862 [label="gini = 0.0\nsamples = 10\nvalue = [0, 10]"] ;
861 -> 862 ;
863 [label="X[5] <= 0.994\ngini = 0.32\nsamples = 5\nvalue = [1, 4]"] ;
861 -> 863 ;
864 [label="X[3] <= 113.0\ngini = 0.5\nsamples = 2\nvalue = [1, 1]"] ;
863 -> 864 ;
865 [label="gini = 0.0\nsamples = 1\nvalue = [0, 1]"] ;
864 -> 865 ;
866 [label="gini = 0.0\nsamples = 1\nvalue = [1, 0]"] ;
864 -> 866 ;
867 [label="gini = 0.0\nsamples = 3\nvalue = [0, 3]"] ;
863 -> 867 ;
868 [label="gini = 0.0\nsamples = 1\nvalue = [1, 0]"] ;
850 -> 868 ;
869 [label="gini = 0.0\nsamples = 18\nvalue = [0, 18]"] ;
849 -> 869 ;
870 [label="gini = 0.0\nsamples = 1\nvalue = [1, 0]"] ;
844 -> 870 ;
871 [label="gini = 0.0\nsamples = 1\nvalue = [1, 0]"] ;
797 -> 871 ;
872 [label="X[4] <= 14.0\ngini = 0.496\nsamples = 11\nvalue = [6, 5]"] ;
786 -> 872 ;
873 [label="X[1] <= 0.831\ngini = 0.469\nsamples = 8\nvalue = [3, 5]"] ;
872 -> 873 ;
874 [label="gini = 0.0\nsamples = 2\nvalue = [2, 0]"] ;
873 -> 874 ;
875 [label="X[7] <= 56.5\ngini = 0.278\nsamples = 6\nvalue = [1, 5]"] ;
873 -> 875 ;
876 [label="X[1] <= 0.832\ngini = 0.5\nsamples = 2\nvalue = [1, 1]"] ;
875 -> 876 ;
877 [label="gini = 0.0\nsamples = 1\nvalue = [0, 1]"] ;
876 -> 877 ;
878 [label="gini = 0.0\nsamples = 1\nvalue = [1, 0]"] ;
876 -> 878 ;
879 [label="gini = 0.0\nsamples = 4\nvalue = [0, 4]"] ;
875 -> 879 ;
880 [label="gini = 0.0\nsamples = 3\nvalue = [3, 0]"] ;
872 -> 880 ;
881 [label="gini = 0.0\nsamples = 2\nvalue = [2, 0]"] ;
783 -> 881 ;
882 [label="gini = 0.0\nsamples = 20\nvalue = [0, 20]"] ;
782 -> 882 ;
883 [label="X[0] <= 62.0\ngini = 0.493\nsamples = 43\nvalue = [24, 19]"] ;
719 -> 883 ;
884 [label="gini = 0.0\nsamples = 12\nvalue = [12, 0]"] ;
883 -> 884 ;
885 [label="X[6] <= 19.5\ngini = 0.475\nsamples = 31\nvalue = [12, 19]"] ;
883 -> 885 ;
886 [label="gini = 0.0\nsamples = 3\nvalue = [3, 0]"] ;
885 -> 886 ;
887 [label="X[6] <= 117.0\ngini = 0.436\nsamples = 28\nvalue = [9, 19]"] ;
885 -> 887 ;
888 [label="X[3] <= 58.0\ngini = 0.208\nsamples = 17\nvalue = [2, 15]"] ;
887 -> 888 ;
889 [label="X[2] <= 62.0\ngini = 0.408\nsamples = 7\nvalue = [2, 5]"] ;
888 -> 889 ;
890 [label="X[0] <= 67.0\ngini = 0.444\nsamples = 3\nvalue = [2, 1]"] ;
889 -> 890 ;
891 [label="gini = 0.0\nsamples = 1\nvalue = [0, 1]"] ;
890 -> 891 ;
892 [label="gini = 0.0\nsamples = 2\nvalue = [2, 0]"] ;
890 -> 892 ;
893 [label="gini = 0.0\nsamples = 4\nvalue = [0, 4]"] ;
889 -> 893 ;
894 [label="gini = 0.0\nsamples = 10\nvalue = [0, 10]"] ;
888 -> 894 ;
895 [label="X[7] <= 100.5\ngini = 0.463\nsamples = 11\nvalue = [7, 4]"] ;
887 -> 895 ;
896 [label="gini = 0.0\nsamples = 3\nvalue = [0, 3]"] ;
895 -> 896 ;
897 [label="X[3] <= 462.0\ngini = 0.219\nsamples = 8\nvalue = [7, 1]"] ;
895 -> 897 ;
898 [label="gini = 0.0\nsamples = 7\nvalue = [7, 0]"] ;
897 -> 898 ;
899 [label="gini = 0.0\nsamples = 1\nvalue = [0, 1]"] ;
897 -> 899 ;
900 [label="X[3] <= 77.0\ngini = 0.202\nsamples = 79\nvalue = [9, 70]"] ;
718 -> 900 ;
901 [label="X[5] <= 0.983\ngini = 0.078\nsamples = 49\nvalue = [2, 47]"] ;
900 -> 901 ;
902 [label="X[5] <= 0.983\ngini = 0.444\nsamples = 3\nvalue = [1, 2]"] ;
901 -> 902 ;
903 [label="gini = 0.0\nsamples = 2\nvalue = [0, 2]"] ;
902 -> 903 ;
904 [label="gini = 0.0\nsamples = 1\nvalue = [1, 0]"] ;
902 -> 904 ;
905 [label="X[5] <= 0.989\ngini = 0.043\nsamples = 46\nvalue = [1, 45]"] ;
901 -> 905 ;
906 [label="X[5] <= 0.988\ngini = 0.18\nsamples = 10\nvalue = [1, 9]"] ;
905 -> 906 ;
907 [label="gini = 0.0\nsamples = 9\nvalue = [0, 9]"] ;
906 -> 907 ;
908 [label="gini = 0.0\nsamples = 1\nvalue = [1, 0]"] ;
906 -> 908 ;
909 [label="gini = 0.0\nsamples = 36\nvalue = [0, 36]"] ;
905 -> 909 ;
910 [label="X[3] <= 85.0\ngini = 0.358\nsamples = 30\nvalue = [7, 23]"] ;
900 -> 910 ;
911 [label="gini = 0.0\nsamples = 3\nvalue = [3, 0]"] ;
910 -> 911 ;
912 [label="X[0] <= 77.0\ngini = 0.252\nsamples = 27\nvalue = [4, 23]"] ;
910 -> 912 ;
913 [label="X[6] <= 34.0\ngini = 0.204\nsamples = 26\nvalue = [3, 23]"] ;
912 -> 913 ;
914 [label="gini = 0.0\nsamples = 1\nvalue = [1, 0]"] ;
913 -> 914 ;
915 [label="X[5] <= 0.985\ngini = 0.147\nsamples = 25\nvalue = [2, 23]"] ;
913 -> 915 ;
916 [label="X[6] <= 219.5\ngini = 0.5\nsamples = 2\nvalue = [1, 1]"] ;
915 -> 916 ;
917 [label="gini = 0.0\nsamples = 1\nvalue = [0, 1]"] ;
916 -> 917 ;
918 [label="gini = 0.0\nsamples = 1\nvalue = [1, 0]"] ;
916 -> 918 ;
919 [label="X[0] <= 4.5\ngini = 0.083\nsamples = 23\nvalue = [1, 22]"] ;
915 -> 919 ;
920 [label="X[5] <= 0.994\ngini = 0.278\nsamples = 6\nvalue = [1, 5]"] ;
919 -> 920 ;
921 [label="gini = 0.0\nsamples = 4\nvalue = [0, 4]"] ;
920 -> 921 ;
922 [label="X[5] <= 0.995\ngini = 0.5\nsamples = 2\nvalue = [1, 1]"] ;
920 -> 922 ;
923 [label="gini = 0.0\nsamples = 1\nvalue = [1, 0]"] ;
922 -> 923 ;
924 [label="gini = 0.0\nsamples = 1\nvalue = [0, 1]"] ;
922 -> 924 ;
925 [label="gini = 0.0\nsamples = 17\nvalue = [0, 17]"] ;
919 -> 925 ;
926 [label="gini = 0.0\nsamples = 1\nvalue = [1, 0]"] ;
912 -> 926 ;
927 [label="X[1] <= 0.873\ngini = 0.477\nsamples = 1138\nvalue = [447, 691]"] ;
717 -> 927 ;
928 [label="X[2] <= 216.0\ngini = 0.245\nsamples = 7\nvalue = [6, 1]"] ;
927 -> 928 ;
929 [label="gini = 0.0\nsamples = 6\nvalue = [6, 0]"] ;
928 -> 929 ;
930 [label="gini = 0.0\nsamples = 1\nvalue = [0, 1]"] ;
928 -> 930 ;
931 [label="X[7] <= 320.5\ngini = 0.476\nsamples = 1131\nvalue = [441, 690]"] ;
927 -> 931 ;
932 [label="X[7] <= 15.5\ngini = 0.469\nsamples = 1004\nvalue = [378, 626]"] ;
931 -> 932 ;
933 [label="X[4] <= 5.5\ngini = 0.245\nsamples = 7\nvalue = [6, 1]"] ;
932 -> 933 ;
934 [label="gini = 0.0\nsamples = 1\nvalue = [0, 1]"] ;
933 -> 934 ;
935 [label="gini = 0.0\nsamples = 6\nvalue = [6, 0]"] ;
933 -> 935 ;
936 [label="X[4] <= 68.5\ngini = 0.468\nsamples = 997\nvalue = [372, 625]"] ;
932 -> 936 ;
937 [label="X[0] <= 67.5\ngini = 0.472\nsamples = 951\nvalue = [363, 588]"] ;
936 -> 937 ;
938 [label="X[4] <= 61.5\ngini = 0.468\nsamples = 939\nvalue = [351, 588]"] ;
937 -> 938 ;
939 [label="X[0] <= 58.5\ngini = 0.473\nsamples = 904\nvalue = [346, 558]"] ;
938 -> 939 ;
940 [label="X[2] <= 414.0\ngini = 0.469\nsamples = 889\nvalue = [333, 556]"] ;
939 -> 940 ;
941 [label="X[6] <= 397.5\ngini = 0.472\nsamples = 860\nvalue = [328, 532]"] ;
940 -> 941 ;
942 [label="X[5] <= 0.993\ngini = 0.47\nsamples = 855\nvalue = [323, 532]"] ;
941 -> 942 ;
943 [label="X[5] <= 0.992\ngini = 0.49\nsamples = 312\nvalue = [134, 178]"] ;
942 -> 943 ;
944 [label="X[5] <= 0.992\ngini = 0.483\nsamples = 282\nvalue = [115, 167]"] ;
943 -> 944 ;
945 [label="X[5] <= 0.991\ngini = 0.491\nsamples = 251\nvalue = [109, 142]"] ;
944 -> 945 ;
946 [label="X[4] <= 54.5\ngini = 0.483\nsamples = 228\nvalue = [93, 135]"] ;
945 -> 946 ;
947 [label="X[1] <= 0.886\ngini = 0.477\nsamples = 217\nvalue = [85, 132]"] ;
946 -> 947 ;
948 [label="X[0] <= 26.0\ngini = 0.346\nsamples = 9\nvalue = [7, 2]"] ;
947 -> 948 ;
949 [label="gini = 0.0\nsamples = 7\nvalue = [7, 0]"] ;
948 -> 949 ;
950 [label="gini = 0.0\nsamples = 2\nvalue = [0, 2]"] ;
948 -> 950 ;
951 [label="X[1] <= 0.891\ngini = 0.469\nsamples = 208\nvalue = [78, 130]"] ;
947 -> 951 ;
952 [label="gini = 0.0\nsamples = 8\nvalue = [0, 8]"] ;
951 -> 952 ;
953 [label="X[2] <= 215.0\ngini = 0.476\nsamples = 200\nvalue = [78, 122]"] ;
951 -> 953 ;
954 [label="X[7] <= 230.0\ngini = 0.465\nsamples = 185\nvalue = [68, 117]"] ;
953 -> 954 ;
955 [label="X[5] <= 0.991\ngini = 0.475\nsamples = 175\nvalue = [68, 107]"] ;
954 -> 955 ;
956 [label="X[7] <= 196.5\ngini = 0.487\nsamples = 155\nvalue = [65, 90]"] ;
955 -> 956 ;
957 [label="X[1] <= 0.899\ngini = 0.479\nsamples = 146\nvalue = [58, 88]"] ;
956 -> 957 ;
958 [label="X[7] <= 59.5\ngini = 0.32\nsamples = 5\nvalue = [4, 1]"] ;
957 -> 958 ;
959 [label="gini = 0.0\nsamples = 3\nvalue = [3, 0]"] ;
958 -> 959 ;
960 [label="X[2] <= 40.0\ngini = 0.5\nsamples = 2\nvalue = [1, 1]"] ;
958 -> 960 ;
961 [label="gini = 0.0\nsamples = 1\nvalue = [0, 1]"] ;
960 -> 961 ;
962 [label="gini = 0.0\nsamples = 1\nvalue = [1, 0]"] ;
960 -> 962 ;
963 [label="X[1] <= 0.973\ngini = 0.473\nsamples = 141\nvalue = [54, 87]"] ;
957 -> 963 ;
964 [label="X[1] <= 0.964\ngini = 0.439\nsamples = 86\nvalue = [28, 58]"] ;
963 -> 964 ;
965 [label="X[1] <= 0.963\ngini = 0.466\nsamples = 73\nvalue = [27, 46]"] ;
964 -> 965 ;
966 [label="X[3] <= 156.0\ngini = 0.456\nsamples = 71\nvalue = [25, 46]"] ;
965 -> 966 ;
967 [label="X[7] <= 80.5\ngini = 0.471\nsamples = 66\nvalue = [25, 41]"] ;
966 -> 967 ;
968 [label="X[5] <= 0.989\ngini = 0.43\nsamples = 48\nvalue = [15, 33]"] ;
967 -> 968 ;
969 [label="X[2] <= 77.0\ngini = 0.478\nsamples = 33\nvalue = [13, 20]"] ;
968 -> 969 ;
970 [label="X[7] <= 29.5\ngini = 0.497\nsamples = 28\nvalue = [13, 15]"] ;
969 -> 970 ;
971 [label="X[1] <= 0.959\ngini = 0.245\nsamples = 7\nvalue = [1, 6]"] ;
970 -> 971 ;
972 [label="gini = 0.0\nsamples = 6\nvalue = [0, 6]"] ;
971 -> 972 ;
973 [label="gini = 0.0\nsamples = 1\nvalue = [1, 0]"] ;
971 -> 973 ;
974 [label="X[3] <= 43.0\ngini = 0.49\nsamples = 21\nvalue = [12, 9]"] ;
970 -> 974 ;
975 [label="X[1] <= 0.946\ngini = 0.219\nsamples = 8\nvalue = [7, 1]"] ;
974 -> 975 ;
976 [label="gini = 0.0\nsamples = 7\nvalue = [7, 0]"] ;
975 -> 976 ;
977 [label="gini = 0.0\nsamples = 1\nvalue = [0, 1]"] ;
975 -> 977 ;
978 [label="X[5] <= 0.984\ngini = 0.473\nsamples = 13\nvalue = [5, 8]"] ;
974 -> 978 ;
979 [label="gini = 0.0\nsamples = 4\nvalue = [0, 4]"] ;
978 -> 979 ;
980 [label="X[2] <= 56.0\ngini = 0.494\nsamples = 9\nvalue = [5, 4]"] ;
978 -> 980 ;
981 [label="X[1] <= 0.957\ngini = 0.408\nsamples = 7\nvalue = [5, 2]"] ;
980 -> 981 ;
982 [label="gini = 0.0\nsamples = 4\nvalue = [4, 0]"] ;
981 -> 982 ;
983 [label="X[5] <= 0.989\ngini = 0.444\nsamples = 3\nvalue = [1, 2]"] ;
981 -> 983 ;
984 [label="gini = 0.0\nsamples = 2\nvalue = [0, 2]"] ;
983 -> 984 ;
985 [label="gini = 0.0\nsamples = 1\nvalue = [1, 0]"] ;
983 -> 985 ;
986 [label="gini = 0.0\nsamples = 2\nvalue = [0, 2]"] ;
980 -> 986 ;
987 [label="gini = 0.0\nsamples = 5\nvalue = [0, 5]"] ;
969 -> 987 ;
988 [label="X[0] <= 6.5\ngini = 0.231\nsamples = 15\nvalue = [2, 13]"] ;
968 -> 988 ;
989 [label="gini = 0.0\nsamples = 11\nvalue = [0, 11]"] ;
988 -> 989 ;
990 [label="X[5] <= 0.99\ngini = 0.5\nsamples = 4\nvalue = [2, 2]"] ;
988 -> 990 ;
991 [label="gini = 0.0\nsamples = 2\nvalue = [0, 2]"] ;
990 -> 991 ;
992 [label="gini = 0.0\nsamples = 2\nvalue = [2, 0]"] ;
990 -> 992 ;
993 [label="X[6] <= 39.5\ngini = 0.494\nsamples = 18\nvalue = [10, 8]"] ;
967 -> 993 ;
994 [label="gini = 0.0\nsamples = 3\nvalue = [0, 3]"] ;
993 -> 994 ;
995 [label="X[5] <= 0.986\ngini = 0.444\nsamples = 15\nvalue = [10, 5]"] ;
993 -> 995 ;
996 [label="X[2] <= 55.0\ngini = 0.444\nsamples = 6\nvalue = [2, 4]"] ;
995 -> 996 ;
997 [label="gini = 0.0\nsamples = 2\nvalue = [2, 0]"] ;
996 -> 997 ;
998 [label="gini = 0.0\nsamples = 4\nvalue = [0, 4]"] ;
996 -> 998 ;
999 [label="X[6] <= 107.0\ngini = 0.198\nsamples = 9\nvalue = [8, 1]"] ;
995 -> 999 ;
1000 [label="gini = 0.0\nsamples = 8\nvalue = [8, 0]"] ;
999 -> 1000 ;
1001 [label="gini = 0.0\nsamples = 1\nvalue = [0, 1]"] ;
999 -> 1001 ;
1002 [label="gini = 0.0\nsamples = 5\nvalue = [0, 5]"] ;
966 -> 1002 ;
1003 [label="gini = 0.0\nsamples = 2\nvalue = [2, 0]"] ;
965 -> 1003 ;
1004 [label="X[3] <= 150.0\ngini = 0.142\nsamples = 13\nvalue = [1, 12]"] ;
964 -> 1004 ;
1005 [label="gini = 0.0\nsamples = 12\nvalue = [0, 12]"] ;
1004 -> 1005 ;
1006 [label="gini = 0.0\nsamples = 1\nvalue = [1, 0]"] ;
1004 -> 1006 ;
1007 [label="X[1] <= 0.975\ngini = 0.499\nsamples = 55\nvalue = [26, 29]"] ;
963 -> 1007 ;
1008 [label="gini = 0.0\nsamples = 3\nvalue = [3, 0]"] ;
1007 -> 1008 ;
1009 [label="X[5] <= 0.988\ngini = 0.493\nsamples = 52\nvalue = [23, 29]"] ;
1007 -> 1009 ;
1010 [label="X[5] <= 0.984\ngini = 0.444\nsamples = 27\nvalue = [9, 18]"] ;
1009 -> 1010 ;
1011 [label="X[5] <= 0.983\ngini = 0.408\nsamples = 7\nvalue = [5, 2]"] ;
1010 -> 1011 ;
1012 [label="X[7] <= 38.0\ngini = 0.444\nsamples = 3\nvalue = [1, 2]"] ;
1011 -> 1012 ;
1013 [label="gini = 0.0\nsamples = 1\nvalue = [1, 0]"] ;
1012 -> 1013 ;
1014 [label="gini = 0.0\nsamples = 2\nvalue = [0, 2]"] ;
1012 -> 1014 ;
1015 [label="gini = 0.0\nsamples = 4\nvalue = [4, 0]"] ;
1011 -> 1015 ;
1016 [label="X[4] <= 50.0\ngini = 0.32\nsamples = 20\nvalue = [4, 16]"] ;
1010 -> 1016 ;
1017 [label="X[7] <= 88.0\ngini = 0.266\nsamples = 19\nvalue = [3, 16]"] ;
1016 -> 1017 ;
1018 [label="gini = 0.0\nsamples = 8\nvalue = [0, 8]"] ;
1017 -> 1018 ;
1019 [label="X[3] <= 121.0\ngini = 0.397\nsamples = 11\nvalue = [3, 8]"] ;
1017 -> 1019 ;
1020 [label="gini = 0.0\nsamples = 2\nvalue = [2, 0]"] ;
1019 -> 1020 ;
1021 [label="X[0] <= 32.0\ngini = 0.198\nsamples = 9\nvalue = [1, 8]"] ;
1019 -> 1021 ;
1022 [label="gini = 0.0\nsamples = 5\nvalue = [0, 5]"] ;
1021 -> 1022 ;
1023 [label="X[0] <= 37.5\ngini = 0.375\nsamples = 4\nvalue = [1, 3]"] ;
1021 -> 1023 ;
1024 [label="gini = 0.0\nsamples = 1\nvalue = [1, 0]"] ;
1023 -> 1024 ;
1025 [label="gini = 0.0\nsamples = 3\nvalue = [0, 3]"] ;
1023 -> 1025 ;
1026 [label="gini = 0.0\nsamples = 1\nvalue = [1, 0]"] ;
1016 -> 1026 ;
1027 [label="X[1] <= 0.985\ngini = 0.493\nsamples = 25\nvalue = [14, 11]"] ;
1009 -> 1027 ;
1028 [label="X[0] <= 2.0\ngini = 0.245\nsamples = 7\nvalue = [6, 1]"] ;
1027 -> 1028 ;
1029 [label="X[6] <= 81.5\ngini = 0.5\nsamples = 2\nvalue = [1, 1]"] ;
1028 -> 1029 ;
1030 [label="gini = 0.0\nsamples = 1\nvalue = [1, 0]"] ;
1029 -> 1030 ;
1031 [label="gini = 0.0\nsamples = 1\nvalue = [0, 1]"] ;
1029 -> 1031 ;
1032 [label="gini = 0.0\nsamples = 5\nvalue = [5, 0]"] ;
1028 -> 1032 ;
1033 [label="X[1] <= 0.996\ngini = 0.494\nsamples = 18\nvalue = [8, 10]"] ;
1027 -> 1033 ;
1034 [label="X[5] <= 0.988\ngini = 0.444\nsamples = 15\nvalue = [5, 10]"] ;
1033 -> 1034 ;
1035 [label="gini = 0.0\nsamples = 2\nvalue = [2, 0]"] ;
1034 -> 1035 ;
1036 [label="X[2] <= 166.0\ngini = 0.355\nsamples = 13\nvalue = [3, 10]"] ;
1034 -> 1036 ;
1037 [label="X[1] <= 0.991\ngini = 0.278\nsamples = 12\nvalue = [2, 10]"] ;
1036 -> 1037 ;
1038 [label="X[1] <= 0.99\ngini = 0.444\nsamples = 6\nvalue = [2, 4]"] ;
1037 -> 1038 ;
1039 [label="gini = 0.0\nsamples = 4\nvalue = [0, 4]"] ;
1038 -> 1039 ;
1040 [label="gini = 0.0\nsamples = 2\nvalue = [2, 0]"] ;
1038 -> 1040 ;
1041 [label="gini = 0.0\nsamples = 6\nvalue = [0, 6]"] ;
1037 -> 1041 ;
1042 [label="gini = 0.0\nsamples = 1\nvalue = [1, 0]"] ;
1036 -> 1042 ;
1043 [label="gini = 0.0\nsamples = 3\nvalue = [3, 0]"] ;
1033 -> 1043 ;
1044 [label="X[6] <= 106.0\ngini = 0.346\nsamples = 9\nvalue = [7, 2]"] ;
956 -> 1044 ;
1045 [label="X[2] <= 65.0\ngini = 0.444\nsamples = 3\nvalue = [1, 2]"] ;
1044 -> 1045 ;
1046 [label="gini = 0.0\nsamples = 1\nvalue = [1, 0]"] ;
1045 -> 1046 ;
1047 [label="gini = 0.0\nsamples = 2\nvalue = [0, 2]"] ;
1045 -> 1047 ;
1048 [label="gini = 0.0\nsamples = 6\nvalue = [6, 0]"] ;
1044 -> 1048 ;
1049 [label="X[7] <= 71.0\ngini = 0.255\nsamples = 20\nvalue = [3, 17]"] ;
955 -> 1049 ;
1050 [label="X[7] <= 28.5\ngini = 0.49\nsamples = 7\nvalue = [3, 4]"] ;
1049 -> 1050 ;
1051 [label="gini = 0.0\nsamples = 3\nvalue = [0, 3]"] ;
1050 -> 1051 ;
1052 [label="X[4] <= 38.5\ngini = 0.375\nsamples = 4\nvalue = [3, 1]"] ;
1050 -> 1052 ;
1053 [label="gini = 0.0\nsamples = 3\nvalue = [3, 0]"] ;
1052 -> 1053 ;
1054 [label="gini = 0.0\nsamples = 1\nvalue = [0, 1]"] ;
1052 -> 1054 ;
1055 [label="gini = 0.0\nsamples = 13\nvalue = [0, 13]"] ;
1049 -> 1055 ;
1056 [label="gini = 0.0\nsamples = 10\nvalue = [0, 10]"] ;
954 -> 1056 ;
1057 [label="X[0] <= 31.5\ngini = 0.444\nsamples = 15\nvalue = [10, 5]"] ;
953 -> 1057 ;
1058 [label="X[5] <= 0.982\ngini = 0.355\nsamples = 13\nvalue = [10, 3]"] ;
1057 -> 1058 ;
1059 [label="gini = 0.0\nsamples = 1\nvalue = [0, 1]"] ;
1058 -> 1059 ;
1060 [label="X[1] <= 0.999\ngini = 0.278\nsamples = 12\nvalue = [10, 2]"] ;
1058 -> 1060 ;
1061 [label="X[3] <= 200.0\ngini = 0.165\nsamples = 11\nvalue = [10, 1]"] ;
1060 -> 1061 ;
1062 [label="X[5] <= 0.987\ngini = 0.444\nsamples = 3\nvalue = [2, 1]"] ;
1061 -> 1062 ;
1063 [label="gini = 0.0\nsamples = 1\nvalue = [0, 1]"] ;
1062 -> 1063 ;
1064 [label="gini = 0.0\nsamples = 2\nvalue = [2, 0]"] ;
1062 -> 1064 ;
1065 [label="gini = 0.0\nsamples = 8\nvalue = [8, 0]"] ;
1061 -> 1065 ;
1066 [label="gini = 0.0\nsamples = 1\nvalue = [0, 1]"] ;
1060 -> 1066 ;
1067 [label="gini = 0.0\nsamples = 2\nvalue = [0, 2]"] ;
1057 -> 1067 ;
1068 [label="X[2] <= 122.0\ngini = 0.397\nsamples = 11\nvalue = [8, 3]"] ;
946 -> 1068 ;
1069 [label="gini = 0.0\nsamples = 6\nvalue = [6, 0]"] ;
1068 -> 1069 ;
1070 [label="X[2] <= 269.0\ngini = 0.48\nsamples = 5\nvalue = [2, 3]"] ;
1068 -> 1070 ;
1071 [label="gini = 0.0\nsamples = 3\nvalue = [0, 3]"] ;
1070 -> 1071 ;
1072 [label="gini = 0.0\nsamples = 2\nvalue = [2, 0]"] ;
1070 -> 1072 ;
1073 [label="X[7] <= 70.5\ngini = 0.423\nsamples = 23\nvalue = [16, 7]"] ;
945 -> 1073 ;
1074 [label="X[1] <= 0.939\ngini = 0.408\nsamples = 7\nvalue = [2, 5]"] ;
1073 -> 1074 ;
1075 [label="X[6] <= 32.5\ngini = 0.444\nsamples = 3\nvalue = [2, 1]"] ;
1074 -> 1075 ;
1076 [label="gini = 0.0\nsamples = 2\nvalue = [2, 0]"] ;
1075 -> 1076 ;
1077 [label="gini = 0.0\nsamples = 1\nvalue = [0, 1]"] ;
1075 -> 1077 ;
1078 [label="gini = 0.0\nsamples = 4\nvalue = [0, 4]"] ;
1074 -> 1078 ;
1079 [label="X[1] <= 0.924\ngini = 0.219\nsamples = 16\nvalue = [14, 2]"] ;
1073 -> 1079 ;
1080 [label="gini = 0.0\nsamples = 1\nvalue = [0, 1]"] ;
1079 -> 1080 ;
1081 [label="X[1] <= 0.991\ngini = 0.124\nsamples = 15\nvalue = [14, 1]"] ;
1079 -> 1081 ;
1082 [label="gini = 0.0\nsamples = 13\nvalue = [13, 0]"] ;
1081 -> 1082 ;
1083 [label="X[3] <= 125.0\ngini = 0.5\nsamples = 2\nvalue = [1, 1]"] ;
1081 -> 1083 ;
1084 [label="gini = 0.0\nsamples = 1\nvalue = [0, 1]"] ;
1083 -> 1084 ;
1085 [label="gini = 0.0\nsamples = 1\nvalue = [1, 0]"] ;
1083 -> 1085 ;
1086 [label="X[3] <= 23.0\ngini = 0.312\nsamples = 31\nvalue = [6, 25]"] ;
944 -> 1086 ;
1087 [label="gini = 0.0\nsamples = 1\nvalue = [1, 0]"] ;
1086 -> 1087 ;
1088 [label="X[1] <= 0.969\ngini = 0.278\nsamples = 30\nvalue = [5, 25]"] ;
1086 -> 1088 ;
1089 [label="gini = 0.0\nsamples = 11\nvalue = [0, 11]"] ;
1088 -> 1089 ;
1090 [label="X[1] <= 0.97\ngini = 0.388\nsamples = 19\nvalue = [5, 14]"] ;
1088 -> 1090 ;
1091 [label="gini = 0.0\nsamples = 1\nvalue = [1, 0]"] ;
1090 -> 1091 ;
1092 [label="X[4] <= 47.5\ngini = 0.346\nsamples = 18\nvalue = [4, 14]"] ;
1090 -> 1092 ;
1093 [label="X[6] <= 168.5\ngini = 0.291\nsamples = 17\nvalue = [3, 14]"] ;
1092 -> 1093 ;
1094 [label="X[5] <= 0.992\ngini = 0.142\nsamples = 13\nvalue = [1, 12]"] ;
1093 -> 1094 ;
1095 [label="gini = 0.0\nsamples = 11\nvalue = [0, 11]"] ;
1094 -> 1095 ;
1096 [label="X[7] <= 72.5\ngini = 0.5\nsamples = 2\nvalue = [1, 1]"] ;
1094 -> 1096 ;
1097 [label="gini = 0.0\nsamples = 1\nvalue = [1, 0]"] ;
1096 -> 1097 ;
1098 [label="gini = 0.0\nsamples = 1\nvalue = [0, 1]"] ;
1096 -> 1098 ;
1099 [label="X[7] <= 201.0\ngini = 0.5\nsamples = 4\nvalue = [2, 2]"] ;
1093 -> 1099 ;
1100 [label="gini = 0.0\nsamples = 2\nvalue = [2, 0]"] ;
1099 -> 1100 ;
1101 [label="gini = 0.0\nsamples = 2\nvalue = [0, 2]"] ;
1099 -> 1101 ;
1102 [label="gini = 0.0\nsamples = 1\nvalue = [1, 0]"] ;
1092 -> 1102 ;
1103 [label="X[2] <= 67.0\ngini = 0.464\nsamples = 30\nvalue = [19, 11]"] ;
943 -> 1103 ;
1104 [label="X[1] <= 0.98\ngini = 0.499\nsamples = 23\nvalue = [12, 11]"] ;
1103 -> 1104 ;
1105 [label="X[1] <= 0.964\ngini = 0.465\nsamples = 19\nvalue = [12, 7]"] ;
1104 -> 1105 ;
1106 [label="X[2] <= 53.0\ngini = 0.498\nsamples = 15\nvalue = [8, 7]"] ;
1105 -> 1106 ;
1107 [label="X[2] <= 39.0\ngini = 0.473\nsamples = 13\nvalue = [8, 5]"] ;
1106 -> 1107 ;
1108 [label="X[5] <= 0.993\ngini = 0.469\nsamples = 8\nvalue = [3, 5]"] ;
1107 -> 1108 ;
1109 [label="X[1] <= 0.905\ngini = 0.48\nsamples = 5\nvalue = [3, 2]"] ;
1108 -> 1109 ;
1110 [label="gini = 0.0\nsamples = 2\nvalue = [2, 0]"] ;
1109 -> 1110 ;
1111 [label="X[7] <= 49.0\ngini = 0.444\nsamples = 3\nvalue = [1, 2]"] ;
1109 -> 1111 ;
1112 [label="gini = 0.0\nsamples = 2\nvalue = [0, 2]"] ;
1111 -> 1112 ;
1113 [label="gini = 0.0\nsamples = 1\nvalue = [1, 0]"] ;
1111 -> 1113 ;
1114 [label="gini = 0.0\nsamples = 3\nvalue = [0, 3]"] ;
1108 -> 1114 ;
1115 [label="gini = 0.0\nsamples = 5\nvalue = [5, 0]"] ;
1107 -> 1115 ;
1116 [label="gini = 0.0\nsamples = 2\nvalue = [0, 2]"] ;
1106 -> 1116 ;
1117 [label="gini = 0.0\nsamples = 4\nvalue = [4, 0]"] ;
1105 -> 1117 ;
1118 [label="gini = 0.0\nsamples = 4\nvalue = [0, 4]"] ;
1104 -> 1118 ;
1119 [label="gini = 0.0\nsamples = 7\nvalue = [7, 0]"] ;
1103 -> 1119 ;
1120 [label="X[5] <= 0.994\ngini = 0.454\nsamples = 543\nvalue = [189, 354]"] ;
942 -> 1120 ;
1121 [label="X[1] <= 0.91\ngini = 0.278\nsamples = 30\nvalue = [5, 25]"] ;
1120 -> 1121 ;
1122 [label="X[5] <= 0.994\ngini = 0.5\nsamples = 6\nvalue = [3, 3]"] ;
1121 -> 1122 ;
1123 [label="gini = 0.0\nsamples = 3\nvalue = [3, 0]"] ;
1122 -> 1123 ;
1124 [label="gini = 0.0\nsamples = 3\nvalue = [0, 3]"] ;
1122 -> 1124 ;
1125 [label="X[6] <= 25.5\ngini = 0.153\nsamples = 24\nvalue = [2, 22]"] ;
1121 -> 1125 ;
1126 [label="X[5] <= 0.994\ngini = 0.5\nsamples = 2\nvalue = [1, 1]"] ;
1125 -> 1126 ;
1127 [label="gini = 0.0\nsamples = 1\nvalue = [1, 0]"] ;
1126 -> 1127 ;
1128 [label="gini = 0.0\nsamples = 1\nvalue = [0, 1]"] ;
1126 -> 1128 ;
1129 [label="X[5] <= 0.993\ngini = 0.087\nsamples = 22\nvalue = [1, 21]"] ;
1125 -> 1129 ;
1130 [label="X[0] <= 21.5\ngini = 0.375\nsamples = 4\nvalue = [1, 3]"] ;
1129 -> 1130 ;
1131 [label="gini = 0.0\nsamples = 3\nvalue = [0, 3]"] ;
1130 -> 1131 ;
1132 [label="gini = 0.0\nsamples = 1\nvalue = [1, 0]"] ;
1130 -> 1132 ;
1133 [label="gini = 0.0\nsamples = 18\nvalue = [0, 18]"] ;
1129 -> 1133 ;
1134 [label="X[1] <= 0.891\ngini = 0.46\nsamples = 513\nvalue = [184, 329]"] ;
1120 -> 1134 ;
1135 [label="X[5] <= 0.995\ngini = 0.208\nsamples = 17\nvalue = [2, 15]"] ;
1134 -> 1135 ;
1136 [label="X[5] <= 0.994\ngini = 0.5\nsamples = 4\nvalue = [2, 2]"] ;
1135 -> 1136 ;
1137 [label="gini = 0.0\nsamples = 2\nvalue = [0, 2]"] ;
1136 -> 1137 ;
1138 [label="gini = 0.0\nsamples = 2\nvalue = [2, 0]"] ;
1136 -> 1138 ;
1139 [label="gini = 0.0\nsamples = 13\nvalue = [0, 13]"] ;
1135 -> 1139 ;
1140 [label="X[1] <= 0.944\ngini = 0.465\nsamples = 496\nvalue = [182, 314]"] ;
1134 -> 1140 ;
1141 [label="X[3] <= 39.0\ngini = 0.498\nsamples = 85\nvalue = [40, 45]"] ;
1140 -> 1141 ;
1142 [label="X[6] <= 25.5\ngini = 0.231\nsamples = 15\nvalue = [2, 13]"] ;
1141 -> 1142 ;
1143 [label="X[1] <= 0.926\ngini = 0.48\nsamples = 5\nvalue = [2, 3]"] ;
1142 -> 1143 ;
1144 [label="gini = 0.0\nsamples = 2\nvalue = [2, 0]"] ;
1143 -> 1144 ;
1145 [label="gini = 0.0\nsamples = 3\nvalue = [0, 3]"] ;
1143 -> 1145 ;
1146 [label="gini = 0.0\nsamples = 10\nvalue = [0, 10]"] ;
1142 -> 1146 ;
1147 [label="X[3] <= 203.0\ngini = 0.496\nsamples = 70\nvalue = [38, 32]"] ;
1141 -> 1147 ;
1148 [label="X[2] <= 140.0\ngini = 0.481\nsamples = 62\nvalue = [37, 25]"] ;
1147 -> 1148 ;
1149 [label="X[5] <= 0.994\ngini = 0.492\nsamples = 57\nvalue = [32, 25]"] ;
1148 -> 1149 ;
1150 [label="gini = 0.0\nsamples = 3\nvalue = [3, 0]"] ;
1149 -> 1150 ;
1151 [label="X[5] <= 0.994\ngini = 0.497\nsamples = 54\nvalue = [29, 25]"] ;
1149 -> 1151 ;
1152 [label="gini = 0.0\nsamples = 3\nvalue = [0, 3]"] ;
1151 -> 1152 ;
1153 [label="X[1] <= 0.902\ngini = 0.491\nsamples = 51\nvalue = [29, 22]"] ;
1151 -> 1153 ;
1154 [label="gini = 0.0\nsamples = 4\nvalue = [4, 0]"] ;
1153 -> 1154 ;
1155 [label="X[1] <= 0.93\ngini = 0.498\nsamples = 47\nvalue = [25, 22]"] ;
1153 -> 1155 ;
1156 [label="X[7] <= 59.0\ngini = 0.487\nsamples = 31\nvalue = [13, 18]"] ;
1155 -> 1156 ;
1157 [label="X[5] <= 0.997\ngini = 0.444\nsamples = 12\nvalue = [8, 4]"] ;
1156 -> 1157 ;
1158 [label="X[1] <= 0.921\ngini = 0.49\nsamples = 7\nvalue = [3, 4]"] ;
1157 -> 1158 ;
1159 [label="gini = 0.0\nsamples = 3\nvalue = [0, 3]"] ;
1158 -> 1159 ;
1160 [label="X[7] <= 42.0\ngini = 0.375\nsamples = 4\nvalue = [3, 1]"] ;
1158 -> 1160 ;
1161 [label="gini = 0.0\nsamples = 1\nvalue = [0, 1]"] ;
1160 -> 1161 ;
1162 [label="gini = 0.0\nsamples = 3\nvalue = [3, 0]"] ;
1160 -> 1162 ;
1163 [label="gini = 0.0\nsamples = 5\nvalue = [5, 0]"] ;
1157 -> 1163 ;
1164 [label="X[7] <= 103.0\ngini = 0.388\nsamples = 19\nvalue = [5, 14]"] ;
1156 -> 1164 ;
1165 [label="X[5] <= 0.997\ngini = 0.165\nsamples = 11\nvalue = [1, 10]"] ;
1164 -> 1165 ;
1166 [label="gini = 0.0\nsamples = 8\nvalue = [0, 8]"] ;
1165 -> 1166 ;
1167 [label="X[7] <= 68.5\ngini = 0.444\nsamples = 3\nvalue = [1, 2]"] ;
1165 -> 1167 ;
1168 [label="gini = 0.0\nsamples = 1\nvalue = [1, 0]"] ;
1167 -> 1168 ;
1169 [label="gini = 0.0\nsamples = 2\nvalue = [0, 2]"] ;
1167 -> 1169 ;
1170 [label="X[6] <= 62.0\ngini = 0.5\nsamples = 8\nvalue = [4, 4]"] ;
1164 -> 1170 ;
1171 [label="gini = 0.0\nsamples = 3\nvalue = [3, 0]"] ;
1170 -> 1171 ;
1172 [label="X[1] <= 0.911\ngini = 0.32\nsamples = 5\nvalue = [1, 4]"] ;
1170 -> 1172 ;
1173 [label="gini = 0.0\nsamples = 1\nvalue = [1, 0]"] ;
1172 -> 1173 ;
1174 [label="gini = 0.0\nsamples = 4\nvalue = [0, 4]"] ;
1172 -> 1174 ;
1175 [label="X[1] <= 0.938\ngini = 0.375\nsamples = 16\nvalue = [12, 4]"] ;
1155 -> 1175 ;
1176 [label="gini = 0.0\nsamples = 8\nvalue = [8, 0]"] ;
1175 -> 1176 ;
1177 [label="X[7] <= 82.5\ngini = 0.5\nsamples = 8\nvalue = [4, 4]"] ;
1175 -> 1177 ;
1178 [label="X[5] <= 0.997\ngini = 0.444\nsamples = 6\nvalue = [4, 2]"] ;
1177 -> 1178 ;
1179 [label="gini = 0.0\nsamples = 3\nvalue = [3, 0]"] ;
1178 -> 1179 ;
1180 [label="X[5] <= 0.997\ngini = 0.444\nsamples = 3\nvalue = [1, 2]"] ;
1178 -> 1180 ;
1181 [label="gini = 0.0\nsamples = 2\nvalue = [0, 2]"] ;
1180 -> 1181 ;
1182 [label="gini = 0.0\nsamples = 1\nvalue = [1, 0]"] ;
1180 -> 1182 ;
1183 [label="gini = 0.0\nsamples = 2\nvalue = [0, 2]"] ;
1177 -> 1183 ;
1184 [label="gini = 0.0\nsamples = 5\nvalue = [5, 0]"] ;
1148 -> 1184 ;
1185 [label="X[3] <= 260.0\ngini = 0.219\nsamples = 8\nvalue = [1, 7]"] ;
1147 -> 1185 ;
1186 [label="gini = 0.0\nsamples = 6\nvalue = [0, 6]"] ;
1185 -> 1186 ;
1187 [label="X[3] <= 341.0\ngini = 0.5\nsamples = 2\nvalue = [1, 1]"] ;
1185 -> 1187 ;
1188 [label="gini = 0.0\nsamples = 1\nvalue = [1, 0]"] ;
1187 -> 1188 ;
1189 [label="gini = 0.0\nsamples = 1\nvalue = [0, 1]"] ;
1187 -> 1189 ;
1190 [label="X[1] <= 0.988\ngini = 0.452\nsamples = 411\nvalue = [142, 269]"] ;
1140 -> 1190 ;
1191 [label="X[1] <= 0.985\ngini = 0.418\nsamples = 225\nvalue = [67, 158]"] ;
1190 -> 1191 ;
1192 [label="X[1] <= 0.984\ngini = 0.44\nsamples = 193\nvalue = [63, 130]"] ;
1191 -> 1192 ;
1193 [label="X[2] <= 25.0\ngini = 0.429\nsamples = 189\nvalue = [59, 130]"] ;
1192 -> 1193 ;
1194 [label="X[3] <= 54.0\ngini = 0.496\nsamples = 35\nvalue = [16, 19]"] ;
1193 -> 1194 ;
1195 [label="X[4] <= 6.5\ngini = 0.453\nsamples = 26\nvalue = [9, 17]"] ;
1194 -> 1195 ;
1196 [label="X[5] <= 0.998\ngini = 0.245\nsamples = 14\nvalue = [2, 12]"] ;
1195 -> 1196 ;
1197 [label="gini = 0.0\nsamples = 11\nvalue = [0, 11]"] ;
1196 -> 1197 ;
1198 [label="X[3] <= 46.0\ngini = 0.444\nsamples = 3\nvalue = [2, 1]"] ;
1196 -> 1198 ;
1199 [label="gini = 0.0\nsamples = 2\nvalue = [2, 0]"] ;
1198 -> 1199 ;
1200 [label="gini = 0.0\nsamples = 1\nvalue = [0, 1]"] ;
1198 -> 1200 ;
1201 [label="X[4] <= 15.5\ngini = 0.486\nsamples = 12\nvalue = [7, 5]"] ;
1195 -> 1201 ;
1202 [label="gini = 0.0\nsamples = 6\nvalue = [6, 0]"] ;
1201 -> 1202 ;
1203 [label="X[2] <= 18.0\ngini = 0.278\nsamples = 6\nvalue = [1, 5]"] ;
1201 -> 1203 ;
1204 [label="gini = 0.0\nsamples = 1\nvalue = [1, 0]"] ;
1203 -> 1204 ;
1205 [label="gini = 0.0\nsamples = 5\nvalue = [0, 5]"] ;
1203 -> 1205 ;
1206 [label="X[2] <= 19.0\ngini = 0.346\nsamples = 9\nvalue = [7, 2]"] ;
1194 -> 1206 ;
1207 [label="gini = 0.0\nsamples = 1\nvalue = [0, 1]"] ;
1206 -> 1207 ;
1208 [label="X[7] <= 88.0\ngini = 0.219\nsamples = 8\nvalue = [7, 1]"] ;
1206 -> 1208 ;
1209 [label="gini = 0.0\nsamples = 6\nvalue = [6, 0]"] ;
1208 -> 1209 ;
1210 [label="X[4] <= 20.5\ngini = 0.5\nsamples = 2\nvalue = [1, 1]"] ;
1208 -> 1210 ;
1211 [label="gini = 0.0\nsamples = 1\nvalue = [0, 1]"] ;
1210 -> 1211 ;
1212 [label="gini = 0.0\nsamples = 1\nvalue = [1, 0]"] ;
1210 -> 1212 ;
1213 [label="X[5] <= 0.998\ngini = 0.403\nsamples = 154\nvalue = [43, 111]"] ;
1193 -> 1213 ;
1214 [label="X[5] <= 0.997\ngini = 0.43\nsamples = 131\nvalue = [41, 90]"] ;
1213 -> 1214 ;
1215 [label="X[6] <= 55.5\ngini = 0.327\nsamples = 68\nvalue = [14, 54]"] ;
1214 -> 1215 ;
1216 [label="X[6] <= 36.5\ngini = 0.43\nsamples = 32\nvalue = [10, 22]"] ;
1215 -> 1216 ;
1217 [label="X[1] <= 0.953\ngini = 0.142\nsamples = 13\nvalue = [1, 12]"] ;
1216 -> 1217 ;
1218 [label="X[2] <= 31.0\ngini = 0.444\nsamples = 3\nvalue = [1, 2]"] ;
1217 -> 1218 ;
1219 [label="gini = 0.0\nsamples = 1\nvalue = [1, 0]"] ;
1218 -> 1219 ;
1220 [label="gini = 0.0\nsamples = 2\nvalue = [0, 2]"] ;
1218 -> 1220 ;
1221 [label="gini = 0.0\nsamples = 10\nvalue = [0, 10]"] ;
1217 -> 1221 ;
1222 [label="X[0] <= 8.0\ngini = 0.499\nsamples = 19\nvalue = [9, 10]"] ;
1216 -> 1222 ;
1223 [label="X[1] <= 0.963\ngini = 0.426\nsamples = 13\nvalue = [4, 9]"] ;
1222 -> 1223 ;
1224 [label="X[2] <= 50.0\ngini = 0.444\nsamples = 6\nvalue = [4, 2]"] ;
1223 -> 1224 ;
1225 [label="gini = 0.0\nsamples = 2\nvalue = [0, 2]"] ;
1224 -> 1225 ;
1226 [label="gini = 0.0\nsamples = 4\nvalue = [4, 0]"] ;
1224 -> 1226 ;
1227 [label="gini = 0.0\nsamples = 7\nvalue = [0, 7]"] ;
1223 -> 1227 ;
1228 [label="X[5] <= 0.997\ngini = 0.278\nsamples = 6\nvalue = [5, 1]"] ;
1222 -> 1228 ;
1229 [label="gini = 0.0\nsamples = 5\nvalue = [5, 0]"] ;
1228 -> 1229 ;
1230 [label="gini = 0.0\nsamples = 1\nvalue = [0, 1]"] ;
1228 -> 1230 ;
1231 [label="X[2] <= 93.0\ngini = 0.198\nsamples = 36\nvalue = [4, 32]"] ;
1215 -> 1231 ;
1232 [label="gini = 0.0\nsamples = 19\nvalue = [0, 19]"] ;
1231 -> 1232 ;
1233 [label="X[2] <= 99.0\ngini = 0.36\nsamples = 17\nvalue = [4, 13]"] ;
1231 -> 1233 ;
1234 [label="gini = 0.0\nsamples = 1\nvalue = [1, 0]"] ;
1233 -> 1234 ;
1235 [label="X[6] <= 91.5\ngini = 0.305\nsamples = 16\nvalue = [3, 13]"] ;
1233 -> 1235 ;
1236 [label="gini = 0.0\nsamples = 1\nvalue = [1, 0]"] ;
1235 -> 1236 ;
1237 [label="X[1] <= 0.982\ngini = 0.231\nsamples = 15\nvalue = [2, 13]"] ;
1235 -> 1237 ;
1238 [label="X[0] <= 5.0\ngini = 0.133\nsamples = 14\nvalue = [1, 13]"] ;
1237 -> 1238 ;
1239 [label="X[5] <= 0.995\ngini = 0.5\nsamples = 2\nvalue = [1, 1]"] ;
1238 -> 1239 ;
1240 [label="gini = 0.0\nsamples = 1\nvalue = [0, 1]"] ;
1239 -> 1240 ;
1241 [label="gini = 0.0\nsamples = 1\nvalue = [1, 0]"] ;
1239 -> 1241 ;
1242 [label="gini = 0.0\nsamples = 12\nvalue = [0, 12]"] ;
1238 -> 1242 ;
1243 [label="gini = 0.0\nsamples = 1\nvalue = [1, 0]"] ;
1237 -> 1243 ;
1244 [label="X[5] <= 0.997\ngini = 0.49\nsamples = 63\nvalue = [27, 36]"] ;
1214 -> 1244 ;
1245 [label="X[1] <= 0.959\ngini = 0.245\nsamples = 7\nvalue = [6, 1]"] ;
1244 -> 1245 ;
1246 [label="gini = 0.0\nsamples = 1\nvalue = [0, 1]"] ;
1245 -> 1246 ;
1247 [label="gini = 0.0\nsamples = 6\nvalue = [6, 0]"] ;
1245 -> 1247 ;
1248 [label="X[3] <= 34.0\ngini = 0.469\nsamples = 56\nvalue = [21, 35]"] ;
1244 -> 1248 ;
1249 [label="X[0] <= 16.0\ngini = 0.278\nsamples = 6\nvalue = [5, 1]"] ;
1248 -> 1249 ;
1250 [label="gini = 0.0\nsamples = 1\nvalue = [0, 1]"] ;
1249 -> 1250 ;
1251 [label="gini = 0.0\nsamples = 5\nvalue = [5, 0]"] ;
1249 -> 1251 ;
1252 [label="X[1] <= 0.964\ngini = 0.435\nsamples = 50\nvalue = [16, 34]"] ;
1248 -> 1252 ;
1253 [label="X[1] <= 0.944\ngini = 0.142\nsamples = 13\nvalue = [1, 12]"] ;
1252 -> 1253 ;
1254 [label="X[5] <= 0.998\ngini = 0.5\nsamples = 2\nvalue = [1, 1]"] ;
1253 -> 1254 ;
1255 [label="gini = 0.0\nsamples = 1\nvalue = [0, 1]"] ;
1254 -> 1255 ;
1256 [label="gini = 0.0\nsamples = 1\nvalue = [1, 0]"] ;
1254 -> 1256 ;
1257 [label="gini = 0.0\nsamples = 11\nvalue = [0, 11]"] ;
1253 -> 1257 ;
1258 [label="X[1] <= 0.983\ngini = 0.482\nsamples = 37\nvalue = [15, 22]"] ;
1252 -> 1258 ;
1259 [label="X[5] <= 0.998\ngini = 0.498\nsamples = 32\nvalue = [15, 17]"] ;
1258 -> 1259 ;
1260 [label="X[2] <= 43.0\ngini = 0.491\nsamples = 30\nvalue = [13, 17]"] ;
1259 -> 1260 ;
1261 [label="gini = 0.0\nsamples = 4\nvalue = [0, 4]"] ;
1260 -> 1261 ;
1262 [label="X[2] <= 59.0\ngini = 0.5\nsamples = 26\nvalue = [13, 13]"] ;
1260 -> 1262 ;
1263 [label="gini = 0.0\nsamples = 5\nvalue = [5, 0]"] ;
1262 -> 1263 ;
1264 [label="X[3] <= 211.0\ngini = 0.472\nsamples = 21\nvalue = [8, 13]"] ;
1262 -> 1264 ;
1265 [label="X[1] <= 0.979\ngini = 0.391\nsamples = 15\nvalue = [4, 11]"] ;
1264 -> 1265 ;
1266 [label="X[5] <= 0.998\ngini = 0.18\nsamples = 10\nvalue = [1, 9]"] ;
1265 -> 1266 ;
1267 [label="gini = 0.0\nsamples = 7\nvalue = [0, 7]"] ;
1266 -> 1267 ;
1268 [label="X[6] <= 71.0\ngini = 0.444\nsamples = 3\nvalue = [1, 2]"] ;
1266 -> 1268 ;
1269 [label="gini = 0.0\nsamples = 1\nvalue = [1, 0]"] ;
1268 -> 1269 ;
1270 [label="gini = 0.0\nsamples = 2\nvalue = [0, 2]"] ;
1268 -> 1270 ;
1271 [label="X[2] <= 136.0\ngini = 0.48\nsamples = 5\nvalue = [3, 2]"] ;
1265 -> 1271 ;
