digraph Tree {
node [shape=box] ;
0 [label="X[1] <= 0.92\ngini = 0.45\nsamples = 24053\nvalue = [15835, 8218]"] ;
1 [label="X[4] <= 0.5\ngini = 0.393\nsamples = 16229\nvalue = [11872, 4357]"] ;
0 -> 1 [labeldistance=2.5, labelangle=45, headlabel="True"] ;
2 [label="X[2] <= 43.0\ngini = 0.49\nsamples = 2601\nvalue = [1482, 1119]"] ;
1 -> 2 ;
3 [label="X[2] <= 11.0\ngini = 0.444\nsamples = 1509\nvalue = [1008, 501]"] ;
2 -> 3 ;
4 [label="X[2] <= 7.0\ngini = 0.345\nsamples = 479\nvalue = [373, 106]"] ;
3 -> 4 ;
5 [label="X[1] <= 0.869\ngini = 0.271\nsamples = 217\nvalue = [182, 35]"] ;
4 -> 5 ;
6 [label="X[1] <= 0.768\ngini = 0.285\nsamples = 203\nvalue = [168, 35]"] ;
5 -> 6 ;
7 [label="X[0] <= 27.0\ngini = 0.253\nsamples = 175\nvalue = [149, 26]"] ;
6 -> 7 ;
8 [label="X[0] <= 17.0\ngini = 0.312\nsamples = 93\nvalue = [75, 18]"] ;
7 -> 8 ;
9 [label="X[1] <= 0.562\ngini = 0.283\nsamples = 88\nvalue = [73, 15]"] ;
8 -> 9 ;
10 [label="X[1] <= 0.538\ngini = 0.375\nsamples = 28\nvalue = [21, 7]"] ;
9 -> 10 ;
11 [label="X[1] <= 0.51\ngini = 0.188\nsamples = 19\nvalue = [17, 2]"] ;
10 -> 11 ;
12 [label="X[1] <= 0.507\ngini = 0.408\nsamples = 7\nvalue = [5, 2]"] ;
11 -> 12 ;
13 [label="gini = 0.0\nsamples = 4\nvalue = [4, 0]"] ;
12 -> 13 ;
14 [label="X[3] <= 11.0\ngini = 0.444\nsamples = 3\nvalue = [1, 2]"] ;
12 -> 14 ;
15 [label="gini = 0.0\nsamples = 2\nvalue = [0, 2]"] ;
14 -> 15 ;
16 [label="gini = 0.0\nsamples = 1\nvalue = [1, 0]"] ;
14 -> 16 ;
17 [label="gini = 0.0\nsamples = 12\nvalue = [12, 0]"] ;
11 -> 17 ;
18 [label="X[3] <= 19.0\ngini = 0.494\nsamples = 9\nvalue = [4, 5]"] ;
10 -> 18 ;
19 [label="X[0] <= 9.0\ngini = 0.469\nsamples = 8\nvalue = [3, 5]"] ;
18 -> 19 ;
20 [label="X[1] <= 0.541\ngini = 0.49\nsamples = 7\nvalue = [3, 4]"] ;
19 -> 20 ;
21 [label="gini = 0.0\nsamples = 1\nvalue = [1, 0]"] ;
20 -> 21 ;
22 [label="X[0] <= 2.0\ngini = 0.444\nsamples = 6\nvalue = [2, 4]"] ;
20 -> 22 ;
23 [label="X[2] <= 5.0\ngini = 0.32\nsamples = 5\nvalue = [1, 4]"] ;
22 -> 23 ;
24 [label="X[3] <= 8.0\ngini = 0.5\nsamples = 2\nvalue = [1, 1]"] ;
23 -> 24 ;
25 [label="gini = 0.0\nsamples = 1\nvalue = [0, 1]"] ;
24 -> 25 ;
26 [label="gini = 0.0\nsamples = 1\nvalue = [1, 0]"] ;
24 -> 26 ;
27 [label="gini = 0.0\nsamples = 3\nvalue = [0, 3]"] ;
23 -> 27 ;
28 [label="gini = 0.0\nsamples = 1\nvalue = [1, 0]"] ;
22 -> 28 ;
29 [label="gini = 0.0\nsamples = 1\nvalue = [0, 1]"] ;
19 -> 29 ;
30 [label="gini = 0.0\nsamples = 1\nvalue = [1, 0]"] ;
18 -> 30 ;
31 [label="X[1] <= 0.606\ngini = 0.231\nsamples = 60\nvalue = [52, 8]"] ;
9 -> 31 ;
32 [label="gini = 0.0\nsamples = 17\nvalue = [17, 0]"] ;
31 -> 32 ;
33 [label="X[3] <= 23.0\ngini = 0.303\nsamples = 43\nvalue = [35, 8]"] ;
31 -> 33 ;
34 [label="X[2] <= 3.0\ngini = 0.278\nsamples = 42\nvalue = [35, 7]"] ;
33 -> 34 ;
35 [label="gini = 0.0\nsamples = 1\nvalue = [0, 1]"] ;
34 -> 35 ;
36 [label="X[1] <= 0.75\ngini = 0.25\nsamples = 41\nvalue = [35, 6]"] ;
34 -> 36 ;
37 [label="X[1] <= 0.64\ngini = 0.202\nsamples = 35\nvalue = [31, 4]"] ;
36 -> 37 ;
38 [label="X[1] <= 0.637\ngini = 0.337\nsamples = 14\nvalue = [11, 3]"] ;
37 -> 38 ;
39 [label="X[3] <= 11.0\ngini = 0.26\nsamples = 13\nvalue = [11, 2]"] ;
38 -> 39 ;
40 [label="gini = 0.0\nsamples = 5\nvalue = [5, 0]"] ;
39 -> 40 ;
41 [label="X[1] <= 0.629\ngini = 0.375\nsamples = 8\nvalue = [6, 2]"] ;
39 -> 41 ;
42 [label="gini = 0.0\nsamples = 2\nvalue = [2, 0]"] ;
41 -> 42 ;
43 [label="X[2] <= 5.0\ngini = 0.444\nsamples = 6\nvalue = [4, 2]"] ;
41 -> 43 ;
44 [label="gini = 0.0\nsamples = 1\nvalue = [0, 1]"] ;
43 -> 44 ;
45 [label="X[1] <= 0.63\ngini = 0.32\nsamples = 5\nvalue = [4, 1]"] ;
43 -> 45 ;
46 [label="gini = 0.0\nsamples = 1\nvalue = [0, 1]"] ;
45 -> 46 ;
47 [label="gini = 0.0\nsamples = 4\nvalue = [4, 0]"] ;
45 -> 47 ;
48 [label="gini = 0.0\nsamples = 1\nvalue = [0, 1]"] ;
38 -> 48 ;
49 [label="X[1] <= 0.715\ngini = 0.091\nsamples = 21\nvalue = [20, 1]"] ;
37 -> 49 ;
50 [label="gini = 0.0\nsamples = 15\nvalue = [15, 0]"] ;
49 -> 50 ;
51 [label="X[1] <= 0.716\ngini = 0.278\nsamples = 6\nvalue = [5, 1]"] ;
49 -> 51 ;
52 [label="gini = 0.0\nsamples = 1\nvalue = [0, 1]"] ;
51 -> 52 ;
53 [label="gini = 0.0\nsamples = 5\nvalue = [5, 0]"] ;
51 -> 53 ;
54 [label="X[1] <= 0.757\ngini = 0.444\nsamples = 6\nvalue = [4, 2]"] ;
36 -> 54 ;
55 [label="gini = 0.0\nsamples = 2\nvalue = [0, 2]"] ;
54 -> 55 ;
56 [label="gini = 0.0\nsamples = 4\nvalue = [4, 0]"] ;
54 -> 56 ;
57 [label="gini = 0.0\nsamples = 1\nvalue = [0, 1]"] ;
33 -> 57 ;
58 [label="X[1] <= 0.648\ngini = 0.48\nsamples = 5\nvalue = [2, 3]"] ;
8 -> 58 ;
59 [label="gini = 0.0\nsamples = 2\nvalue = [0, 2]"] ;
58 -> 59 ;
60 [label="X[3] <= 14.0\ngini = 0.444\nsamples = 3\nvalue = [2, 1]"] ;
58 -> 60 ;
61 [label="gini = 0.0\nsamples = 2\nvalue = [2, 0]"] ;
60 -> 61 ;
62 [label="gini = 0.0\nsamples = 1\nvalue = [0, 1]"] ;
60 -> 62 ;
63 [label="X[1] <= 0.624\ngini = 0.176\nsamples = 82\nvalue = [74, 8]"] ;
7 -> 63 ;
64 [label="X[1] <= 0.609\ngini = 0.249\nsamples = 55\nvalue = [47, 8]"] ;
63 -> 64 ;
65 [label="X[0] <= 38.0\ngini = 0.18\nsamples = 50\nvalue = [45, 5]"] ;
64 -> 65 ;
66 [label="gini = 0.0\nsamples = 14\nvalue = [14, 0]"] ;
65 -> 66 ;
67 [label="X[3] <= 23.0\ngini = 0.239\nsamples = 36\nvalue = [31, 5]"] ;
65 -> 67 ;
68 [label="X[1] <= 0.532\ngini = 0.33\nsamples = 24\nvalue = [19, 5]"] ;
67 -> 68 ;
69 [label="gini = 0.0\nsamples = 7\nvalue = [7, 0]"] ;
68 -> 69 ;
70 [label="X[1] <= 0.553\ngini = 0.415\nsamples = 17\nvalue = [12, 5]"] ;
68 -> 70 ;
71 [label="gini = 0.0\nsamples = 3\nvalue = [0, 3]"] ;
70 -> 71 ;
72 [label="X[1] <= 0.564\ngini = 0.245\nsamples = 14\nvalue = [12, 2]"] ;
70 -> 72 ;
73 [label="X[1] <= 0.559\ngini = 0.5\nsamples = 2\nvalue = [1, 1]"] ;
72 -> 73 ;
74 [label="gini = 0.0\nsamples = 1\nvalue = [1, 0]"] ;
73 -> 74 ;
75 [label="gini = 0.0\nsamples = 1\nvalue = [0, 1]"] ;
73 -> 75 ;
76 [label="X[2] <= 5.0\ngini = 0.153\nsamples = 12\nvalue = [11, 1]"] ;
72 -> 76 ;
77 [label="gini = 0.0\nsamples = 9\nvalue = [9, 0]"] ;
76 -> 77 ;
78 [label="X[3] <= 15.0\ngini = 0.444\nsamples = 3\nvalue = [2, 1]"] ;
76 -> 78 ;
79 [label="gini = 0.0\nsamples = 1\nvalue = [0, 1]"] ;
78 -> 79 ;
80 [label="gini = 0.0\nsamples = 2\nvalue = [2, 0]"] ;
78 -> 80 ;
81 [label="gini = 0.0\nsamples = 12\nvalue = [12, 0]"] ;
67 -> 81 ;
82 [label="X[0] <= 57.0\ngini = 0.48\nsamples = 5\nvalue = [2, 3]"] ;
64 -> 82 ;
83 [label="gini = 0.0\nsamples = 2\nvalue = [0, 2]"] ;
82 -> 83 ;
84 [label="X[1] <= 0.615\ngini = 0.444\nsamples = 3\nvalue = [2, 1]"] ;
82 -> 84 ;
85 [label="gini = 0.0\nsamples = 1\nvalue = [0, 1]"] ;
84 -> 85 ;
86 [label="gini = 0.0\nsamples = 2\nvalue = [2, 0]"] ;
84 -> 86 ;
87 [label="gini = 0.0\nsamples = 27\nvalue = [27, 0]"] ;
63 -> 87 ;
88 [label="X[1] <= 0.796\ngini = 0.436\nsamples = 28\nvalue = [19, 9]"] ;
6 -> 88 ;
89 [label="X[3] <= 5.0\ngini = 0.444\nsamples = 9\nvalue = [3, 6]"] ;
88 -> 89 ;
90 [label="gini = 0.0\nsamples = 1\nvalue = [1, 0]"] ;
89 -> 90 ;
91 [label="X[3] <= 11.0\ngini = 0.375\nsamples = 8\nvalue = [2, 6]"] ;
89 -> 91 ;
92 [label="gini = 0.0\nsamples = 3\nvalue = [0, 3]"] ;
91 -> 92 ;
93 [label="X[1] <= 0.776\ngini = 0.48\nsamples = 5\nvalue = [2, 3]"] ;
91 -> 93 ;
94 [label="gini = 0.0\nsamples = 2\nvalue = [0, 2]"] ;
93 -> 94 ;
95 [label="X[1] <= 0.79\ngini = 0.444\nsamples = 3\nvalue = [2, 1]"] ;
93 -> 95 ;
96 [label="gini = 0.0\nsamples = 2\nvalue = [2, 0]"] ;
95 -> 96 ;
97 [label="gini = 0.0\nsamples = 1\nvalue = [0, 1]"] ;
95 -> 97 ;
98 [label="X[0] <= 37.0\ngini = 0.266\nsamples = 19\nvalue = [16, 3]"] ;
88 -> 98 ;
99 [label="gini = 0.0\nsamples = 13\nvalue = [13, 0]"] ;
98 -> 99 ;
100 [label="X[1] <= 0.823\ngini = 0.5\nsamples = 6\nvalue = [3, 3]"] ;
98 -> 100 ;
101 [label="gini = 0.0\nsamples = 2\nvalue = [2, 0]"] ;
100 -> 101 ;
102 [label="X[3] <= 19.0\ngini = 0.375\nsamples = 4\nvalue = [1, 3]"] ;
100 -> 102 ;
103 [label="gini = 0.0\nsamples = 2\nvalue = [0, 2]"] ;
102 -> 103 ;
104 [label="X[1] <= 0.841\ngini = 0.5\nsamples = 2\nvalue = [1, 1]"] ;
102 -> 104 ;
105 [label="gini = 0.0\nsamples = 1\nvalue = [0, 1]"] ;
104 -> 105 ;
106 [label="gini = 0.0\nsamples = 1\nvalue = [1, 0]"] ;
104 -> 106 ;
107 [label="gini = 0.0\nsamples = 14\nvalue = [14, 0]"] ;
5 -> 107 ;
108 [label="X[1] <= 0.543\ngini = 0.395\nsamples = 262\nvalue = [191, 71]"] ;
4 -> 108 ;
109 [label="X[0] <= 75.0\ngini = 0.245\nsamples = 56\nvalue = [48, 8]"] ;
108 -> 109 ;
110 [label="X[0] <= 3.5\ngini = 0.222\nsamples = 55\nvalue = [48, 7]"] ;
109 -> 110 ;
111 [label="X[0] <= 1.5\ngini = 0.375\nsamples = 16\nvalue = [12, 4]"] ;
110 -> 111 ;
112 [label="X[3] <= 25.0\ngini = 0.26\nsamples = 13\nvalue = [11, 2]"] ;
111 -> 112 ;
113 [label="X[1] <= 0.508\ngini = 0.165\nsamples = 11\nvalue = [10, 1]"] ;
112 -> 113 ;
114 [label="X[1] <= 0.505\ngini = 0.375\nsamples = 4\nvalue = [3, 1]"] ;
113 -> 114 ;
115 [label="gini = 0.0\nsamples = 3\nvalue = [3, 0]"] ;
114 -> 115 ;
116 [label="gini = 0.0\nsamples = 1\nvalue = [0, 1]"] ;
114 -> 116 ;
117 [label="gini = 0.0\nsamples = 7\nvalue = [7, 0]"] ;
113 -> 117 ;
118 [label="X[3] <= 30.0\ngini = 0.5\nsamples = 2\nvalue = [1, 1]"] ;
112 -> 118 ;
119 [label="gini = 0.0\nsamples = 1\nvalue = [0, 1]"] ;
118 -> 119 ;
120 [label="gini = 0.0\nsamples = 1\nvalue = [1, 0]"] ;
118 -> 120 ;
121 [label="X[0] <= 2.5\ngini = 0.444\nsamples = 3\nvalue = [1, 2]"] ;
111 -> 121 ;
122 [label="X[1] <= 0.507\ngini = 0.5\nsamples = 2\nvalue = [1, 1]"] ;
121 -> 122 ;
123 [label="gini = 0.0\nsamples = 1\nvalue = [0, 1]"] ;
122 -> 123 ;
124 [label="gini = 0.0\nsamples = 1\nvalue = [1, 0]"] ;
122 -> 124 ;
125 [label="gini = 0.0\nsamples = 1\nvalue = [0, 1]"] ;
121 -> 125 ;
126 [label="X[0] <= 41.5\ngini = 0.142\nsamples = 39\nvalue = [36, 3]"] ;
110 -> 126 ;
127 [label="gini = 0.0\nsamples = 16\nvalue = [16, 0]"] ;
126 -> 127 ;
128 [label="X[0] <= 46.0\ngini = 0.227\nsamples = 23\nvalue = [20, 3]"] ;
126 -> 128 ;
129 [label="X[3] <= 36.0\ngini = 0.5\nsamples = 4\nvalue = [2, 2]"] ;
128 -> 129 ;
130 [label="X[2] <= 9.0\ngini = 0.444\nsamples = 3\nvalue = [1, 2]"] ;
129 -> 130 ;
131 [label="gini = 0.0\nsamples = 1\nvalue = [0, 1]"] ;
130 -> 131 ;
132 [label="X[1] <= 0.524\ngini = 0.5\nsamples = 2\nvalue = [1, 1]"] ;
130 -> 132 ;
133 [label="gini = 0.0\nsamples = 1\nvalue = [0, 1]"] ;
132 -> 133 ;
134 [label="gini = 0.0\nsamples = 1\nvalue = [1, 0]"] ;
132 -> 134 ;
135 [label="gini = 0.0\nsamples = 1\nvalue = [1, 0]"] ;
129 -> 135 ;
136 [label="X[3] <= 26.0\ngini = 0.1\nsamples = 19\nvalue = [18, 1]"] ;
128 -> 136 ;
137 [label="gini = 0.0\nsamples = 14\nvalue = [14, 0]"] ;
136 -> 137 ;
138 [label="X[3] <= 29.0\ngini = 0.32\nsamples = 5\nvalue = [4, 1]"] ;
136 -> 138 ;
139 [label="gini = 0.0\nsamples = 1\nvalue = [0, 1]"] ;
138 -> 139 ;
140 [label="gini = 0.0\nsamples = 4\nvalue = [4, 0]"] ;
138 -> 140 ;
141 [label="gini = 0.0\nsamples = 1\nvalue = [0, 1]"] ;
109 -> 141 ;
142 [label="X[1] <= 0.558\ngini = 0.425\nsamples = 206\nvalue = [143, 63]"] ;
108 -> 142 ;
143 [label="X[3] <= 8.0\ngini = 0.473\nsamples = 13\nvalue = [5, 8]"] ;
142 -> 143 ;
144 [label="gini = 0.0\nsamples = 4\nvalue = [0, 4]"] ;
143 -> 144 ;
145 [label="X[1] <= 0.556\ngini = 0.494\nsamples = 9\nvalue = [5, 4]"] ;
143 -> 145 ;
146 [label="X[3] <= 21.0\ngini = 0.408\nsamples = 7\nvalue = [5, 2]"] ;
145 -> 146 ;
147 [label="gini = 0.0\nsamples = 4\nvalue = [4, 0]"] ;
146 -> 147 ;
148 [label="X[1] <= 0.546\ngini = 0.444\nsamples = 3\nvalue = [1, 2]"] ;
146 -> 148 ;
149 [label="gini = 0.0\nsamples = 1\nvalue = [0, 1]"] ;
148 -> 149 ;
150 [label="X[3] <= 40.0\ngini = 0.5\nsamples = 2\nvalue = [1, 1]"] ;
148 -> 150 ;
151 [label="gini = 0.0\nsamples = 1\nvalue = [1, 0]"] ;
150 -> 151 ;
152 [label="gini = 0.0\nsamples = 1\nvalue = [0, 1]"] ;
150 -> 152 ;
153 [label="gini = 0.0\nsamples = 2\nvalue = [0, 2]"] ;
145 -> 153 ;
154 [label="X[1] <= 0.576\ngini = 0.408\nsamples = 193\nvalue = [138, 55]"] ;
142 -> 154 ;
155 [label="X[0] <= 2.0\ngini = 0.095\nsamples = 20\nvalue = [19, 1]"] ;
154 -> 155 ;
156 [label="X[1] <= 0.566\ngini = 0.278\nsamples = 6\nvalue = [5, 1]"] ;
155 -> 156 ;
157 [label="X[1] <= 0.563\ngini = 0.5\nsamples = 2\nvalue = [1, 1]"] ;
156 -> 157 ;
158 [label="gini = 0.0\nsamples = 1\nvalue = [1, 0]"] ;
157 -> 158 ;
159 [label="gini = 0.0\nsamples = 1\nvalue = [0, 1]"] ;
157 -> 159 ;
160 [label="gini = 0.0\nsamples = 4\nvalue = [4, 0]"] ;
156 -> 160 ;
161 [label="gini = 0.0\nsamples = 14\nvalue = [14, 0]"] ;
155 -> 161 ;
162 [label="X[1] <= 0.578\ngini = 0.429\nsamples = 173\nvalue = [119, 54]"] ;
154 -> 162 ;
163 [label="gini = 0.0\nsamples = 2\nvalue = [0, 2]"] ;
162 -> 163 ;
164 [label="X[1] <= 0.598\ngini = 0.423\nsamples = 171\nvalue = [119, 52]"] ;
162 -> 164 ;
165 [label="X[0] <= 65.5\ngini = 0.208\nsamples = 17\nvalue = [15, 2]"] ;
164 -> 165 ;
166 [label="X[1] <= 0.579\ngini = 0.117\nsamples = 16\nvalue = [15, 1]"] ;
165 -> 166 ;
167 [label="X[3] <= 11.0\ngini = 0.5\nsamples = 2\nvalue = [1, 1]"] ;
166 -> 167 ;
168 [label="gini = 0.0\nsamples = 1\nvalue = [0, 1]"] ;
167 -> 168 ;
169 [label="gini = 0.0\nsamples = 1\nvalue = [1, 0]"] ;
167 -> 169 ;
170 [label="gini = 0.0\nsamples = 14\nvalue = [14, 0]"] ;
166 -> 170 ;
171 [label="gini = 0.0\nsamples = 1\nvalue = [0, 1]"] ;
165 -> 171 ;
172 [label="X[1] <= 0.604\ngini = 0.439\nsamples = 154\nvalue = [104, 50]"] ;
164 -> 172 ;
173 [label="X[0] <= 4.5\ngini = 0.32\nsamples = 5\nvalue = [1, 4]"] ;
172 -> 173 ;
174 [label="gini = 0.0\nsamples = 1\nvalue = [1, 0]"] ;
173 -> 174 ;
175 [label="gini = 0.0\nsamples = 4\nvalue = [0, 4]"] ;
173 -> 175 ;
176 [label="X[3] <= 45.0\ngini = 0.427\nsamples = 149\nvalue = [103, 46]"] ;
172 -> 176 ;
177 [label="X[1] <= 0.862\ngini = 0.438\nsamples = 142\nvalue = [96, 46]"] ;
176 -> 177 ;
178 [label="X[1] <= 0.842\ngini = 0.451\nsamples = 128\nvalue = [84, 44]"] ;
177 -> 178 ;
179 [label="X[1] <= 0.825\ngini = 0.43\nsamples = 118\nvalue = [81, 37]"] ;
178 -> 179 ;
180 [label="X[1] <= 0.814\ngini = 0.448\nsamples = 109\nvalue = [72, 37]"] ;
179 -> 180 ;
181 [label="X[1] <= 0.683\ngini = 0.426\nsamples = 104\nvalue = [72, 32]"] ;
180 -> 181 ;
182 [label="X[1] <= 0.65\ngini = 0.466\nsamples = 54\nvalue = [34, 20]"] ;
181 -> 182 ;
183 [label="X[0] <= 2.0\ngini = 0.382\nsamples = 35\nvalue = [26, 9]"] ;
182 -> 183 ;
184 [label="X[3] <= 12.0\ngini = 0.49\nsamples = 14\nvalue = [8, 6]"] ;
183 -> 184 ;
185 [label="gini = 0.0\nsamples = 3\nvalue = [3, 0]"] ;
184 -> 185 ;
186 [label="X[3] <= 21.0\ngini = 0.496\nsamples = 11\nvalue = [5, 6]"] ;
184 -> 186 ;
187 [label="X[1] <= 0.638\ngini = 0.408\nsamples = 7\nvalue = [2, 5]"] ;
186 -> 187 ;
188 [label="gini = 0.0\nsamples = 5\nvalue = [0, 5]"] ;
187 -> 188 ;
189 [label="gini = 0.0\nsamples = 2\nvalue = [2, 0]"] ;
187 -> 189 ;
190 [label="X[1] <= 0.632\ngini = 0.375\nsamples = 4\nvalue = [3, 1]"] ;
186 -> 190 ;
191 [label="gini = 0.0\nsamples = 3\nvalue = [3, 0]"] ;
190 -> 191 ;
192 [label="gini = 0.0\nsamples = 1\nvalue = [0, 1]"] ;
190 -> 192 ;
193 [label="X[3] <= 8.0\ngini = 0.245\nsamples = 21\nvalue = [18, 3]"] ;
183 -> 193 ;
194 [label="X[2] <= 9.0\ngini = 0.5\nsamples = 4\nvalue = [2, 2]"] ;
193 -> 194 ;
195 [label="gini = 0.0\nsamples = 2\nvalue = [0, 2]"] ;
194 -> 195 ;
196 [label="gini = 0.0\nsamples = 2\nvalue = [2, 0]"] ;
194 -> 196 ;
197 [label="X[3] <= 29.0\ngini = 0.111\nsamples = 17\nvalue = [16, 1]"] ;
193 -> 197 ;
198 [label="gini = 0.0\nsamples = 14\nvalue = [14, 0]"] ;
197 -> 198 ;
199 [label="X[1] <= 0.619\ngini = 0.444\nsamples = 3\nvalue = [2, 1]"] ;
197 -> 199 ;
200 [label="gini = 0.0\nsamples = 1\nvalue = [0, 1]"] ;
199 -> 200 ;
201 [label="gini = 0.0\nsamples = 2\nvalue = [2, 0]"] ;
199 -> 201 ;
202 [label="X[3] <= 13.0\ngini = 0.488\nsamples = 19\nvalue = [8, 11]"] ;
182 -> 202 ;
203 [label="X[0] <= 43.0\ngini = 0.32\nsamples = 5\nvalue = [4, 1]"] ;
202 -> 203 ;
204 [label="gini = 0.0\nsamples = 4\nvalue = [4, 0]"] ;
203 -> 204 ;
205 [label="gini = 0.0\nsamples = 1\nvalue = [0, 1]"] ;
203 -> 205 ;
206 [label="X[2] <= 9.0\ngini = 0.408\nsamples = 14\nvalue = [4, 10]"] ;
202 -> 206 ;
207 [label="X[3] <= 17.0\ngini = 0.494\nsamples = 9\nvalue = [4, 5]"] ;
206 -> 207 ;
208 [label="X[3] <= 15.0\ngini = 0.375\nsamples = 4\nvalue = [3, 1]"] ;
207 -> 208 ;
209 [label="gini = 0.0\nsamples = 1\nvalue = [0, 1]"] ;
208 -> 209 ;
210 [label="gini = 0.0\nsamples = 3\nvalue = [3, 0]"] ;
208 -> 210 ;
211 [label="X[1] <= 0.664\ngini = 0.32\nsamples = 5\nvalue = [1, 4]"] ;
207 -> 211 ;
212 [label="X[0] <= 7.0\ngini = 0.5\nsamples = 2\nvalue = [1, 1]"] ;
211 -> 212 ;
213 [label="gini = 0.0\nsamples = 1\nvalue = [0, 1]"] ;
212 -> 213 ;
214 [label="gini = 0.0\nsamples = 1\nvalue = [1, 0]"] ;
212 -> 214 ;
215 [label="gini = 0.0\nsamples = 3\nvalue = [0, 3]"] ;
211 -> 215 ;
216 [label="gini = 0.0\nsamples = 5\nvalue = [0, 5]"] ;
206 -> 216 ;
217 [label="X[0] <= 12.5\ngini = 0.365\nsamples = 50\nvalue = [38, 12]"] ;
181 -> 217 ;
218 [label="X[1] <= 0.783\ngini = 0.191\nsamples = 28\nvalue = [25, 3]"] ;
217 -> 218 ;
219 [label="X[1] <= 0.705\ngini = 0.091\nsamples = 21\nvalue = [20, 1]"] ;
218 -> 219 ;
220 [label="X[1] <= 0.704\ngini = 0.278\nsamples = 6\nvalue = [5, 1]"] ;
219 -> 220 ;
221 [label="gini = 0.0\nsamples = 5\nvalue = [5, 0]"] ;
220 -> 221 ;
222 [label="gini = 0.0\nsamples = 1\nvalue = [0, 1]"] ;
220 -> 222 ;
223 [label="gini = 0.0\nsamples = 15\nvalue = [15, 0]"] ;
219 -> 223 ;
224 [label="X[2] <= 9.0\ngini = 0.408\nsamples = 7\nvalue = [5, 2]"] ;
218 -> 224 ;
225 [label="gini = 0.0\nsamples = 2\nvalue = [0, 2]"] ;
224 -> 225 ;
226 [label="gini = 0.0\nsamples = 5\nvalue = [5, 0]"] ;
224 -> 226 ;
227 [label="X[1] <= 0.796\ngini = 0.483\nsamples = 22\nvalue = [13, 9]"] ;
217 -> 227 ;
228 [label="X[3] <= 9.0\ngini = 0.455\nsamples = 20\nvalue = [13, 7]"] ;
227 -> 228 ;
229 [label="X[2] <= 9.0\ngini = 0.32\nsamples = 10\nvalue = [8, 2]"] ;
228 -> 229 ;
230 [label="gini = 0.0\nsamples = 6\nvalue = [6, 0]"] ;
229 -> 230 ;
231 [label="X[1] <= 0.748\ngini = 0.5\nsamples = 4\nvalue = [2, 2]"] ;
229 -> 231 ;
232 [label="gini = 0.0\nsamples = 1\nvalue = [0, 1]"] ;
231 -> 232 ;
233 [label="X[0] <= 24.0\ngini = 0.444\nsamples = 3\nvalue = [2, 1]"] ;
231 -> 233 ;
234 [label="gini = 0.0\nsamples = 1\nvalue = [0, 1]"] ;
233 -> 234 ;
235 [label="gini = 0.0\nsamples = 2\nvalue = [2, 0]"] ;
233 -> 235 ;
236 [label="X[3] <= 17.0\ngini = 0.5\nsamples = 10\nvalue = [5, 5]"] ;
228 -> 236 ;
237 [label="X[1] <= 0.733\ngini = 0.32\nsamples = 5\nvalue = [1, 4]"] ;
236 -> 237 ;
238 [label="gini = 0.0\nsamples = 2\nvalue = [0, 2]"] ;
237 -> 238 ;
239 [label="X[1] <= 0.751\ngini = 0.444\nsamples = 3\nvalue = [1, 2]"] ;
237 -> 239 ;
240 [label="gini = 0.0\nsamples = 1\nvalue = [1, 0]"] ;
239 -> 240 ;
241 [label="gini = 0.0\nsamples = 2\nvalue = [0, 2]"] ;
239 -> 241 ;
242 [label="X[3] <= 26.0\ngini = 0.32\nsamples = 5\nvalue = [4, 1]"] ;
236 -> 242 ;
243 [label="gini = 0.0\nsamples = 4\nvalue = [4, 0]"] ;
242 -> 243 ;
244 [label="gini = 0.0\nsamples = 1\nvalue = [0, 1]"] ;
242 -> 244 ;
245 [label="gini = 0.0\nsamples = 2\nvalue = [0, 2]"] ;
227 -> 245 ;
246 [label="gini = 0.0\nsamples = 5\nvalue = [0, 5]"] ;
180 -> 246 ;
247 [label="gini = 0.0\nsamples = 9\nvalue = [9, 0]"] ;
179 -> 247 ;
248 [label="X[3] <= 7.0\ngini = 0.42\nsamples = 10\nvalue = [3, 7]"] ;
178 -> 248 ;
249 [label="gini = 0.0\nsamples = 1\nvalue = [1, 0]"] ;
248 -> 249 ;
250 [label="X[1] <= 0.854\ngini = 0.346\nsamples = 9\nvalue = [2, 7]"] ;
248 -> 250 ;
251 [label="gini = 0.0\nsamples = 5\nvalue = [0, 5]"] ;
250 -> 251 ;
252 [label="X[0] <= 20.5\ngini = 0.5\nsamples = 4\nvalue = [2, 2]"] ;
250 -> 252 ;
253 [label="X[2] <= 9.0\ngini = 0.444\nsamples = 3\nvalue = [2, 1]"] ;
252 -> 253 ;
254 [label="X[1] <= 0.856\ngini = 0.5\nsamples = 2\nvalue = [1, 1]"] ;
253 -> 254 ;
255 [label="gini = 0.0\nsamples = 1\nvalue = [1, 0]"] ;
254 -> 255 ;
256 [label="gini = 0.0\nsamples = 1\nvalue = [0, 1]"] ;
254 -> 256 ;
257 [label="gini = 0.0\nsamples = 1\nvalue = [1, 0]"] ;
253 -> 257 ;
258 [label="gini = 0.0\nsamples = 1\nvalue = [0, 1]"] ;
252 -> 258 ;
259 [label="X[3] <= 5.0\ngini = 0.245\nsamples = 14\nvalue = [12, 2]"] ;
177 -> 259 ;
260 [label="gini = 0.0\nsamples = 1\nvalue = [0, 1]"] ;
259 -> 260 ;
261 [label="X[3] <= 33.0\ngini = 0.142\nsamples = 13\nvalue = [12, 1]"] ;
259 -> 261 ;
262 [label="gini = 0.0\nsamples = 12\nvalue = [12, 0]"] ;
261 -> 262 ;
263 [label="gini = 0.0\nsamples = 1\nvalue = [0, 1]"] ;
261 -> 263 ;
264 [label="gini = 0.0\nsamples = 7\nvalue = [7, 0]"] ;
176 -> 264 ;
265 [label="X[1] <= 0.747\ngini = 0.473\nsamples = 1030\nvalue = [635, 395]"] ;
3 -> 265 ;
266 [label="X[0] <= 2.5\ngini = 0.455\nsamples = 793\nvalue = [516, 277]"] ;
265 -> 266 ;
267 [label="X[3] <= 77.0\ngini = 0.39\nsamples = 181\nvalue = [133, 48]"] ;
266 -> 267 ;
268 [label="X[1] <= 0.615\ngini = 0.424\nsamples = 141\nvalue = [98, 43]"] ;
267 -> 268 ;
269 [label="X[1] <= 0.575\ngini = 0.365\nsamples = 79\nvalue = [60, 19]"] ;
268 -> 269 ;
270 [label="X[1] <= 0.545\ngini = 0.431\nsamples = 51\nvalue = [35, 16]"] ;
269 -> 270 ;
271 [label="X[2] <= 36.0\ngini = 0.339\nsamples = 37\nvalue = [29, 8]"] ;
270 -> 271 ;
272 [label="X[3] <= 11.0\ngini = 0.257\nsamples = 33\nvalue = [28, 5]"] ;
271 -> 272 ;
273 [label="gini = 0.0\nsamples = 1\nvalue = [0, 1]"] ;
272 -> 273 ;
274 [label="X[1] <= 0.513\ngini = 0.219\nsamples = 32\nvalue = [28, 4]"] ;
272 -> 274 ;
275 [label="X[3] <= 47.0\ngini = 0.408\nsamples = 7\nvalue = [5, 2]"] ;
274 -> 275 ;
276 [label="X[1] <= 0.509\ngini = 0.278\nsamples = 6\nvalue = [5, 1]"] ;
275 -> 276 ;
277 [label="gini = 0.0\nsamples = 5\nvalue = [5, 0]"] ;
276 -> 277 ;
278 [label="gini = 0.0\nsamples = 1\nvalue = [0, 1]"] ;
276 -> 278 ;
279 [label="gini = 0.0\nsamples = 1\nvalue = [0, 1]"] ;
275 -> 279 ;
280 [label="X[2] <= 17.0\ngini = 0.147\nsamples = 25\nvalue = [23, 2]"] ;
274 -> 280 ;
281 [label="X[3] <= 19.0\ngini = 0.346\nsamples = 9\nvalue = [7, 2]"] ;
280 -> 281 ;
282 [label="gini = 0.0\nsamples = 3\nvalue = [3, 0]"] ;
281 -> 282 ;
283 [label="X[3] <= 29.0\ngini = 0.444\nsamples = 6\nvalue = [4, 2]"] ;
281 -> 283 ;
284 [label="X[3] <= 23.0\ngini = 0.444\nsamples = 3\nvalue = [1, 2]"] ;
283 -> 284 ;
285 [label="gini = 0.0\nsamples = 1\nvalue = [0, 1]"] ;
284 -> 285 ;
286 [label="X[2] <= 15.0\ngini = 0.5\nsamples = 2\nvalue = [1, 1]"] ;
284 -> 286 ;
287 [label="gini = 0.0\nsamples = 1\nvalue = [1, 0]"] ;
286 -> 287 ;
288 [label="gini = 0.0\nsamples = 1\nvalue = [0, 1]"] ;
286 -> 288 ;
289 [label="gini = 0.0\nsamples = 3\nvalue = [3, 0]"] ;
283 -> 289 ;
290 [label="gini = 0.0\nsamples = 16\nvalue = [16, 0]"] ;
280 -> 290 ;
291 [label="X[1] <= 0.538\ngini = 0.375\nsamples = 4\nvalue = [1, 3]"] ;
271 -> 291 ;
292 [label="gini = 0.0\nsamples = 3\nvalue = [0, 3]"] ;
291 -> 292 ;
293 [label="gini = 0.0\nsamples = 1\nvalue = [1, 0]"] ;
291 -> 293 ;
294 [label="X[2] <= 17.0\ngini = 0.49\nsamples = 14\nvalue = [6, 8]"] ;
270 -> 294 ;
295 [label="gini = 0.0\nsamples = 5\nvalue = [0, 5]"] ;
294 -> 295 ;
296 [label="X[1] <= 0.547\ngini = 0.444\nsamples = 9\nvalue = [6, 3]"] ;
294 -> 296 ;
297 [label="gini = 0.0\nsamples = 1\nvalue = [0, 1]"] ;
296 -> 297 ;
298 [label="X[2] <= 31.0\ngini = 0.375\nsamples = 8\nvalue = [6, 2]"] ;
296 -> 298 ;
299 [label="X[2] <= 23.0\ngini = 0.48\nsamples = 5\nvalue = [3, 2]"] ;
298 -> 299 ;
300 [label="gini = 0.0\nsamples = 2\nvalue = [2, 0]"] ;
299 -> 300 ;
301 [label="X[3] <= 51.0\ngini = 0.444\nsamples = 3\nvalue = [1, 2]"] ;
299 -> 301 ;
302 [label="gini = 0.0\nsamples = 1\nvalue = [0, 1]"] ;
301 -> 302 ;
303 [label="X[1] <= 0.561\ngini = 0.5\nsamples = 2\nvalue = [1, 1]"] ;
301 -> 303 ;
304 [label="gini = 0.0\nsamples = 1\nvalue = [1, 0]"] ;
303 -> 304 ;
305 [label="gini = 0.0\nsamples = 1\nvalue = [0, 1]"] ;
303 -> 305 ;
306 [label="gini = 0.0\nsamples = 3\nvalue = [3, 0]"] ;
298 -> 306 ;
307 [label="X[2] <= 18.0\ngini = 0.191\nsamples = 28\nvalue = [25, 3]"] ;
269 -> 307 ;
308 [label="gini = 0.0\nsamples = 13\nvalue = [13, 0]"] ;
307 -> 308 ;
309 [label="X[3] <= 37.0\ngini = 0.32\nsamples = 15\nvalue = [12, 3]"] ;
307 -> 309 ;
310 [label="X[2] <= 22.0\ngini = 0.48\nsamples = 5\nvalue = [3, 2]"] ;
309 -> 310 ;
311 [label="gini = 0.0\nsamples = 2\nvalue = [2, 0]"] ;
310 -> 311 ;
312 [label="X[1] <= 0.585\ngini = 0.444\nsamples = 3\nvalue = [1, 2]"] ;
310 -> 312 ;
313 [label="gini = 0.0\nsamples = 1\nvalue = [1, 0]"] ;
312 -> 313 ;
314 [label="gini = 0.0\nsamples = 2\nvalue = [0, 2]"] ;
312 -> 314 ;
315 [label="X[2] <= 22.0\ngini = 0.18\nsamples = 10\nvalue = [9, 1]"] ;
309 -> 315 ;
316 [label="X[1] <= 0.6\ngini = 0.5\nsamples = 2\nvalue = [1, 1]"] ;
315 -> 316 ;
317 [label="gini = 0.0\nsamples = 1\nvalue = [1, 0]"] ;
316 -> 317 ;
318 [label="gini = 0.0\nsamples = 1\nvalue = [0, 1]"] ;
316 -> 318 ;
319 [label="gini = 0.0\nsamples = 8\nvalue = [8, 0]"] ;
315 -> 319 ;
320 [label="X[1] <= 0.622\ngini = 0.475\nsamples = 62\nvalue = [38, 24]"] ;
268 -> 320 ;
321 [label="gini = 0.0\nsamples = 4\nvalue = [0, 4]"] ;
320 -> 321 ;
322 [label="X[2] <= 19.0\ngini = 0.452\nsamples = 58\nvalue = [38, 20]"] ;
320 -> 322 ;
323 [label="X[3] <= 36.0\ngini = 0.5\nsamples = 20\nvalue = [10, 10]"] ;
322 -> 323 ;
324 [label="X[1] <= 0.653\ngini = 0.444\nsamples = 12\nvalue = [8, 4]"] ;
323 -> 324 ;
325 [label="gini = 0.0\nsamples = 5\nvalue = [5, 0]"] ;
324 -> 325 ;
326 [label="X[2] <= 15.0\ngini = 0.49\nsamples = 7\nvalue = [3, 4]"] ;
324 -> 326 ;
327 [label="gini = 0.0\nsamples = 2\nvalue = [2, 0]"] ;
326 -> 327 ;
328 [label="X[3] <= 11.0\ngini = 0.32\nsamples = 5\nvalue = [1, 4]"] ;
326 -> 328 ;
329 [label="X[2] <= 17.0\ngini = 0.5\nsamples = 2\nvalue = [1, 1]"] ;
328 -> 329 ;
330 [label="gini = 0.0\nsamples = 1\nvalue = [1, 0]"] ;
329 -> 330 ;
331 [label="gini = 0.0\nsamples = 1\nvalue = [0, 1]"] ;
329 -> 331 ;
332 [label="gini = 0.0\nsamples = 3\nvalue = [0, 3]"] ;
328 -> 332 ;
333 [label="X[3] <= 50.0\ngini = 0.375\nsamples = 8\nvalue = [2, 6]"] ;
323 -> 333 ;
334 [label="gini = 0.0\nsamples = 6\nvalue = [0, 6]"] ;
333 -> 334 ;
335 [label="gini = 0.0\nsamples = 2\nvalue = [2, 0]"] ;
333 -> 335 ;
336 [label="X[2] <= 39.0\ngini = 0.388\nsamples = 38\nvalue = [28, 10]"] ;
322 -> 336 ;
337 [label="X[1] <= 0.723\ngini = 0.368\nsamples = 37\nvalue = [28, 9]"] ;
336 -> 337 ;
338 [label="X[1] <= 0.72\ngini = 0.42\nsamples = 30\nvalue = [21, 9]"] ;
337 -> 338 ;
339 [label="X[3] <= 56.0\ngini = 0.375\nsamples = 28\nvalue = [21, 7]"] ;
338 -> 339 ;
340 [label="X[1] <= 0.67\ngini = 0.287\nsamples = 23\nvalue = [19, 4]"] ;
339 -> 340 ;
341 [label="X[1] <= 0.634\ngini = 0.142\nsamples = 13\nvalue = [12, 1]"] ;
340 -> 341 ;
342 [label="X[1] <= 0.634\ngini = 0.375\nsamples = 4\nvalue = [3, 1]"] ;
341 -> 342 ;
343 [label="gini = 0.0\nsamples = 3\nvalue = [3, 0]"] ;
342 -> 343 ;
344 [label="gini = 0.0\nsamples = 1\nvalue = [0, 1]"] ;
342 -> 344 ;
345 [label="gini = 0.0\nsamples = 9\nvalue = [9, 0]"] ;
341 -> 345 ;
346 [label="X[1] <= 0.691\ngini = 0.42\nsamples = 10\nvalue = [7, 3]"] ;
340 -> 346 ;
347 [label="X[3] <= 34.0\ngini = 0.375\nsamples = 4\nvalue = [1, 3]"] ;
346 -> 347 ;
348 [label="gini = 0.0\nsamples = 1\nvalue = [1, 0]"] ;
347 -> 348 ;
349 [label="gini = 0.0\nsamples = 3\nvalue = [0, 3]"] ;
347 -> 349 ;
350 [label="gini = 0.0\nsamples = 6\nvalue = [6, 0]"] ;
346 -> 350 ;
351 [label="X[1] <= 0.674\ngini = 0.48\nsamples = 5\nvalue = [2, 3]"] ;
339 -> 351 ;
352 [label="gini = 0.0\nsamples = 3\nvalue = [0, 3]"] ;
351 -> 352 ;
353 [label="gini = 0.0\nsamples = 2\nvalue = [2, 0]"] ;
351 -> 353 ;
354 [label="gini = 0.0\nsamples = 2\nvalue = [0, 2]"] ;
338 -> 354 ;
355 [label="gini = 0.0\nsamples = 7\nvalue = [7, 0]"] ;
337 -> 355 ;
356 [label="gini = 0.0\nsamples = 1\nvalue = [0, 1]"] ;
336 -> 356 ;
357 [label="X[1] <= 0.575\ngini = 0.219\nsamples = 40\nvalue = [35, 5]"] ;
267 -> 357 ;
358 [label="gini = 0.0\nsamples = 14\nvalue = [14, 0]"] ;
357 -> 358 ;
359 [label="X[1] <= 0.587\ngini = 0.311\nsamples = 26\nvalue = [21, 5]"] ;
357 -> 359 ;
360 [label="gini = 0.0\nsamples = 1\nvalue = [0, 1]"] ;
359 -> 360 ;
361 [label="X[1] <= 0.724\ngini = 0.269\nsamples = 25\nvalue = [21, 4]"] ;
359 -> 361 ;
362 [label="X[3] <= 103.0\ngini = 0.227\nsamples = 23\nvalue = [20, 3]"] ;
361 -> 362 ;
363 [label="X[3] <= 100.0\ngini = 0.337\nsamples = 14\nvalue = [11, 3]"] ;
362 -> 363 ;
364 [label="X[1] <= 0.653\ngini = 0.26\nsamples = 13\nvalue = [11, 2]"] ;
363 -> 364 ;
365 [label="gini = 0.0\nsamples = 8\nvalue = [8, 0]"] ;
364 -> 365 ;
366 [label="X[1] <= 0.687\ngini = 0.48\nsamples = 5\nvalue = [3, 2]"] ;
364 -> 366 ;
367 [label="X[3] <= 81.0\ngini = 0.444\nsamples = 3\nvalue = [1, 2]"] ;
366 -> 367 ;
368 [label="gini = 0.0\nsamples = 1\nvalue = [1, 0]"] ;
367 -> 368 ;
369 [label="gini = 0.0\nsamples = 2\nvalue = [0, 2]"] ;
367 -> 369 ;
370 [label="gini = 0.0\nsamples = 2\nvalue = [2, 0]"] ;
366 -> 370 ;
371 [label="gini = 0.0\nsamples = 1\nvalue = [0, 1]"] ;
363 -> 371 ;
372 [label="gini = 0.0\nsamples = 9\nvalue = [9, 0]"] ;
362 -> 372 ;
373 [label="X[3] <= 136.0\ngini = 0.5\nsamples = 2\nvalue = [1, 1]"] ;
361 -> 373 ;
374 [label="gini = 0.0\nsamples = 1\nvalue = [1, 0]"] ;
373 -> 374 ;
375 [label="gini = 0.0\nsamples = 1\nvalue = [0, 1]"] ;
373 -> 375 ;
376 [label="X[0] <= 58.5\ngini = 0.468\nsamples = 612\nvalue = [383, 229]"] ;
266 -> 376 ;
377 [label="X[2] <= 21.0\ngini = 0.48\nsamples = 489\nvalue = [293, 196]"] ;
376 -> 377 ;
378 [label="X[0] <= 51.0\ngini = 0.452\nsamples = 229\nvalue = [150, 79]"] ;
377 -> 378 ;
379 [label="X[3] <= 11.0\ngini = 0.466\nsamples = 214\nvalue = [135, 79]"] ;
378 -> 379 ;
380 [label="X[0] <= 6.0\ngini = 0.405\nsamples = 85\nvalue = [61, 24]"] ;
379 -> 380 ;
381 [label="X[1] <= 0.518\ngini = 0.497\nsamples = 28\nvalue = [13, 15]"] ;
380 -> 381 ;
382 [label="gini = 0.0\nsamples = 3\nvalue = [3, 0]"] ;
381 -> 382 ;
383 [label="X[2] <= 19.0\ngini = 0.48\nsamples = 25\nvalue = [10, 15]"] ;
381 -> 383 ;
384 [label="X[3] <= 9.0\ngini = 0.432\nsamples = 19\nvalue = [6, 13]"] ;
383 -> 384 ;
385 [label="X[1] <= 0.625\ngini = 0.49\nsamples = 14\nvalue = [6, 8]"] ;
384 -> 385 ;
386 [label="X[1] <= 0.609\ngini = 0.469\nsamples = 8\nvalue = [5, 3]"] ;
385 -> 386 ;
387 [label="X[2] <= 15.0\ngini = 0.5\nsamples = 6\nvalue = [3, 3]"] ;
386 -> 387 ;
388 [label="gini = 0.0\nsamples = 2\nvalue = [0, 2]"] ;
387 -> 388 ;
389 [label="X[1] <= 0.556\ngini = 0.375\nsamples = 4\nvalue = [3, 1]"] ;
387 -> 389 ;
390 [label="X[1] <= 0.541\ngini = 0.5\nsamples = 2\nvalue = [1, 1]"] ;
389 -> 390 ;
391 [label="gini = 0.0\nsamples = 1\nvalue = [1, 0]"] ;
390 -> 391 ;
392 [label="gini = 0.0\nsamples = 1\nvalue = [0, 1]"] ;
390 -> 392 ;
393 [label="gini = 0.0\nsamples = 2\nvalue = [2, 0]"] ;
389 -> 393 ;
394 [label="gini = 0.0\nsamples = 2\nvalue = [2, 0]"] ;
386 -> 394 ;
395 [label="X[3] <= 7.0\ngini = 0.278\nsamples = 6\nvalue = [1, 5]"] ;
385 -> 395 ;
396 [label="gini = 0.0\nsamples = 5\nvalue = [0, 5]"] ;
395 -> 396 ;
397 [label="gini = 0.0\nsamples = 1\nvalue = [1, 0]"] ;
395 -> 397 ;
398 [label="gini = 0.0\nsamples = 5\nvalue = [0, 5]"] ;
384 -> 398 ;
399 [label="X[1] <= 0.541\ngini = 0.444\nsamples = 6\nvalue = [4, 2]"] ;
383 -> 399 ;
400 [label="gini = 0.0\nsamples = 1\nvalue = [0, 1]"] ;
399 -> 400 ;
401 [label="X[1] <= 0.68\ngini = 0.32\nsamples = 5\nvalue = [4, 1]"] ;
399 -> 401 ;
402 [label="gini = 0.0\nsamples = 3\nvalue = [3, 0]"] ;
401 -> 402 ;
403 [label="X[1] <= 0.693\ngini = 0.5\nsamples = 2\nvalue = [1, 1]"] ;
401 -> 403 ;
404 [label="gini = 0.0\nsamples = 1\nvalue = [0, 1]"] ;
403 -> 404 ;
405 [label="gini = 0.0\nsamples = 1\nvalue = [1, 0]"] ;
403 -> 405 ;
406 [label="X[1] <= 0.735\ngini = 0.266\nsamples = 57\nvalue = [48, 9]"] ;
380 -> 406 ;
407 [label="X[0] <= 36.5\ngini = 0.226\nsamples = 54\nvalue = [47, 7]"] ;
406 -> 407 ;
408 [label="X[3] <= 7.0\ngini = 0.083\nsamples = 23\nvalue = [22, 1]"] ;
407 -> 408 ;
409 [label="X[1] <= 0.609\ngini = 0.18\nsamples = 10\nvalue = [9, 1]"] ;
408 -> 409 ;
410 [label="gini = 0.0\nsamples = 5\nvalue = [5, 0]"] ;
409 -> 410 ;
411 [label="X[1] <= 0.629\ngini = 0.32\nsamples = 5\nvalue = [4, 1]"] ;
409 -> 411 ;
412 [label="gini = 0.0\nsamples = 1\nvalue = [0, 1]"] ;
411 -> 412 ;
413 [label="gini = 0.0\nsamples = 4\nvalue = [4, 0]"] ;
411 -> 413 ;
414 [label="gini = 0.0\nsamples = 13\nvalue = [13, 0]"] ;
408 -> 414 ;
415 [label="X[3] <= 7.0\ngini = 0.312\nsamples = 31\nvalue = [25, 6]"] ;
407 -> 415 ;
416 [label="gini = 0.0\nsamples = 12\nvalue = [12, 0]"] ;
415 -> 416 ;
417 [label="X[1] <= 0.689\ngini = 0.432\nsamples = 19\nvalue = [13, 6]"] ;
415 -> 417 ;
418 [label="X[0] <= 49.0\ngini = 0.375\nsamples = 16\nvalue = [12, 4]"] ;
417 -> 418 ;
419 [label="X[1] <= 0.509\ngini = 0.408\nsamples = 14\nvalue = [10, 4]"] ;
418 -> 419 ;
420 [label="gini = 0.0\nsamples = 2\nvalue = [2, 0]"] ;
419 -> 420 ;
421 [label="X[1] <= 0.516\ngini = 0.444\nsamples = 12\nvalue = [8, 4]"] ;
419 -> 421 ;
422 [label="gini = 0.0\nsamples = 1\nvalue = [0, 1]"] ;
421 -> 422 ;
423 [label="X[0] <= 46.5\ngini = 0.397\nsamples = 11\nvalue = [8, 3]"] ;
421 -> 423 ;
424 [label="X[2] <= 13.0\ngini = 0.5\nsamples = 4\nvalue = [2, 2]"] ;
423 -> 424 ;
425 [label="gini = 0.0\nsamples = 2\nvalue = [2, 0]"] ;
424 -> 425 ;
426 [label="gini = 0.0\nsamples = 2\nvalue = [0, 2]"] ;
424 -> 426 ;
427 [label="X[1] <= 0.579\ngini = 0.245\nsamples = 7\nvalue = [6, 1]"] ;
423 -> 427 ;
428 [label="X[0] <= 47.5\ngini = 0.5\nsamples = 2\nvalue = [1, 1]"] ;
427 -> 428 ;
429 [label="gini = 0.0\nsamples = 1\nvalue = [1, 0]"] ;
428 -> 429 ;
430 [label="gini = 0.0\nsamples = 1\nvalue = [0, 1]"] ;
428 -> 430 ;
431 [label="gini = 0.0\nsamples = 5\nvalue = [5, 0]"] ;
427 -> 431 ;
432 [label="gini = 0.0\nsamples = 2\nvalue = [2, 0]"] ;
418 -> 432 ;
433 [label="X[1] <= 0.717\ngini = 0.444\nsamples = 3\nvalue = [1, 2]"] ;
417 -> 433 ;
434 [label="gini = 0.0\nsamples = 2\nvalue = [0, 2]"] ;
433 -> 434 ;
435 [label="gini = 0.0\nsamples = 1\nvalue = [1, 0]"] ;
433 -> 435 ;
436 [label="X[2] <= 13.0\ngini = 0.444\nsamples = 3\nvalue = [1, 2]"] ;
406 -> 436 ;
437 [label="gini = 0.0\nsamples = 1\nvalue = [0, 1]"] ;
436 -> 437 ;
438 [label="X[1] <= 0.741\ngini = 0.5\nsamples = 2\nvalue = [1, 1]"] ;
436 -> 438 ;
439 [label="gini = 0.0\nsamples = 1\nvalue = [1, 0]"] ;
438 -> 439 ;
440 [label="gini = 0.0\nsamples = 1\nvalue = [0, 1]"] ;
438 -> 440 ;
441 [label="X[0] <= 41.5\ngini = 0.489\nsamples = 129\nvalue = [74, 55]"] ;
379 -> 441 ;
442 [label="X[0] <= 40.5\ngini = 0.444\nsamples = 84\nvalue = [56, 28]"] ;
441 -> 442 ;
443 [label="X[3] <= 23.0\ngini = 0.478\nsamples = 71\nvalue = [43, 28]"] ;
442 -> 443 ;
444 [label="X[2] <= 15.0\ngini = 0.399\nsamples = 40\nvalue = [29, 11]"] ;
443 -> 444 ;
445 [label="X[0] <= 3.5\ngini = 0.133\nsamples = 14\nvalue = [13, 1]"] ;
444 -> 445 ;
446 [label="X[1] <= 0.628\ngini = 0.5\nsamples = 2\nvalue = [1, 1]"] ;
445 -> 446 ;
447 [label="gini = 0.0\nsamples = 1\nvalue = [1, 0]"] ;
446 -> 447 ;
448 [label="gini = 0.0\nsamples = 1\nvalue = [0, 1]"] ;
446 -> 448 ;
449 [label="gini = 0.0\nsamples = 12\nvalue = [12, 0]"] ;
445 -> 449 ;
450 [label="X[1] <= 0.526\ngini = 0.473\nsamples = 26\nvalue = [16, 10]"] ;
444 -> 450 ;
451 [label="X[3] <= 15.0\ngini = 0.375\nsamples = 4\nvalue = [1, 3]"] ;
450 -> 451 ;
452 [label="gini = 0.0\nsamples = 2\nvalue = [0, 2]"] ;
451 -> 452 ;
453 [label="X[1] <= 0.519\ngini = 0.5\nsamples = 2\nvalue = [1, 1]"] ;
451 -> 453 ;
454 [label="gini = 0.0\nsamples = 1\nvalue = [1, 0]"] ;
453 -> 454 ;
455 [label="gini = 0.0\nsamples = 1\nvalue = [0, 1]"] ;
453 -> 455 ;
456 [label="X[1] <= 0.544\ngini = 0.434\nsamples = 22\nvalue = [15, 7]"] ;
450 -> 456 ;
457 [label="gini = 0.0\nsamples = 5\nvalue = [5, 0]"] ;
456 -> 457 ;
458 [label="X[1] <= 0.721\ngini = 0.484\nsamples = 17\nvalue = [10, 7]"] ;
456 -> 458 ;
459 [label="X[3] <= 21.0\ngini = 0.498\nsamples = 15\nvalue = [8, 7]"] ;
458 -> 459 ;
460 [label="X[1] <= 0.679\ngini = 0.49\nsamples = 14\nvalue = [8, 6]"] ;
459 -> 460 ;
461 [label="X[0] <= 9.0\ngini = 0.5\nsamples = 12\nvalue = [6, 6]"] ;
460 -> 461 ;
462 [label="X[2] <= 17.0\ngini = 0.444\nsamples = 6\nvalue = [4, 2]"] ;
461 -> 462 ;
463 [label="X[3] <= 15.0\ngini = 0.5\nsamples = 4\nvalue = [2, 2]"] ;
462 -> 463 ;
464 [label="X[1] <= 0.608\ngini = 0.444\nsamples = 3\nvalue = [1, 2]"] ;
463 -> 464 ;
465 [label="gini = 0.0\nsamples = 1\nvalue = [0, 1]"] ;
464 -> 465 ;
466 [label="X[3] <= 13.0\ngini = 0.5\nsamples = 2\nvalue = [1, 1]"] ;
464 -> 466 ;
467 [label="gini = 0.0\nsamples = 1\nvalue = [1, 0]"] ;
466 -> 467 ;
468 [label="gini = 0.0\nsamples = 1\nvalue = [0, 1]"] ;
466 -> 468 ;
469 [label="gini = 0.0\nsamples = 1\nvalue = [1, 0]"] ;
463 -> 469 ;
470 [label="gini = 0.0\nsamples = 2\nvalue = [2, 0]"] ;
462 -> 470 ;
471 [label="X[0] <= 22.5\ngini = 0.444\nsamples = 6\nvalue = [2, 4]"] ;
461 -> 471 ;
472 [label="gini = 0.0\nsamples = 3\nvalue = [0, 3]"] ;
471 -> 472 ;
473 [label="X[1] <= 0.658\ngini = 0.444\nsamples = 3\nvalue = [2, 1]"] ;
471 -> 473 ;
474 [label="gini = 0.0\nsamples = 2\nvalue = [2, 0]"] ;
473 -> 474 ;
475 [label="gini = 0.0\nsamples = 1\nvalue = [0, 1]"] ;
473 -> 475 ;
476 [label="gini = 0.0\nsamples = 2\nvalue = [2, 0]"] ;
460 -> 476 ;
477 [label="gini = 0.0\nsamples = 1\nvalue = [0, 1]"] ;
459 -> 477 ;
478 [label="gini = 0.0\nsamples = 2\nvalue = [2, 0]"] ;
458 -> 478 ;
479 [label="X[0] <= 24.5\ngini = 0.495\nsamples = 31\nvalue = [14, 17]"] ;
443 -> 479 ;
480 [label="X[3] <= 26.0\ngini = 0.245\nsamples = 7\nvalue = [6, 1]"] ;
479 -> 480 ;
481 [label="gini = 0.0\nsamples = 1\nvalue = [0, 1]"] ;
480 -> 481 ;
482 [label="gini = 0.0\nsamples = 6\nvalue = [6, 0]"] ;
480 -> 482 ;
483 [label="X[3] <= 38.0\ngini = 0.444\nsamples = 24\nvalue = [8, 16]"] ;
479 -> 483 ;
484 [label="X[1] <= 0.728\ngini = 0.26\nsamples = 13\nvalue = [2, 11]"] ;
483 -> 484 ;
485 [label="X[2] <= 19.0\ngini = 0.153\nsamples = 12\nvalue = [1, 11]"] ;
484 -> 485 ;
486 [label="gini = 0.0\nsamples = 11\nvalue = [0, 11]"] ;
485 -> 486 ;
487 [label="gini = 0.0\nsamples = 1\nvalue = [1, 0]"] ;
485 -> 487 ;
488 [label="gini = 0.0\nsamples = 1\nvalue = [1, 0]"] ;
484 -> 488 ;
489 [label="X[1] <= 0.601\ngini = 0.496\nsamples = 11\nvalue = [6, 5]"] ;
483 -> 489 ;
490 [label="X[0] <= 33.5\ngini = 0.245\nsamples = 7\nvalue = [6, 1]"] ;
489 -> 490 ;
491 [label="gini = 0.0\nsamples = 1\nvalue = [0, 1]"] ;
490 -> 491 ;
492 [label="gini = 0.0\nsamples = 6\nvalue = [6, 0]"] ;
490 -> 492 ;
493 [label="gini = 0.0\nsamples = 4\nvalue = [0, 4]"] ;
489 -> 493 ;
494 [label="gini = 0.0\nsamples = 13\nvalue = [13, 0]"] ;
442 -> 494 ;
495 [label="X[3] <= 17.0\ngini = 0.48\nsamples = 45\nvalue = [18, 27]"] ;
441 -> 495 ;
496 [label="X[3] <= 15.0\ngini = 0.49\nsamples = 21\nvalue = [12, 9]"] ;
495 -> 496 ;
497 [label="X[1] <= 0.564\ngini = 0.492\nsamples = 16\nvalue = [7, 9]"] ;
496 -> 497 ;
498 [label="X[1] <= 0.509\ngini = 0.469\nsamples = 8\nvalue = [5, 3]"] ;
497 -> 498 ;
499 [label="gini = 0.0\nsamples = 1\nvalue = [0, 1]"] ;
498 -> 499 ;
500 [label="X[1] <= 0.534\ngini = 0.408\nsamples = 7\nvalue = [5, 2]"] ;
498 -> 500 ;
501 [label="gini = 0.0\nsamples = 3\nvalue = [3, 0]"] ;
500 -> 501 ;
502 [label="X[1] <= 0.54\ngini = 0.5\nsamples = 4\nvalue = [2, 2]"] ;
500 -> 502 ;
503 [label="gini = 0.0\nsamples = 1\nvalue = [0, 1]"] ;
502 -> 503 ;
504 [label="X[1] <= 0.546\ngini = 0.444\nsamples = 3\nvalue = [2, 1]"] ;
502 -> 504 ;
505 [label="gini = 0.0\nsamples = 1\nvalue = [1, 0]"] ;
504 -> 505 ;
506 [label="X[1] <= 0.549\ngini = 0.5\nsamples = 2\nvalue = [1, 1]"] ;
504 -> 506 ;
507 [label="gini = 0.0\nsamples = 1\nvalue = [0, 1]"] ;
506 -> 507 ;
508 [label="gini = 0.0\nsamples = 1\nvalue = [1, 0]"] ;
506 -> 508 ;
509 [label="X[2] <= 17.0\ngini = 0.375\nsamples = 8\nvalue = [2, 6]"] ;
497 -> 509 ;
510 [label="gini = 0.0\nsamples = 3\nvalue = [0, 3]"] ;
509 -> 510 ;
511 [label="X[0] <= 44.0\ngini = 0.48\nsamples = 5\nvalue = [2, 3]"] ;
509 -> 511 ;
512 [label="X[1] <= 0.646\ngini = 0.444\nsamples = 3\nvalue = [2, 1]"] ;
511 -> 512 ;
513 [label="gini = 0.0\nsamples = 1\nvalue = [1, 0]"] ;
512 -> 513 ;
514 [label="X[1] <= 0.669\ngini = 0.5\nsamples = 2\nvalue = [1, 1]"] ;
512 -> 514 ;
515 [label="gini = 0.0\nsamples = 1\nvalue = [0, 1]"] ;
514 -> 515 ;
516 [label="gini = 0.0\nsamples = 1\nvalue = [1, 0]"] ;
514 -> 516 ;
517 [label="gini = 0.0\nsamples = 2\nvalue = [0, 2]"] ;
511 -> 517 ;
518 [label="gini = 0.0\nsamples = 5\nvalue = [5, 0]"] ;
496 -> 518 ;
519 [label="X[3] <= 19.0\ngini = 0.375\nsamples = 24\nvalue = [6, 18]"] ;
495 -> 519 ;
520 [label="gini = 0.0\nsamples = 6\nvalue = [0, 6]"] ;
519 -> 520 ;
521 [label="X[2] <= 19.0\ngini = 0.444\nsamples = 18\nvalue = [6, 12]"] ;
519 -> 521 ;
522 [label="X[0] <= 43.5\ngini = 0.49\nsamples = 14\nvalue = [6, 8]"] ;
521 -> 522 ;
523 [label="X[3] <= 29.0\ngini = 0.444\nsamples = 12\nvalue = [4, 8]"] ;
522 -> 523 ;
524 [label="X[1] <= 0.547\ngini = 0.444\nsamples = 6\nvalue = [4, 2]"] ;
523 -> 524 ;
525 [label="gini = 0.0\nsamples = 3\nvalue = [3, 0]"] ;
524 -> 525 ;
526 [label="X[1] <= 0.611\ngini = 0.444\nsamples = 3\nvalue = [1, 2]"] ;
524 -> 526 ;
527 [label="gini = 0.0\nsamples = 2\nvalue = [0, 2]"] ;
526 -> 527 ;
528 [label="gini = 0.0\nsamples = 1\nvalue = [1, 0]"] ;
526 -> 528 ;
529 [label="gini = 0.0\nsamples = 6\nvalue = [0, 6]"] ;
523 -> 529 ;
530 [label="gini = 0.0\nsamples = 2\nvalue = [2, 0]"] ;
522 -> 530 ;
531 [label="gini = 0.0\nsamples = 4\nvalue = [0, 4]"] ;
521 -> 531 ;
532 [label="gini = 0.0\nsamples = 15\nvalue = [15, 0]"] ;
378 -> 532 ;
533 [label="X[3] <= 71.0\ngini = 0.495\nsamples = 260\nvalue = [143, 117]"] ;
377 -> 533 ;
534 [label="X[0] <= 32.5\ngini = 0.5\nsamples = 207\nvalue = [106, 101]"] ;
533 -> 534 ;
535 [label="X[1] <= 0.617\ngini = 0.492\nsamples = 85\nvalue = [37, 48]"] ;
534 -> 535 ;
536 [label="X[3] <= 7.0\ngini = 0.394\nsamples = 37\nvalue = [10, 27]"] ;
535 -> 536 ;
537 [label="X[1] <= 0.607\ngini = 0.375\nsamples = 4\nvalue = [3, 1]"] ;
536 -> 537 ;
538 [label="gini = 0.0\nsamples = 3\nvalue = [3, 0]"] ;
537 -> 538 ;
539 [label="gini = 0.0\nsamples = 1\nvalue = [0, 1]"] ;
537 -> 539 ;
540 [label="X[2] <= 29.0\ngini = 0.334\nsamples = 33\nvalue = [7, 26]"] ;
536 -> 540 ;
541 [label="X[2] <= 25.0\ngini = 0.444\nsamples = 15\nvalue = [5, 10]"] ;
540 -> 541 ;
542 [label="X[1] <= 0.609\ngini = 0.355\nsamples = 13\nvalue = [3, 10]"] ;
541 -> 542 ;
543 [label="X[3] <= 11.0\ngini = 0.278\nsamples = 12\nvalue = [2, 10]"] ;
542 -> 543 ;
544 [label="X[1] <= 0.518\ngini = 0.48\nsamples = 5\nvalue = [2, 3]"] ;
543 -> 544 ;
545 [label="gini = 0.0\nsamples = 1\nvalue = [1, 0]"] ;
544 -> 545 ;
546 [label="X[2] <= 23.0\ngini = 0.375\nsamples = 4\nvalue = [1, 3]"] ;
544 -> 546 ;
547 [label="gini = 0.0\nsamples = 2\nvalue = [0, 2]"] ;
546 -> 547 ;
548 [label="X[3] <= 9.0\ngini = 0.5\nsamples = 2\nvalue = [1, 1]"] ;
546 -> 548 ;
549 [label="gini = 0.0\nsamples = 1\nvalue = [0, 1]"] ;
548 -> 549 ;
550 [label="gini = 0.0\nsamples = 1\nvalue = [1, 0]"] ;
548 -> 550 ;
551 [label="gini = 0.0\nsamples = 7\nvalue = [0, 7]"] ;
543 -> 551 ;
552 [label="gini = 0.0\nsamples = 1\nvalue = [1, 0]"] ;
542 -> 552 ;
553 [label="gini = 0.0\nsamples = 2\nvalue = [2, 0]"] ;
541 -> 553 ;
554 [label="X[3] <= 58.0\ngini = 0.198\nsamples = 18\nvalue = [2, 16]"] ;
540 -> 554 ;
555 [label="gini = 0.0\nsamples = 13\nvalue = [0, 13]"] ;
554 -> 555 ;
556 [label="X[2] <= 39.0\ngini = 0.48\nsamples = 5\nvalue = [2, 3]"] ;
554 -> 556 ;
557 [label="gini = 0.0\nsamples = 3\nvalue = [0, 3]"] ;
556 -> 557 ;
558 [label="gini = 0.0\nsamples = 2\nvalue = [2, 0]"] ;
556 -> 558 ;
559 [label="X[3] <= 41.0\ngini = 0.492\nsamples = 48\nvalue = [27, 21]"] ;
535 -> 559 ;
560 [label="X[1] <= 0.685\ngini = 0.5\nsamples = 41\nvalue = [20, 21]"] ;
559 -> 560 ;
561 [label="X[0] <= 8.5\ngini = 0.466\nsamples = 27\nvalue = [17, 10]"] ;
560 -> 561 ;
562 [label="X[1] <= 0.623\ngini = 0.32\nsamples = 15\nvalue = [12, 3]"] ;
561 -> 562 ;
563 [label="gini = 0.0\nsamples = 1\nvalue = [0, 1]"] ;
562 -> 563 ;
564 [label="X[1] <= 0.674\ngini = 0.245\nsamples = 14\nvalue = [12, 2]"] ;
562 -> 564 ;
565 [label="X[3] <= 12.0\ngini = 0.153\nsamples = 12\nvalue = [11, 1]"] ;
564 -> 565 ;
566 [label="X[2] <= 30.0\ngini = 0.444\nsamples = 3\nvalue = [2, 1]"] ;
565 -> 566 ;
567 [label="gini = 0.0\nsamples = 1\nvalue = [0, 1]"] ;
566 -> 567 ;
568 [label="gini = 0.0\nsamples = 2\nvalue = [2, 0]"] ;
566 -> 568 ;
569 [label="gini = 0.0\nsamples = 9\nvalue = [9, 0]"] ;
565 -> 569 ;
570 [label="X[1] <= 0.68\ngini = 0.5\nsamples = 2\nvalue = [1, 1]"] ;
564 -> 570 ;
571 [label="gini = 0.0\nsamples = 1\nvalue = [0, 1]"] ;
570 -> 571 ;
572 [label="gini = 0.0\nsamples = 1\nvalue = [1, 0]"] ;
570 -> 572 ;
573 [label="X[2] <= 38.0\ngini = 0.486\nsamples = 12\nvalue = [5, 7]"] ;
561 -> 573 ;
574 [label="X[2] <= 23.0\ngini = 0.494\nsamples = 9\nvalue = [5, 4]"] ;
573 -> 574 ;
575 [label="gini = 0.0\nsamples = 1\nvalue = [0, 1]"] ;
574 -> 575 ;
576 [label="X[1] <= 0.637\ngini = 0.469\nsamples = 8\nvalue = [5, 3]"] ;
574 -> 576 ;
577 [label="gini = 0.0\nsamples = 1\nvalue = [0, 1]"] ;
576 -> 577 ;
578 [label="X[0] <= 23.0\ngini = 0.408\nsamples = 7\nvalue = [5, 2]"] ;
576 -> 578 ;
579 [label="X[2] <= 33.0\ngini = 0.444\nsamples = 3\nvalue = [1, 2]"] ;
578 -> 579 ;
580 [label="gini = 0.0\nsamples = 2\nvalue = [0, 2]"] ;
579 -> 580 ;
581 [label="gini = 0.0\nsamples = 1\nvalue = [1, 0]"] ;
579 -> 581 ;
582 [label="gini = 0.0\nsamples = 4\nvalue = [4, 0]"] ;
578 -> 582 ;
583 [label="gini = 0.0\nsamples = 3\nvalue = [0, 3]"] ;
573 -> 583 ;
584 [label="X[2] <= 29.0\ngini = 0.337\nsamples = 14\nvalue = [3, 11]"] ;
560 -> 584 ;
585 [label="gini = 0.0\nsamples = 7\nvalue = [0, 7]"] ;
584 -> 585 ;
586 [label="X[3] <= 21.0\ngini = 0.49\nsamples = 7\nvalue = [3, 4]"] ;
584 -> 586 ;
587 [label="gini = 0.0\nsamples = 2\nvalue = [2, 0]"] ;
586 -> 587 ;
588 [label="X[1] <= 0.711\ngini = 0.32\nsamples = 5\nvalue = [1, 4]"] ;
586 -> 588 ;
589 [label="gini = 0.0\nsamples = 1\nvalue = [1, 0]"] ;
588 -> 589 ;
590 [label="gini = 0.0\nsamples = 4\nvalue = [0, 4]"] ;
588 -> 590 ;
591 [label="gini = 0.0\nsamples = 7\nvalue = [7, 0]"] ;
559 -> 591 ;
592 [label="X[0] <= 41.5\ngini = 0.491\nsamples = 122\nvalue = [69, 53]"] ;
534 -> 592 ;
593 [label="X[3] <= 11.0\ngini = 0.255\nsamples = 20\nvalue = [17, 3]"] ;
592 -> 593 ;
594 [label="gini = 0.0\nsamples = 1\nvalue = [0, 1]"] ;
593 -> 594 ;
595 [label="X[2] <= 29.0\ngini = 0.188\nsamples = 19\nvalue = [17, 2]"] ;
593 -> 595 ;
596 [label="X[2] <= 27.0\ngini = 0.346\nsamples = 9\nvalue = [7, 2]"] ;
595 -> 596 ;
597 [label="X[2] <= 25.0\ngini = 0.219\nsamples = 8\nvalue = [7, 1]"] ;
596 -> 597 ;
598 [label="gini = 0.0\nsamples = 5\nvalue = [5, 0]"] ;
597 -> 598 ;
599 [label="X[1] <= 0.666\ngini = 0.444\nsamples = 3\nvalue = [2, 1]"] ;
597 -> 599 ;
600 [label="gini = 0.0\nsamples = 1\nvalue = [0, 1]"] ;
599 -> 600 ;
601 [label="gini = 0.0\nsamples = 2\nvalue = [2, 0]"] ;
599 -> 601 ;
602 [label="gini = 0.0\nsamples = 1\nvalue = [0, 1]"] ;
596 -> 602 ;
603 [label="gini = 0.0\nsamples = 10\nvalue = [10, 0]"] ;
595 -> 603 ;
604 [label="X[2] <= 25.0\ngini = 0.5\nsamples = 102\nvalue = [52, 50]"] ;
592 -> 604 ;
605 [label="X[3] <= 11.0\ngini = 0.444\nsamples = 24\nvalue = [8, 16]"] ;
604 -> 605 ;
606 [label="gini = 0.0\nsamples = 1\nvalue = [1, 0]"] ;
605 -> 606 ;
607 [label="X[1] <= 0.722\ngini = 0.423\nsamples = 23\nvalue = [7, 16]"] ;
605 -> 607 ;
608 [label="X[1] <= 0.647\ngini = 0.444\nsamples = 21\nvalue = [7, 14]"] ;
607 -> 608 ;
609 [label="X[0] <= 47.0\ngini = 0.375\nsamples = 16\nvalue = [4, 12]"] ;
608 -> 609 ;
610 [label="X[1] <= 0.614\ngini = 0.469\nsamples = 8\nvalue = [3, 5]"] ;
609 -> 610 ;
611 [label="X[1] <= 0.582\ngini = 0.408\nsamples = 7\nvalue = [2, 5]"] ;
610 -> 611 ;
612 [label="X[0] <= 42.5\ngini = 0.5\nsamples = 4\nvalue = [2, 2]"] ;
611 -> 612 ;
613 [label="X[1] <= 0.516\ngini = 0.444\nsamples = 3\nvalue = [2, 1]"] ;
612 -> 613 ;
614 [label="gini = 0.0\nsamples = 1\nvalue = [0, 1]"] ;
613 -> 614 ;
615 [label="gini = 0.0\nsamples = 2\nvalue = [2, 0]"] ;
613 -> 615 ;
616 [label="gini = 0.0\nsamples = 1\nvalue = [0, 1]"] ;
612 -> 616 ;
617 [label="gini = 0.0\nsamples = 3\nvalue = [0, 3]"] ;
611 -> 617 ;
618 [label="gini = 0.0\nsamples = 1\nvalue = [1, 0]"] ;
610 -> 618 ;
619 [label="X[1] <= 0.594\ngini = 0.219\nsamples = 8\nvalue = [1, 7]"] ;
609 -> 619 ;
620 [label="X[1] <= 0.577\ngini = 0.375\nsamples = 4\nvalue = [1, 3]"] ;
619 -> 620 ;
621 [label="gini = 0.0\nsamples = 3\nvalue = [0, 3]"] ;
620 -> 621 ;
622 [label="gini = 0.0\nsamples = 1\nvalue = [1, 0]"] ;
620 -> 622 ;
623 [label="gini = 0.0\nsamples = 4\nvalue = [0, 4]"] ;
619 -> 623 ;
624 [label="X[1] <= 0.673\ngini = 0.48\nsamples = 5\nvalue = [3, 2]"] ;
608 -> 624 ;
625 [label="gini = 0.0\nsamples = 2\nvalue = [2, 0]"] ;
624 -> 625 ;
626 [label="X[1] <= 0.71\ngini = 0.444\nsamples = 3\nvalue = [1, 2]"] ;
624 -> 626 ;
627 [label="gini = 0.0\nsamples = 2\nvalue = [0, 2]"] ;
626 -> 627 ;
628 [label="gini = 0.0\nsamples = 1\nvalue = [1, 0]"] ;
626 -> 628 ;
629 [label="gini = 0.0\nsamples = 2\nvalue = [0, 2]"] ;
607 -> 629 ;
630 [label="X[0] <= 53.5\ngini = 0.492\nsamples = 78\nvalue = [44, 34]"] ;
604 -> 630 ;
631 [label="X[3] <= 67.0\ngini = 0.444\nsamples = 48\nvalue = [32, 16]"] ;
630 -> 631 ;
632 [label="X[1] <= 0.541\ngini = 0.411\nsamples = 45\nvalue = [32, 13]"] ;
631 -> 632 ;
633 [label="gini = 0.0\nsamples = 9\nvalue = [9, 0]"] ;
632 -> 633 ;
634 [label="X[1] <= 0.546\ngini = 0.461\nsamples = 36\nvalue = [23, 13]"] ;
632 -> 634 ;
635 [label="gini = 0.0\nsamples = 1\nvalue = [0, 1]"] ;
634 -> 635 ;
636 [label="X[1] <= 0.625\ngini = 0.451\nsamples = 35\nvalue = [23, 12]"] ;
634 -> 636 ;
637 [label="X[3] <= 21.0\ngini = 0.346\nsamples = 18\nvalue = [14, 4]"] ;
636 -> 637 ;
638 [label="X[0] <= 46.5\ngini = 0.48\nsamples = 5\nvalue = [2, 3]"] ;
637 -> 638 ;
639 [label="X[1] <= 0.551\ngini = 0.375\nsamples = 4\nvalue = [1, 3]"] ;
638 -> 639 ;
640 [label="gini = 0.0\nsamples = 1\nvalue = [1, 0]"] ;
639 -> 640 ;
641 [label="gini = 0.0\nsamples = 3\nvalue = [0, 3]"] ;
639 -> 641 ;
642 [label="gini = 0.0\nsamples = 1\nvalue = [1, 0]"] ;
638 -> 642 ;
643 [label="X[3] <= 29.0\ngini = 0.142\nsamples = 13\nvalue = [12, 1]"] ;
637 -> 643 ;
644 [label="X[0] <= 47.0\ngini = 0.32\nsamples = 5\nvalue = [4, 1]"] ;
643 -> 644 ;
645 [label="gini = 0.0\nsamples = 4\nvalue = [4, 0]"] ;
644 -> 645 ;
646 [label="gini = 0.0\nsamples = 1\nvalue = [0, 1]"] ;
644 -> 646 ;
647 [label="gini = 0.0\nsamples = 8\nvalue = [8, 0]"] ;
643 -> 647 ;
648 [label="X[0] <= 42.5\ngini = 0.498\nsamples = 17\nvalue = [9, 8]"] ;
636 -> 648 ;
649 [label="X[2] <= 27.0\ngini = 0.245\nsamples = 7\nvalue = [6, 1]"] ;
648 -> 649 ;
650 [label="gini = 0.0\nsamples = 1\nvalue = [0, 1]"] ;
649 -> 650 ;
651 [label="gini = 0.0\nsamples = 6\nvalue = [6, 0]"] ;
649 -> 651 ;
652 [label="X[2] <= 32.0\ngini = 0.42\nsamples = 10\nvalue = [3, 7]"] ;
648 -> 652 ;
653 [label="X[1] <= 0.7\ngini = 0.48\nsamples = 5\nvalue = [3, 2]"] ;
652 -> 653 ;
654 [label="X[1] <= 0.673\ngini = 0.375\nsamples = 4\nvalue = [3, 1]"] ;
653 -> 654 ;
655 [label="X[2] <= 27.0\ngini = 0.5\nsamples = 2\nvalue = [1, 1]"] ;
654 -> 655 ;
656 [label="gini = 0.0\nsamples = 1\nvalue = [0, 1]"] ;
655 -> 656 ;
657 [label="gini = 0.0\nsamples = 1\nvalue = [1, 0]"] ;
655 -> 657 ;
658 [label="gini = 0.0\nsamples = 2\nvalue = [2, 0]"] ;
654 -> 658 ;
659 [label="gini = 0.0\nsamples = 1\nvalue = [0, 1]"] ;
653 -> 659 ;
660 [label="gini = 0.0\nsamples = 5\nvalue = [0, 5]"] ;
652 -> 660 ;
661 [label="gini = 0.0\nsamples = 3\nvalue = [0, 3]"] ;
631 -> 661 ;
662 [label="X[3] <= 37.0\ngini = 0.48\nsamples = 30\nvalue = [12, 18]"] ;
630 -> 662 ;
663 [label="X[0] <= 55.5\ngini = 0.497\nsamples = 26\nvalue = [12, 14]"] ;
662 -> 663 ;
664 [label="gini = 0.0\nsamples = 4\nvalue = [0, 4]"] ;
663 -> 664 ;
665 [label="X[1] <= 0.665\ngini = 0.496\nsamples = 22\nvalue = [12, 10]"] ;
663 -> 665 ;
666 [label="X[1] <= 0.514\ngini = 0.499\nsamples = 19\nvalue = [9, 10]"] ;
665 -> 666 ;
667 [label="gini = 0.0\nsamples = 2\nvalue = [0, 2]"] ;
666 -> 667 ;
668 [label="X[1] <= 0.569\ngini = 0.498\nsamples = 17\nvalue = [9, 8]"] ;
666 -> 668 ;
669 [label="X[3] <= 19.0\ngini = 0.375\nsamples = 8\nvalue = [6, 2]"] ;
668 -> 669 ;
670 [label="X[1] <= 0.557\ngini = 0.5\nsamples = 4\nvalue = [2, 2]"] ;
669 -> 670 ;
671 [label="gini = 0.0\nsamples = 2\nvalue = [0, 2]"] ;
670 -> 671 ;
672 [label="gini = 0.0\nsamples = 2\nvalue = [2, 0]"] ;
670 -> 672 ;
673 [label="gini = 0.0\nsamples = 4\nvalue = [4, 0]"] ;
669 -> 673 ;
674 [label="X[3] <= 15.0\ngini = 0.444\nsamples = 9\nvalue = [3, 6]"] ;
668 -> 674 ;
675 [label="gini = 0.0\nsamples = 1\nvalue = [1, 0]"] ;
674 -> 675 ;
676 [label="X[2] <= 27.0\ngini = 0.375\nsamples = 8\nvalue = [2, 6]"] ;
674 -> 676 ;
677 [label="gini = 0.0\nsamples = 1\nvalue = [1, 0]"] ;
676 -> 677 ;
678 [label="X[1] <= 0.581\ngini = 0.245\nsamples = 7\nvalue = [1, 6]"] ;
676 -> 678 ;
679 [label="X[1] <= 0.573\ngini = 0.5\nsamples = 2\nvalue = [1, 1]"] ;
678 -> 679 ;
680 [label="gini = 0.0\nsamples = 1\nvalue = [0, 1]"] ;
679 -> 680 ;
681 [label="gini = 0.0\nsamples = 1\nvalue = [1, 0]"] ;
679 -> 681 ;
682 [label="gini = 0.0\nsamples = 5\nvalue = [0, 5]"] ;
678 -> 682 ;
683 [label="gini = 0.0\nsamples = 3\nvalue = [3, 0]"] ;
665 -> 683 ;
684 [label="gini = 0.0\nsamples = 4\nvalue = [0, 4]"] ;
662 -> 684 ;
685 [label="X[3] <= 85.0\ngini = 0.422\nsamples = 53\nvalue = [37, 16]"] ;
533 -> 685 ;
686 [label="X[0] <= 8.0\ngini = 0.124\nsamples = 15\nvalue = [14, 1]"] ;
685 -> 686 ;
687 [label="X[2] <= 35.0\ngini = 0.5\nsamples = 2\nvalue = [1, 1]"] ;
686 -> 687 ;
688 [label="gini = 0.0\nsamples = 1\nvalue = [1, 0]"] ;
687 -> 688 ;
689 [label="gini = 0.0\nsamples = 1\nvalue = [0, 1]"] ;
687 -> 689 ;
690 [label="gini = 0.0\nsamples = 13\nvalue = [13, 0]"] ;
686 -> 690 ;
691 [label="X[0] <= 55.0\ngini = 0.478\nsamples = 38\nvalue = [23, 15]"] ;
685 -> 691 ;
692 [label="X[2] <= 33.0\ngini = 0.43\nsamples = 32\nvalue = [22, 10]"] ;
691 -> 692 ;
693 [label="X[3] <= 95.0\ngini = 0.495\nsamples = 20\nvalue = [11, 9]"] ;
692 -> 693 ;
694 [label="gini = 0.0\nsamples = 3\nvalue = [3, 0]"] ;
693 -> 694 ;
695 [label="X[0] <= 41.0\ngini = 0.498\nsamples = 17\nvalue = [8, 9]"] ;
693 -> 695 ;
696 [label="X[1] <= 0.573\ngini = 0.49\nsamples = 14\nvalue = [8, 6]"] ;
695 -> 696 ;
697 [label="gini = 0.0\nsamples = 4\nvalue = [4, 0]"] ;
696 -> 697 ;
698 [label="X[2] <= 25.0\ngini = 0.48\nsamples = 10\nvalue = [4, 6]"] ;
696 -> 698 ;
699 [label="X[2] <= 23.0\ngini = 0.375\nsamples = 4\nvalue = [3, 1]"] ;
698 -> 699 ;
700 [label="X[0] <= 26.0\ngini = 0.5\nsamples = 2\nvalue = [1, 1]"] ;
699 -> 700 ;
701 [label="gini = 0.0\nsamples = 1\nvalue = [0, 1]"] ;
700 -> 701 ;
702 [label="gini = 0.0\nsamples = 1\nvalue = [1, 0]"] ;
700 -> 702 ;
703 [label="gini = 0.0\nsamples = 2\nvalue = [2, 0]"] ;
699 -> 703 ;
704 [label="X[2] <= 31.0\ngini = 0.278\nsamples = 6\nvalue = [1, 5]"] ;
698 -> 704 ;
705 [label="gini = 0.0\nsamples = 4\nvalue = [0, 4]"] ;
704 -> 705 ;
706 [label="X[0] <= 23.0\ngini = 0.5\nsamples = 2\nvalue = [1, 1]"] ;
704 -> 706 ;
707 [label="gini = 0.0\nsamples = 1\nvalue = [0, 1]"] ;
706 -> 707 ;
708 [label="gini = 0.0\nsamples = 1\nvalue = [1, 0]"] ;
706 -> 708 ;
709 [label="gini = 0.0\nsamples = 3\nvalue = [0, 3]"] ;
695 -> 709 ;
710 [label="X[0] <= 13.0\ngini = 0.153\nsamples = 12\nvalue = [11, 1]"] ;
692 -> 710 ;
711 [label="X[2] <= 38.0\ngini = 0.5\nsamples = 2\nvalue = [1, 1]"] ;
710 -> 711 ;
712 [label="gini = 0.0\nsamples = 1\nvalue = [0, 1]"] ;
711 -> 712 ;
713 [label="gini = 0.0\nsamples = 1\nvalue = [1, 0]"] ;
711 -> 713 ;
714 [label="gini = 0.0\nsamples = 10\nvalue = [10, 0]"] ;
710 -> 714 ;
715 [label="X[1] <= 0.633\ngini = 0.278\nsamples = 6\nvalue = [1, 5]"] ;
691 -> 715 ;
716 [label="gini = 0.0\nsamples = 4\nvalue = [0, 4]"] ;
715 -> 716 ;
717 [label="X[3] <= 88.0\ngini = 0.5\nsamples = 2\nvalue = [1, 1]"] ;
715 -> 717 ;
718 [label="gini = 0.0\nsamples = 1\nvalue = [0, 1]"] ;
717 -> 718 ;
719 [label="gini = 0.0\nsamples = 1\nvalue = [1, 0]"] ;
717 -> 719 ;
720 [label="X[0] <= 75.5\ngini = 0.393\nsamples = 123\nvalue = [90, 33]"] ;
376 -> 720 ;
721 [label="X[0] <= 59.5\ngini = 0.338\nsamples = 102\nvalue = [80, 22]"] ;
720 -> 721 ;
722 [label="gini = 0.0\nsamples = 10\nvalue = [10, 0]"] ;
721 -> 722 ;
723 [label="X[0] <= 62.5\ngini = 0.364\nsamples = 92\nvalue = [70, 22]"] ;
721 -> 723 ;
724 [label="gini = 0.0\nsamples = 2\nvalue = [0, 2]"] ;
723 -> 724 ;
725 [label="X[1] <= 0.718\ngini = 0.346\nsamples = 90\nvalue = [70, 20]"] ;
723 -> 725 ;
726 [label="X[1] <= 0.605\ngini = 0.372\nsamples = 81\nvalue = [61, 20]"] ;
725 -> 726 ;
727 [label="X[0] <= 74.5\ngini = 0.282\nsamples = 47\nvalue = [39, 8]"] ;
726 -> 727 ;
728 [label="X[0] <= 71.0\ngini = 0.258\nsamples = 46\nvalue = [39, 7]"] ;
727 -> 728 ;
729 [label="gini = 0.0\nsamples = 15\nvalue = [15, 0]"] ;
728 -> 729 ;
730 [label="X[2] <= 31.0\ngini = 0.35\nsamples = 31\nvalue = [24, 7]"] ;
728 -> 730 ;
731 [label="X[2] <= 23.0\ngini = 0.393\nsamples = 26\nvalue = [19, 7]"] ;
730 -> 731 ;
732 [label="X[1] <= 0.573\ngini = 0.308\nsamples = 21\nvalue = [17, 4]"] ;
731 -> 732 ;
733 [label="X[1] <= 0.528\ngini = 0.133\nsamples = 14\nvalue = [13, 1]"] ;
732 -> 733 ;
734 [label="X[1] <= 0.522\ngini = 0.32\nsamples = 5\nvalue = [4, 1]"] ;
733 -> 734 ;
735 [label="gini = 0.0\nsamples = 4\nvalue = [4, 0]"] ;
734 -> 735 ;
736 [label="gini = 0.0\nsamples = 1\nvalue = [0, 1]"] ;
734 -> 736 ;
737 [label="gini = 0.0\nsamples = 9\nvalue = [9, 0]"] ;
733 -> 737 ;
738 [label="X[3] <= 24.0\ngini = 0.49\nsamples = 7\nvalue = [4, 3]"] ;
732 -> 738 ;
739 [label="gini = 0.0\nsamples = 2\nvalue = [0, 2]"] ;
738 -> 739 ;
740 [label="X[1] <= 0.577\ngini = 0.32\nsamples = 5\nvalue = [4, 1]"] ;
738 -> 740 ;
741 [label="gini = 0.0\nsamples = 1\nvalue = [0, 1]"] ;
740 -> 741 ;
742 [label="gini = 0.0\nsamples = 4\nvalue = [4, 0]"] ;
740 -> 742 ;
743 [label="X[2] <= 27.0\ngini = 0.48\nsamples = 5\nvalue = [2, 3]"] ;
731 -> 743 ;
744 [label="gini = 0.0\nsamples = 2\nvalue = [0, 2]"] ;
743 -> 744 ;
745 [label="X[3] <= 49.0\ngini = 0.444\nsamples = 3\nvalue = [2, 1]"] ;
743 -> 745 ;
746 [label="gini = 0.0\nsamples = 2\nvalue = [2, 0]"] ;
745 -> 746 ;
747 [label="gini = 0.0\nsamples = 1\nvalue = [0, 1]"] ;
745 -> 747 ;
748 [label="gini = 0.0\nsamples = 5\nvalue = [5, 0]"] ;
730 -> 748 ;
749 [label="gini = 0.0\nsamples = 1\nvalue = [0, 1]"] ;
727 -> 749 ;
750 [label="X[0] <= 63.5\ngini = 0.457\nsamples = 34\nvalue = [22, 12]"] ;
726 -> 750 ;
751 [label="gini = 0.0\nsamples = 2\nvalue = [0, 2]"] ;
750 -> 751 ;
752 [label="X[2] <= 22.0\ngini = 0.43\nsamples = 32\nvalue = [22, 10]"] ;
750 -> 752 ;
753 [label="X[1] <= 0.641\ngini = 0.494\nsamples = 18\nvalue = [10, 8]"] ;
752 -> 753 ;
754 [label="X[1] <= 0.618\ngini = 0.444\nsamples = 9\nvalue = [3, 6]"] ;
753 -> 754 ;
755 [label="X[1] <= 0.612\ngini = 0.444\nsamples = 3\nvalue = [2, 1]"] ;
754 -> 755 ;
756 [label="gini = 0.0\nsamples = 1\nvalue = [0, 1]"] ;
755 -> 756 ;
757 [label="gini = 0.0\nsamples = 2\nvalue = [2, 0]"] ;
755 -> 757 ;
758 [label="X[2] <= 17.0\ngini = 0.278\nsamples = 6\nvalue = [1, 5]"] ;
754 -> 758 ;
759 [label="gini = 0.0\nsamples = 4\nvalue = [0, 4]"] ;
758 -> 759 ;
760 [label="X[1] <= 0.633\ngini = 0.5\nsamples = 2\nvalue = [1, 1]"] ;
758 -> 760 ;
761 [label="gini = 0.0\nsamples = 1\nvalue = [0, 1]"] ;
760 -> 761 ;
762 [label="gini = 0.0\nsamples = 1\nvalue = [1, 0]"] ;
760 -> 762 ;
763 [label="X[1] <= 0.711\ngini = 0.346\nsamples = 9\nvalue = [7, 2]"] ;
753 -> 763 ;
764 [label="X[3] <= 47.0\ngini = 0.219\nsamples = 8\nvalue = [7, 1]"] ;
763 -> 764 ;
765 [label="gini = 0.0\nsamples = 5\nvalue = [5, 0]"] ;
764 -> 765 ;
766 [label="X[2] <= 15.0\ngini = 0.444\nsamples = 3\nvalue = [2, 1]"] ;
764 -> 766 ;
767 [label="gini = 0.0\nsamples = 2\nvalue = [2, 0]"] ;
766 -> 767 ;
768 [label="gini = 0.0\nsamples = 1\nvalue = [0, 1]"] ;
766 -> 768 ;
769 [label="gini = 0.0\nsamples = 1\nvalue = [0, 1]"] ;
763 -> 769 ;
770 [label="X[1] <= 0.607\ngini = 0.245\nsamples = 14\nvalue = [12, 2]"] ;
752 -> 770 ;
771 [label="gini = 0.0\nsamples = 1\nvalue = [0, 1]"] ;
770 -> 771 ;
772 [label="X[2] <= 37.0\ngini = 0.142\nsamples = 13\nvalue = [12, 1]"] ;
770 -> 772 ;
773 [label="gini = 0.0\nsamples = 10\nvalue = [10, 0]"] ;
772 -> 773 ;
774 [label="X[3] <= 29.0\ngini = 0.444\nsamples = 3\nvalue = [2, 1]"] ;
772 -> 774 ;
775 [label="gini = 0.0\nsamples = 1\nvalue = [1, 0]"] ;
774 -> 775 ;
776 [label="X[3] <= 48.0\ngini = 0.5\nsamples = 2\nvalue = [1, 1]"] ;
774 -> 776 ;
777 [label="gini = 0.0\nsamples = 1\nvalue = [0, 1]"] ;
776 -> 777 ;
778 [label="gini = 0.0\nsamples = 1\nvalue = [1, 0]"] ;
776 -> 778 ;
779 [label="gini = 0.0\nsamples = 9\nvalue = [9, 0]"] ;
725 -> 779 ;
780 [label="X[2] <= 23.0\ngini = 0.499\nsamples = 21\nvalue = [10, 11]"] ;
720 -> 780 ;
781 [label="X[0] <= 78.0\ngini = 0.355\nsamples = 13\nvalue = [3, 10]"] ;
780 -> 781 ;
782 [label="X[2] <= 17.0\ngini = 0.278\nsamples = 12\nvalue = [2, 10]"] ;
781 -> 782 ;
783 [label="gini = 0.0\nsamples = 6\nvalue = [0, 6]"] ;
782 -> 783 ;
784 [label="X[1] <= 0.62\ngini = 0.444\nsamples = 6\nvalue = [2, 4]"] ;
782 -> 784 ;
785 [label="X[2] <= 21.0\ngini = 0.444\nsamples = 3\nvalue = [2, 1]"] ;
784 -> 785 ;
786 [label="gini = 0.0\nsamples = 2\nvalue = [2, 0]"] ;
785 -> 786 ;
787 [label="gini = 0.0\nsamples = 1\nvalue = [0, 1]"] ;
785 -> 787 ;
788 [label="gini = 0.0\nsamples = 3\nvalue = [0, 3]"] ;
784 -> 788 ;
789 [label="gini = 0.0\nsamples = 1\nvalue = [1, 0]"] ;
781 -> 789 ;
790 [label="X[2] <= 35.0\ngini = 0.219\nsamples = 8\nvalue = [7, 1]"] ;
780 -> 790 ;
791 [label="gini = 0.0\nsamples = 6\nvalue = [6, 0]"] ;
790 -> 791 ;
792 [label="X[1] <= 0.657\ngini = 0.5\nsamples = 2\nvalue = [1, 1]"] ;
790 -> 792 ;
793 [label="gini = 0.0\nsamples = 1\nvalue = [0, 1]"] ;
792 -> 793 ;
794 [label="gini = 0.0\nsamples = 1\nvalue = [1, 0]"] ;
792 -> 794 ;
795 [label="X[3] <= 109.0\ngini = 0.5\nsamples = 237\nvalue = [119, 118]"] ;
265 -> 795 ;
796 [label="X[0] <= 41.5\ngini = 0.497\nsamples = 211\nvalue = [97, 114]"] ;
795 -> 796 ;
797 [label="X[0] <= 32.5\ngini = 0.499\nsamples = 141\nvalue = [74, 67]"] ;
796 -> 797 ;
798 [label="X[0] <= 16.0\ngini = 0.495\nsamples = 113\nvalue = [51, 62]"] ;
797 -> 798 ;
799 [label="X[1] <= 0.758\ngini = 0.499\nsamples = 92\nvalue = [48, 44]"] ;
798 -> 799 ;
800 [label="X[2] <= 39.0\ngini = 0.219\nsamples = 8\nvalue = [1, 7]"] ;
799 -> 800 ;
801 [label="gini = 0.0\nsamples = 7\nvalue = [0, 7]"] ;
800 -> 801 ;
802 [label="gini = 0.0\nsamples = 1\nvalue = [1, 0]"] ;
800 -> 802 ;
803 [label="X[0] <= 9.5\ngini = 0.493\nsamples = 84\nvalue = [47, 37]"] ;
799 -> 803 ;
804 [label="X[0] <= 3.5\ngini = 0.499\nsamples = 77\nvalue = [40, 37]"] ;
803 -> 804 ;
805 [label="X[3] <= 50.0\ngini = 0.486\nsamples = 65\nvalue = [38, 27]"] ;
804 -> 805 ;
806 [label="X[3] <= 9.0\ngini = 0.498\nsamples = 43\nvalue = [20, 23]"] ;
805 -> 806 ;
807 [label="gini = 0.0\nsamples = 3\nvalue = [3, 0]"] ;
806 -> 807 ;
808 [label="X[2] <= 21.0\ngini = 0.489\nsamples = 40\nvalue = [17, 23]"] ;
806 -> 808 ;
809 [label="X[3] <= 39.0\ngini = 0.499\nsamples = 23\nvalue = [12, 11]"] ;
808 -> 809 ;
810 [label="X[2] <= 19.0\ngini = 0.475\nsamples = 18\nvalue = [11, 7]"] ;
809 -> 810 ;
811 [label="X[1] <= 0.886\ngini = 0.498\nsamples = 15\nvalue = [8, 7]"] ;
810 -> 811 ;
812 [label="X[3] <= 27.0\ngini = 0.497\nsamples = 13\nvalue = [6, 7]"] ;
811 -> 812 ;
813 [label="X[3] <= 15.0\ngini = 0.496\nsamples = 11\nvalue = [6, 5]"] ;
812 -> 813 ;
814 [label="X[1] <= 0.81\ngini = 0.444\nsamples = 6\nvalue = [2, 4]"] ;
813 -> 814 ;
815 [label="gini = 0.0\nsamples = 3\nvalue = [0, 3]"] ;
814 -> 815 ;
816 [label="X[0] <= 2.0\ngini = 0.444\nsamples = 3\nvalue = [2, 1]"] ;
814 -> 816 ;
817 [label="gini = 0.0\nsamples = 1\nvalue = [0, 1]"] ;
816 -> 817 ;
818 [label="gini = 0.0\nsamples = 2\nvalue = [2, 0]"] ;
816 -> 818 ;
819 [label="X[1] <= 0.806\ngini = 0.32\nsamples = 5\nvalue = [4, 1]"] ;
813 -> 819 ;
820 [label="gini = 0.0\nsamples = 4\nvalue = [4, 0]"] ;
819 -> 820 ;
821 [label="gini = 0.0\nsamples = 1\nvalue = [0, 1]"] ;
819 -> 821 ;
822 [label="gini = 0.0\nsamples = 2\nvalue = [0, 2]"] ;
812 -> 822 ;
823 [label="gini = 0.0\nsamples = 2\nvalue = [2, 0]"] ;
811 -> 823 ;
824 [label="gini = 0.0\nsamples = 3\nvalue = [3, 0]"] ;
810 -> 824 ;
825 [label="X[2] <= 13.0\ngini = 0.32\nsamples = 5\nvalue = [1, 4]"] ;
809 -> 825 ;
826 [label="X[3] <= 41.0\ngini = 0.5\nsamples = 2\nvalue = [1, 1]"] ;
825 -> 826 ;
827 [label="gini = 0.0\nsamples = 1\nvalue = [0, 1]"] ;
826 -> 827 ;
828 [label="gini = 0.0\nsamples = 1\nvalue = [1, 0]"] ;
826 -> 828 ;
829 [label="gini = 0.0\nsamples = 3\nvalue = [0, 3]"] ;
825 -> 829 ;
830 [label="X[2] <= 35.0\ngini = 0.415\nsamples = 17\nvalue = [5, 12]"] ;
808 -> 830 ;
831 [label="X[2] <= 28.0\ngini = 0.278\nsamples = 12\nvalue = [2, 10]"] ;
830 -> 831 ;
832 [label="X[3] <= 23.0\ngini = 0.444\nsamples = 6\nvalue = [2, 4]"] ;
831 -> 832 ;
833 [label="gini = 0.0\nsamples = 1\nvalue = [1, 0]"] ;
832 -> 833 ;
834 [label="X[3] <= 32.0\ngini = 0.32\nsamples = 5\nvalue = [1, 4]"] ;
832 -> 834 ;
835 [label="gini = 0.0\nsamples = 3\nvalue = [0, 3]"] ;
834 -> 835 ;
836 [label="X[1] <= 0.824\ngini = 0.5\nsamples = 2\nvalue = [1, 1]"] ;
834 -> 836 ;
837 [label="gini = 0.0\nsamples = 1\nvalue = [0, 1]"] ;
836 -> 837 ;
838 [label="gini = 0.0\nsamples = 1\nvalue = [1, 0]"] ;
836 -> 838 ;
839 [label="gini = 0.0\nsamples = 6\nvalue = [0, 6]"] ;
831 -> 839 ;
840 [label="X[1] <= 0.811\ngini = 0.48\nsamples = 5\nvalue = [3, 2]"] ;
830 -> 840 ;
841 [label="gini = 0.0\nsamples = 2\nvalue = [2, 0]"] ;
840 -> 841 ;
842 [label="X[1] <= 0.857\ngini = 0.444\nsamples = 3\nvalue = [1, 2]"] ;
840 -> 842 ;
843 [label="gini = 0.0\nsamples = 2\nvalue = [0, 2]"] ;
842 -> 843 ;
844 [label="gini = 0.0\nsamples = 1\nvalue = [1, 0]"] ;
842 -> 844 ;
845 [label="X[3] <= 102.0\ngini = 0.298\nsamples = 22\nvalue = [18, 4]"] ;
805 -> 845 ;
846 [label="X[3] <= 55.0\ngini = 0.18\nsamples = 20\nvalue = [18, 2]"] ;
845 -> 846 ;
847 [label="X[2] <= 34.0\ngini = 0.444\nsamples = 3\nvalue = [2, 1]"] ;
846 -> 847 ;
848 [label="gini = 0.0\nsamples = 1\nvalue = [1, 0]"] ;
847 -> 848 ;
849 [label="X[1] <= 0.767\ngini = 0.5\nsamples = 2\nvalue = [1, 1]"] ;
847 -> 849 ;
850 [label="gini = 0.0\nsamples = 1\nvalue = [1, 0]"] ;
849 -> 850 ;
851 [label="gini = 0.0\nsamples = 1\nvalue = [0, 1]"] ;
849 -> 851 ;
852 [label="X[1] <= 0.86\ngini = 0.111\nsamples = 17\nvalue = [16, 1]"] ;
846 -> 852 ;
853 [label="gini = 0.0\nsamples = 14\nvalue = [14, 0]"] ;
852 -> 853 ;
854 [label="X[1] <= 0.873\ngini = 0.444\nsamples = 3\nvalue = [2, 1]"] ;
852 -> 854 ;
855 [label="gini = 0.0\nsamples = 1\nvalue = [0, 1]"] ;
854 -> 855 ;
856 [label="gini = 0.0\nsamples = 2\nvalue = [2, 0]"] ;
854 -> 856 ;
857 [label="gini = 0.0\nsamples = 2\nvalue = [0, 2]"] ;
845 -> 857 ;
858 [label="X[3] <= 15.0\ngini = 0.278\nsamples = 12\nvalue = [2, 10]"] ;
804 -> 858 ;
859 [label="gini = 0.0\nsamples = 2\nvalue = [2, 0]"] ;
858 -> 859 ;
860 [label="gini = 0.0\nsamples = 10\nvalue = [0, 10]"] ;
858 -> 860 ;
861 [label="gini = 0.0\nsamples = 7\nvalue = [7, 0]"] ;
803 -> 861 ;
862 [label="X[1] <= 0.775\ngini = 0.245\nsamples = 21\nvalue = [3, 18]"] ;
798 -> 862 ;
863 [label="X[1] <= 0.766\ngini = 0.48\nsamples = 5\nvalue = [2, 3]"] ;
862 -> 863 ;
864 [label="gini = 0.0\nsamples = 3\nvalue = [0, 3]"] ;
863 -> 864 ;
865 [label="gini = 0.0\nsamples = 2\nvalue = [2, 0]"] ;
863 -> 865 ;
866 [label="X[3] <= 43.0\ngini = 0.117\nsamples = 16\nvalue = [1, 15]"] ;
862 -> 866 ;
867 [label="gini = 0.0\nsamples = 10\nvalue = [0, 10]"] ;
866 -> 867 ;
868 [label="X[3] <= 62.0\ngini = 0.278\nsamples = 6\nvalue = [1, 5]"] ;
866 -> 868 ;
869 [label="X[0] <= 22.5\ngini = 0.5\nsamples = 2\nvalue = [1, 1]"] ;
868 -> 869 ;
870 [label="gini = 0.0\nsamples = 1\nvalue = [0, 1]"] ;
869 -> 870 ;
871 [label="gini = 0.0\nsamples = 1\nvalue = [1, 0]"] ;
869 -> 871 ;
872 [label="gini = 0.0\nsamples = 4\nvalue = [0, 4]"] ;
868 -> 872 ;
873 [label="X[0] <= 36.5\ngini = 0.293\nsamples = 28\nvalue = [23, 5]"] ;
797 -> 873 ;
874 [label="gini = 0.0\nsamples = 15\nvalue = [15, 0]"] ;
873 -> 874 ;
875 [label="X[0] <= 40.5\ngini = 0.473\nsamples = 13\nvalue = [8, 5]"] ;
873 -> 875 ;
876 [label="X[1] <= 0.789\ngini = 0.408\nsamples = 7\nvalue = [2, 5]"] ;
875 -> 876 ;
877 [label="gini = 0.0\nsamples = 3\nvalue = [0, 3]"] ;
876 -> 877 ;
878 [label="X[2] <= 19.0\ngini = 0.5\nsamples = 4\nvalue = [2, 2]"] ;
876 -> 878 ;
879 [label="gini = 0.0\nsamples = 1\nvalue = [1, 0]"] ;
878 -> 879 ;
880 [label="X[0] <= 38.5\ngini = 0.444\nsamples = 3\nvalue = [1, 2]"] ;
878 -> 880 ;
881 [label="gini = 0.0\nsamples = 1\nvalue = [0, 1]"] ;
880 -> 881 ;
882 [label="X[3] <= 98.0\ngini = 0.5\nsamples = 2\nvalue = [1, 1]"] ;
880 -> 882 ;
883 [label="gini = 0.0\nsamples = 1\nvalue = [1, 0]"] ;
882 -> 883 ;
884 [label="gini = 0.0\nsamples = 1\nvalue = [0, 1]"] ;
882 -> 884 ;
885 [label="gini = 0.0\nsamples = 6\nvalue = [6, 0]"] ;
875 -> 885 ;
886 [label="X[1] <= 0.829\ngini = 0.441\nsamples = 70\nvalue = [23, 47]"] ;
796 -> 886 ;
887 [label="X[2] <= 35.0\ngini = 0.485\nsamples = 46\nvalue = [19, 27]"] ;
886 -> 887 ;
888 [label="X[1] <= 0.769\ngini = 0.455\nsamples = 40\nvalue = [14, 26]"] ;
887 -> 888 ;
889 [label="X[1] <= 0.76\ngini = 0.497\nsamples = 13\nvalue = [7, 6]"] ;
888 -> 889 ;
890 [label="X[2] <= 13.0\ngini = 0.408\nsamples = 7\nvalue = [2, 5]"] ;
889 -> 890 ;
891 [label="gini = 0.0\nsamples = 1\nvalue = [1, 0]"] ;
890 -> 891 ;
892 [label="X[3] <= 21.0\ngini = 0.278\nsamples = 6\nvalue = [1, 5]"] ;
890 -> 892 ;
893 [label="X[2] <= 19.0\ngini = 0.5\nsamples = 2\nvalue = [1, 1]"] ;
892 -> 893 ;
894 [label="gini = 0.0\nsamples = 1\nvalue = [0, 1]"] ;
893 -> 894 ;
895 [label="gini = 0.0\nsamples = 1\nvalue = [1, 0]"] ;
893 -> 895 ;
896 [label="gini = 0.0\nsamples = 4\nvalue = [0, 4]"] ;
892 -> 896 ;
897 [label="X[3] <= 10.0\ngini = 0.278\nsamples = 6\nvalue = [5, 1]"] ;
889 -> 897 ;
898 [label="gini = 0.0\nsamples = 1\nvalue = [0, 1]"] ;
897 -> 898 ;
899 [label="gini = 0.0\nsamples = 5\nvalue = [5, 0]"] ;
897 -> 899 ;
900 [label="X[1] <= 0.788\ngini = 0.384\nsamples = 27\nvalue = [7, 20]"] ;
888 -> 900 ;
901 [label="gini = 0.0\nsamples = 9\nvalue = [0, 9]"] ;
900 -> 901 ;
902 [label="X[1] <= 0.794\ngini = 0.475\nsamples = 18\nvalue = [7, 11]"] ;
900 -> 902 ;
903 [label="gini = 0.0\nsamples = 2\nvalue = [2, 0]"] ;
902 -> 903 ;
904 [label="X[3] <= 15.0\ngini = 0.43\nsamples = 16\nvalue = [5, 11]"] ;
902 -> 904 ;
905 [label="X[0] <= 44.5\ngini = 0.444\nsamples = 6\nvalue = [4, 2]"] ;
904 -> 905 ;
906 [label="gini = 0.0\nsamples = 1\nvalue = [0, 1]"] ;
905 -> 906 ;
907 [label="X[2] <= 17.0\ngini = 0.32\nsamples = 5\nvalue = [4, 1]"] ;
905 -> 907 ;
908 [label="gini = 0.0\nsamples = 3\nvalue = [3, 0]"] ;
907 -> 908 ;
909 [label="X[3] <= 11.0\ngini = 0.5\nsamples = 2\nvalue = [1, 1]"] ;
907 -> 909 ;
910 [label="gini = 0.0\nsamples = 1\nvalue = [0, 1]"] ;
909 -> 910 ;
911 [label="gini = 0.0\nsamples = 1\nvalue = [1, 0]"] ;
909 -> 911 ;
912 [label="X[1] <= 0.797\ngini = 0.18\nsamples = 10\nvalue = [1, 9]"] ;
904 -> 912 ;
913 [label="X[1] <= 0.795\ngini = 0.5\nsamples = 2\nvalue = [1, 1]"] ;
912 -> 913 ;
914 [label="gini = 0.0\nsamples = 1\nvalue = [0, 1]"] ;
913 -> 914 ;
915 [label="gini = 0.0\nsamples = 1\nvalue = [1, 0]"] ;
913 -> 915 ;
916 [label="gini = 0.0\nsamples = 8\nvalue = [0, 8]"] ;
912 -> 916 ;
917 [label="X[1] <= 0.755\ngini = 0.278\nsamples = 6\nvalue = [5, 1]"] ;
887 -> 917 ;
918 [label="gini = 0.0\nsamples = 1\nvalue = [0, 1]"] ;
917 -> 918 ;
919 [label="gini = 0.0\nsamples = 5\nvalue = [5, 0]"] ;
917 -> 919 ;
920 [label="X[0] <= 51.5\ngini = 0.278\nsamples = 24\nvalue = [4, 20]"] ;
886 -> 920 ;
921 [label="X[3] <= 34.0\ngini = 0.463\nsamples = 11\nvalue = [4, 7]"] ;
920 -> 921 ;
922 [label="X[2] <= 28.0\ngini = 0.5\nsamples = 8\nvalue = [4, 4]"] ;
921 -> 922 ;
923 [label="X[3] <= 22.0\ngini = 0.444\nsamples = 6\nvalue = [2, 4]"] ;
922 -> 923 ;
924 [label="X[1] <= 0.843\ngini = 0.5\nsamples = 4\nvalue = [2, 2]"] ;
923 -> 924 ;
925 [label="gini = 0.0\nsamples = 1\nvalue = [0, 1]"] ;
924 -> 925 ;
926 [label="X[3] <= 9.0\ngini = 0.444\nsamples = 3\nvalue = [2, 1]"] ;
924 -> 926 ;
927 [label="gini = 0.0\nsamples = 1\nvalue = [0, 1]"] ;
926 -> 927 ;
928 [label="gini = 0.0\nsamples = 2\nvalue = [2, 0]"] ;
926 -> 928 ;
929 [label="gini = 0.0\nsamples = 2\nvalue = [0, 2]"] ;
923 -> 929 ;
930 [label="gini = 0.0\nsamples = 2\nvalue = [2, 0]"] ;
922 -> 930 ;
931 [label="gini = 0.0\nsamples = 3\nvalue = [0, 3]"] ;
921 -> 931 ;
932 [label="gini = 0.0\nsamples = 13\nvalue = [0, 13]"] ;
920 -> 932 ;
933 [label="X[2] <= 14.0\ngini = 0.26\nsamples = 26\nvalue = [22, 4]"] ;
795 -> 933 ;
934 [label="gini = 0.0\nsamples = 1\nvalue = [0, 1]"] ;
933 -> 934 ;
935 [label="X[2] <= 41.0\ngini = 0.211\nsamples = 25\nvalue = [22, 3]"] ;
933 -> 935 ;
936 [label="X[0] <= 44.0\ngini = 0.159\nsamples = 23\nvalue = [21, 2]"] ;
935 -> 936 ;
937 [label="gini = 0.0\nsamples = 16\nvalue = [16, 0]"] ;
936 -> 937 ;
938 [label="X[1] <= 0.823\ngini = 0.408\nsamples = 7\nvalue = [5, 2]"] ;
936 -> 938 ;
939 [label="X[2] <= 33.0\ngini = 0.444\nsamples = 3\nvalue = [1, 2]"] ;
938 -> 939 ;
940 [label="gini = 0.0\nsamples = 2\nvalue = [0, 2]"] ;
939 -> 940 ;
941 [label="gini = 0.0\nsamples = 1\nvalue = [1, 0]"] ;
939 -> 941 ;
942 [label="gini = 0.0\nsamples = 4\nvalue = [4, 0]"] ;
938 -> 942 ;
943 [label="X[3] <= 136.0\ngini = 0.5\nsamples = 2\nvalue = [1, 1]"] ;
935 -> 943 ;
944 [label="gini = 0.0\nsamples = 1\nvalue = [1, 0]"] ;
943 -> 944 ;
945 [label="gini = 0.0\nsamples = 1\nvalue = [0, 1]"] ;
943 -> 945 ;
946 [label="X[1] <= 0.762\ngini = 0.491\nsamples = 1092\nvalue = [474, 618]"] ;
2 -> 946 ;
947 [label="X[0] <= 58.5\ngini = 0.5\nsamples = 730\nvalue = [362, 368]"] ;
946 -> 947 ;
948 [label="X[2] <= 151.0\ngini = 0.497\nsamples = 600\nvalue = [278, 322]"] ;
947 -> 948 ;
949 [label="X[0] <= 3.5\ngini = 0.5\nsamples = 423\nvalue = [217, 206]"] ;
948 -> 949 ;
950 [label="X[2] <= 145.0\ngini = 0.48\nsamples = 110\nvalue = [66, 44]"] ;
949 -> 950 ;
951 [label="X[2] <= 137.0\ngini = 0.484\nsamples = 107\nvalue = [63, 44]"] ;
950 -> 951 ;
952 [label="X[1] <= 0.625\ngini = 0.478\nsamples = 104\nvalue = [63, 41]"] ;
951 -> 952 ;
953 [label="X[2] <= 116.0\ngini = 0.444\nsamples = 60\nvalue = [40, 20]"] ;
952 -> 953 ;
954 [label="X[1] <= 0.616\ngini = 0.466\nsamples = 54\nvalue = [34, 20]"] ;
953 -> 954 ;
955 [label="X[2] <= 109.0\ngini = 0.486\nsamples = 48\nvalue = [28, 20]"] ;
954 -> 955 ;
956 [label="X[1] <= 0.59\ngini = 0.476\nsamples = 46\nvalue = [28, 18]"] ;
955 -> 956 ;
957 [label="X[1] <= 0.577\ngini = 0.444\nsamples = 33\nvalue = [22, 11]"] ;
956 -> 957 ;
958 [label="X[1] <= 0.571\ngini = 0.471\nsamples = 29\nvalue = [18, 11]"] ;
957 -> 958 ;
959 [label="X[1] <= 0.559\ngini = 0.444\nsamples = 27\nvalue = [18, 9]"] ;
958 -> 959 ;
960 [label="X[1] <= 0.546\ngini = 0.476\nsamples = 23\nvalue = [14, 9]"] ;
959 -> 960 ;
961 [label="X[3] <= 12.0\ngini = 0.42\nsamples = 20\nvalue = [14, 6]"] ;
960 -> 961 ;
962 [label="gini = 0.0\nsamples = 1\nvalue = [0, 1]"] ;
961 -> 962 ;
963 [label="X[2] <= 97.0\ngini = 0.388\nsamples = 19\nvalue = [14, 5]"] ;
961 -> 963 ;
964 [label="X[1] <= 0.525\ngini = 0.346\nsamples = 18\nvalue = [14, 4]"] ;
963 -> 964 ;
965 [label="X[3] <= 72.0\ngini = 0.444\nsamples = 12\nvalue = [8, 4]"] ;
964 -> 965 ;
966 [label="X[1] <= 0.52\ngini = 0.219\nsamples = 8\nvalue = [7, 1]"] ;
965 -> 966 ;
967 [label="gini = 0.0\nsamples = 6\nvalue = [6, 0]"] ;
966 -> 967 ;
968 [label="X[3] <= 46.0\ngini = 0.5\nsamples = 2\nvalue = [1, 1]"] ;
966 -> 968 ;
969 [label="gini = 0.0\nsamples = 1\nvalue = [1, 0]"] ;
968 -> 969 ;
970 [label="gini = 0.0\nsamples = 1\nvalue = [0, 1]"] ;
968 -> 970 ;
971 [label="X[3] <= 129.0\ngini = 0.375\nsamples = 4\nvalue = [1, 3]"] ;
965 -> 971 ;
972 [label="gini = 0.0\nsamples = 3\nvalue = [0, 3]"] ;
971 -> 972 ;
973 [label="gini = 0.0\nsamples = 1\nvalue = [1, 0]"] ;
971 -> 973 ;
974 [label="gini = 0.0\nsamples = 6\nvalue = [6, 0]"] ;
964 -> 974 ;
975 [label="gini = 0.0\nsamples = 1\nvalue = [0, 1]"] ;
963 -> 975 ;
976 [label="gini = 0.0\nsamples = 3\nvalue = [0, 3]"] ;
960 -> 976 ;
977 [label="gini = 0.0\nsamples = 4\nvalue = [4, 0]"] ;
959 -> 977 ;
978 [label="gini = 0.0\nsamples = 2\nvalue = [0, 2]"] ;
958 -> 978 ;
979 [label="gini = 0.0\nsamples = 4\nvalue = [4, 0]"] ;
957 -> 979 ;
980 [label="X[0] <= 1.5\ngini = 0.497\nsamples = 13\nvalue = [6, 7]"] ;
956 -> 980 ;
981 [label="X[1] <= 0.592\ngini = 0.469\nsamples = 8\nvalue = [5, 3]"] ;
980 -> 981 ;
982 [label="gini = 0.0\nsamples = 1\nvalue = [0, 1]"] ;
981 -> 982 ;
983 [label="X[1] <= 0.597\ngini = 0.408\nsamples = 7\nvalue = [5, 2]"] ;
981 -> 983 ;
984 [label="gini = 0.0\nsamples = 2\nvalue = [2, 0]"] ;
983 -> 984 ;
985 [label="X[1] <= 0.613\ngini = 0.48\nsamples = 5\nvalue = [3, 2]"] ;
983 -> 985 ;
986 [label="X[3] <= 173.0\ngini = 0.444\nsamples = 3\nvalue = [1, 2]"] ;
985 -> 986 ;
987 [label="gini = 0.0\nsamples = 2\nvalue = [0, 2]"] ;
986 -> 987 ;
988 [label="gini = 0.0\nsamples = 1\nvalue = [1, 0]"] ;
986 -> 988 ;
989 [label="gini = 0.0\nsamples = 2\nvalue = [2, 0]"] ;
985 -> 989 ;
990 [label="X[2] <= 47.0\ngini = 0.32\nsamples = 5\nvalue = [1, 4]"] ;
980 -> 990 ;
991 [label="gini = 0.0\nsamples = 1\nvalue = [1, 0]"] ;
990 -> 991 ;
992 [label="gini = 0.0\nsamples = 4\nvalue = [0, 4]"] ;
990 -> 992 ;
993 [label="gini = 0.0\nsamples = 2\nvalue = [0, 2]"] ;
955 -> 993 ;
994 [label="gini = 0.0\nsamples = 6\nvalue = [6, 0]"] ;
954 -> 994 ;
995 [label="gini = 0.0\nsamples = 6\nvalue = [6, 0]"] ;
953 -> 995 ;
996 [label="X[1] <= 0.709\ngini = 0.499\nsamples = 44\nvalue = [23, 21]"] ;
952 -> 996 ;
997 [label="X[1] <= 0.674\ngini = 0.463\nsamples = 22\nvalue = [8, 14]"] ;
996 -> 997 ;
998 [label="X[2] <= 73.0\ngini = 0.5\nsamples = 16\nvalue = [8, 8]"] ;
997 -> 998 ;
999 [label="X[1] <= 0.659\ngini = 0.444\nsamples = 9\nvalue = [3, 6]"] ;
998 -> 999 ;
1000 [label="X[1] <= 0.645\ngini = 0.245\nsamples = 7\nvalue = [1, 6]"] ;
999 -> 1000 ;
1001 [label="gini = 0.0\nsamples = 4\nvalue = [0, 4]"] ;
1000 -> 1001 ;
1002 [label="X[1] <= 0.651\ngini = 0.444\nsamples = 3\nvalue = [1, 2]"] ;
1000 -> 1002 ;
1003 [label="gini = 0.0\nsamples = 1\nvalue = [1, 0]"] ;
1002 -> 1003 ;
1004 [label="gini = 0.0\nsamples = 2\nvalue = [0, 2]"] ;
1002 -> 1004 ;
1005 [label="gini = 0.0\nsamples = 2\nvalue = [2, 0]"] ;
999 -> 1005 ;
1006 [label="X[0] <= 2.5\ngini = 0.408\nsamples = 7\nvalue = [5, 2]"] ;
998 -> 1006 ;
1007 [label="X[2] <= 90.0\ngini = 0.444\nsamples = 3\nvalue = [1, 2]"] ;
1006 -> 1007 ;
1008 [label="gini = 0.0\nsamples = 1\nvalue = [1, 0]"] ;
1007 -> 1008 ;
1009 [label="gini = 0.0\nsamples = 2\nvalue = [0, 2]"] ;
1007 -> 1009 ;
1010 [label="gini = 0.0\nsamples = 4\nvalue = [4, 0]"] ;
1006 -> 1010 ;
1011 [label="gini = 0.0\nsamples = 6\nvalue = [0, 6]"] ;
997 -> 1011 ;
1012 [label="X[3] <= 51.0\ngini = 0.434\nsamples = 22\nvalue = [15, 7]"] ;
996 -> 1012 ;
1013 [label="gini = 0.0\nsamples = 4\nvalue = [4, 0]"] ;
1012 -> 1013 ;
1014 [label="X[1] <= 0.752\ngini = 0.475\nsamples = 18\nvalue = [11, 7]"] ;
1012 -> 1014 ;
1015 [label="X[3] <= 79.0\ngini = 0.43\nsamples = 16\nvalue = [11, 5]"] ;
1014 -> 1015 ;
1016 [label="X[1] <= 0.715\ngini = 0.48\nsamples = 5\nvalue = [2, 3]"] ;
1015 -> 1016 ;
1017 [label="gini = 0.0\nsamples = 2\nvalue = [2, 0]"] ;
1016 -> 1017 ;
1018 [label="gini = 0.0\nsamples = 3\nvalue = [0, 3]"] ;
1016 -> 1018 ;
1019 [label="X[2] <= 121.0\ngini = 0.298\nsamples = 11\nvalue = [9, 2]"] ;
1015 -> 1019 ;
1020 [label="X[2] <= 83.0\ngini = 0.18\nsamples = 10\nvalue = [9, 1]"] ;
1019 -> 1020 ;
1021 [label="gini = 0.0\nsamples = 7\nvalue = [7, 0]"] ;
1020 -> 1021 ;
1022 [label="X[2] <= 95.0\ngini = 0.444\nsamples = 3\nvalue = [2, 1]"] ;
1020 -> 1022 ;
1023 [label="gini = 0.0\nsamples = 1\nvalue = [0, 1]"] ;
1022 -> 1023 ;
1024 [label="gini = 0.0\nsamples = 2\nvalue = [2, 0]"] ;
1022 -> 1024 ;
1025 [label="gini = 0.0\nsamples = 1\nvalue = [0, 1]"] ;
1019 -> 1025 ;
1026 [label="gini = 0.0\nsamples = 2\nvalue = [0, 2]"] ;
1014 -> 1026 ;
1027 [label="gini = 0.0\nsamples = 3\nvalue = [0, 3]"] ;
951 -> 1027 ;
1028 [label="gini = 0.0\nsamples = 3\nvalue = [3, 0]"] ;
950 -> 1028 ;
1029 [label="X[0] <= 4.5\ngini = 0.499\nsamples = 313\nvalue = [151, 162]"] ;
949 -> 1029 ;
1030 [label="gini = 0.0\nsamples = 5\nvalue = [0, 5]"] ;
1029 -> 1030 ;
1031 [label="X[0] <= 5.5\ngini = 0.5\nsamples = 308\nvalue = [151, 157]"] ;
1029 -> 1031 ;
1032 [label="gini = 0.0\nsamples = 4\nvalue = [4, 0]"] ;
1031 -> 1032 ;
1033 [label="X[2] <= 122.0\ngini = 0.499\nsamples = 304\nvalue = [147, 157]"] ;
1031 -> 1033 ;
1034 [label="X[2] <= 113.0\ngini = 0.498\nsamples = 280\nvalue = [131, 149]"] ;
1033 -> 1034 ;
1035 [label="X[2] <= 110.0\ngini = 0.499\nsamples = 272\nvalue = [131, 141]"] ;
1034 -> 1035 ;
1036 [label="X[1] <= 0.514\ngini = 0.499\nsamples = 269\nvalue = [128, 141]"] ;
1035 -> 1036 ;
1037 [label="X[1] <= 0.5\ngini = 0.355\nsamples = 13\nvalue = [3, 10]"] ;
1036 -> 1037 ;
1038 [label="gini = 0.0\nsamples = 2\nvalue = [2, 0]"] ;
1037 -> 1038 ;
1039 [label="X[3] <= 69.0\ngini = 0.165\nsamples = 11\nvalue = [1, 10]"] ;
1037 -> 1039 ;
1040 [label="gini = 0.0\nsamples = 8\nvalue = [0, 8]"] ;
1039 -> 1040 ;
1041 [label="X[3] <= 74.0\ngini = 0.444\nsamples = 3\nvalue = [1, 2]"] ;
1039 -> 1041 ;
1042 [label="gini = 0.0\nsamples = 1\nvalue = [1, 0]"] ;
1041 -> 1042 ;
1043 [label="gini = 0.0\nsamples = 2\nvalue = [0, 2]"] ;
1041 -> 1043 ;
1044 [label="X[1] <= 0.535\ngini = 0.5\nsamples = 256\nvalue = [125, 131]"] ;
1036 -> 1044 ;
1045 [label="X[2] <= 51.0\ngini = 0.458\nsamples = 31\nvalue = [20, 11]"] ;
1044 -> 1045 ;
1046 [label="X[0] <= 50.0\ngini = 0.245\nsamples = 7\nvalue = [1, 6]"] ;
1045 -> 1046 ;
1047 [label="gini = 0.0\nsamples = 5\nvalue = [0, 5]"] ;
1046 -> 1047 ;
1048 [label="X[2] <= 46.0\ngini = 0.5\nsamples = 2\nvalue = [1, 1]"] ;
1046 -> 1048 ;
1049 [label="gini = 0.0\nsamples = 1\nvalue = [0, 1]"] ;
1048 -> 1049 ;
1050 [label="gini = 0.0\nsamples = 1\nvalue = [1, 0]"] ;
1048 -> 1050 ;
1051 [label="X[2] <= 84.0\ngini = 0.33\nsamples = 24\nvalue = [19, 5]"] ;
1045 -> 1051 ;
1052 [label="X[2] <= 55.0\ngini = 0.117\nsamples = 16\nvalue = [15, 1]"] ;
1051 -> 1052 ;
1053 [label="X[3] <= 29.0\ngini = 0.444\nsamples = 3\nvalue = [2, 1]"] ;
1052 -> 1053 ;
1054 [label="gini = 0.0\nsamples = 1\nvalue = [0, 1]"] ;
1053 -> 1054 ;
1055 [label="gini = 0.0\nsamples = 2\nvalue = [2, 0]"] ;
1053 -> 1055 ;
1056 [label="gini = 0.0\nsamples = 13\nvalue = [13, 0]"] ;
1052 -> 1056 ;
1057 [label="X[3] <= 42.0\ngini = 0.5\nsamples = 8\nvalue = [4, 4]"] ;
1051 -> 1057 ;
1058 [label="gini = 0.0\nsamples = 3\nvalue = [0, 3]"] ;
1057 -> 1058 ;
1059 [label="X[2] <= 91.0\ngini = 0.32\nsamples = 5\nvalue = [4, 1]"] ;
1057 -> 1059 ;
1060 [label="gini = 0.0\nsamples = 1\nvalue = [0, 1]"] ;
1059 -> 1060 ;
1061 [label="gini = 0.0\nsamples = 4\nvalue = [4, 0]"] ;
1059 -> 1061 ;
1062 [label="X[0] <= 46.5\ngini = 0.498\nsamples = 225\nvalue = [105, 120]"] ;
1044 -> 1062 ;
1063 [label="X[0] <= 42.5\ngini = 0.485\nsamples = 143\nvalue = [59, 84]"] ;
1062 -> 1063 ;
1064 [label="X[3] <= 74.0\ngini = 0.5\nsamples = 103\nvalue = [50, 53]"] ;
1063 -> 1064 ;
1065 [label="X[0] <= 30.0\ngini = 0.492\nsamples = 71\nvalue = [40, 31]"] ;
1064 -> 1065 ;
1066 [label="X[0] <= 24.5\ngini = 0.49\nsamples = 42\nvalue = [18, 24]"] ;
1065 -> 1066 ;
1067 [label="X[1] <= 0.729\ngini = 0.499\nsamples = 23\nvalue = [12, 11]"] ;
1066 -> 1067 ;
1068 [label="X[1] <= 0.64\ngini = 0.48\nsamples = 20\nvalue = [12, 8]"] ;
1067 -> 1068 ;
1069 [label="X[1] <= 0.552\ngini = 0.498\nsamples = 15\nvalue = [7, 8]"] ;
1068 -> 1069 ;
1070 [label="gini = 0.0\nsamples = 3\nvalue = [3, 0]"] ;
1069 -> 1070 ;
1071 [label="X[0] <= 18.5\ngini = 0.444\nsamples = 12\nvalue = [4, 8]"] ;
1069 -> 1071 ;
1072 [label="X[0] <= 8.5\ngini = 0.32\nsamples = 10\nvalue = [2, 8]"] ;
1071 -> 1072 ;
1073 [label="X[0] <= 7.0\ngini = 0.444\nsamples = 3\nvalue = [2, 1]"] ;
1072 -> 1073 ;
1074 [label="gini = 0.0\nsamples = 1\nvalue = [0, 1]"] ;
1073 -> 1074 ;
1075 [label="gini = 0.0\nsamples = 2\nvalue = [2, 0]"] ;
1073 -> 1075 ;
1076 [label="gini = 0.0\nsamples = 7\nvalue = [0, 7]"] ;
1072 -> 1076 ;
1077 [label="gini = 0.0\nsamples = 2\nvalue = [2, 0]"] ;
1071 -> 1077 ;
1078 [label="gini = 0.0\nsamples = 5\nvalue = [5, 0]"] ;
1068 -> 1078 ;
1079 [label="gini = 0.0\nsamples = 3\nvalue = [0, 3]"] ;
1067 -> 1079 ;
1080 [label="X[2] <= 76.0\ngini = 0.432\nsamples = 19\nvalue = [6, 13]"] ;
1066 -> 1080 ;
1081 [label="X[3] <= 62.0\ngini = 0.245\nsamples = 14\nvalue = [2, 12]"] ;
1080 -> 1081 ;
1082 [label="X[1] <= 0.589\ngini = 0.153\nsamples = 12\nvalue = [1, 11]"] ;
1081 -> 1082 ;
1083 [label="X[1] <= 0.586\ngini = 0.32\nsamples = 5\nvalue = [1, 4]"] ;
1082 -> 1083 ;
1084 [label="gini = 0.0\nsamples = 4\nvalue = [0, 4]"] ;
1083 -> 1084 ;
1085 [label="gini = 0.0\nsamples = 1\nvalue = [1, 0]"] ;
1083 -> 1085 ;
1086 [label="gini = 0.0\nsamples = 7\nvalue = [0, 7]"] ;
1082 -> 1086 ;
1087 [label="X[3] <= 65.0\ngini = 0.5\nsamples = 2\nvalue = [1, 1]"] ;
1081 -> 1087 ;
1088 [label="gini = 0.0\nsamples = 1\nvalue = [1, 0]"] ;
1087 -> 1088 ;
1089 [label="gini = 0.0\nsamples = 1\nvalue = [0, 1]"] ;
1087 -> 1089 ;
1090 [label="X[3] <= 62.0\ngini = 0.32\nsamples = 5\nvalue = [4, 1]"] ;
1080 -> 1090 ;
1091 [label="gini = 0.0\nsamples = 4\nvalue = [4, 0]"] ;
1090 -> 1091 ;
1092 [label="gini = 0.0\nsamples = 1\nvalue = [0, 1]"] ;
1090 -> 1092 ;
1093 [label="X[1] <= 0.582\ngini = 0.366\nsamples = 29\nvalue = [22, 7]"] ;
1065 -> 1093 ;
1094 [label="X[1] <= 0.562\ngini = 0.5\nsamples = 8\nvalue = [4, 4]"] ;
1093 -> 1094 ;
1095 [label="X[1] <= 0.547\ngini = 0.32\nsamples = 5\nvalue = [4, 1]"] ;
1094 -> 1095 ;
1096 [label="X[1] <= 0.544\ngini = 0.5\nsamples = 2\nvalue = [1, 1]"] ;
1095 -> 1096 ;
1097 [label="gini = 0.0\nsamples = 1\nvalue = [1, 0]"] ;
1096 -> 1097 ;
1098 [label="gini = 0.0\nsamples = 1\nvalue = [0, 1]"] ;
1096 -> 1098 ;
1099 [label="gini = 0.0\nsamples = 3\nvalue = [3, 0]"] ;
1095 -> 1099 ;
1100 [label="gini = 0.0\nsamples = 3\nvalue = [0, 3]"] ;
1094 -> 1100 ;
1101 [label="X[0] <= 37.5\ngini = 0.245\nsamples = 21\nvalue = [18, 3]"] ;
1093 -> 1101 ;
1102 [label="gini = 0.0\nsamples = 11\nvalue = [11, 0]"] ;
1101 -> 1102 ;
1103 [label="X[3] <= 12.0\ngini = 0.42\nsamples = 10\nvalue = [7, 3]"] ;
1101 -> 1103 ;
1104 [label="gini = 0.0\nsamples = 1\nvalue = [0, 1]"] ;
1103 -> 1104 ;
1105 [label="X[0] <= 41.0\ngini = 0.346\nsamples = 9\nvalue = [7, 2]"] ;
1103 -> 1105 ;
1106 [label="gini = 0.0\nsamples = 4\nvalue = [4, 0]"] ;
1105 -> 1106 ;
1107 [label="X[2] <= 57.0\ngini = 0.48\nsamples = 5\nvalue = [3, 2]"] ;
1105 -> 1107 ;
1108 [label="X[1] <= 0.717\ngini = 0.444\nsamples = 3\nvalue = [1, 2]"] ;
1107 -> 1108 ;
1109 [label="gini = 0.0\nsamples = 2\nvalue = [0, 2]"] ;
1108 -> 1109 ;
1110 [label="gini = 0.0\nsamples = 1\nvalue = [1, 0]"] ;
1108 -> 1110 ;
1111 [label="gini = 0.0\nsamples = 2\nvalue = [2, 0]"] ;
1107 -> 1111 ;
1112 [label="X[0] <= 40.5\ngini = 0.43\nsamples = 32\nvalue = [10, 22]"] ;
1064 -> 1112 ;
1113 [label="X[1] <= 0.702\ngini = 0.365\nsamples = 25\nvalue = [6, 19]"] ;
1112 -> 1113 ;
1114 [label="X[0] <= 26.5\ngini = 0.188\nsamples = 19\nvalue = [2, 17]"] ;
1113 -> 1114 ;
1115 [label="X[1] <= 0.622\ngini = 0.444\nsamples = 6\nvalue = [2, 4]"] ;
1114 -> 1115 ;
1116 [label="gini = 0.0\nsamples = 2\nvalue = [2, 0]"] ;
1115 -> 1116 ;
1117 [label="gini = 0.0\nsamples = 4\nvalue = [0, 4]"] ;
1115 -> 1117 ;
1118 [label="gini = 0.0\nsamples = 13\nvalue = [0, 13]"] ;
1114 -> 1118 ;
1119 [label="X[3] <= 129.0\ngini = 0.444\nsamples = 6\nvalue = [4, 2]"] ;
1113 -> 1119 ;
1120 [label="gini = 0.0\nsamples = 2\nvalue = [0, 2]"] ;
1119 -> 1120 ;
1121 [label="gini = 0.0\nsamples = 4\nvalue = [4, 0]"] ;
1119 -> 1121 ;
1122 [label="X[2] <= 67.0\ngini = 0.49\nsamples = 7\nvalue = [4, 3]"] ;
1112 -> 1122 ;
1123 [label="gini = 0.0\nsamples = 3\nvalue = [3, 0]"] ;
1122 -> 1123 ;
1124 [label="X[2] <= 86.0\ngini = 0.375\nsamples = 4\nvalue = [1, 3]"] ;
1122 -> 1124 ;
1125 [label="gini = 0.0\nsamples = 3\nvalue = [0, 3]"] ;
1124 -> 1125 ;
1126 [label="gini = 0.0\nsamples = 1\nvalue = [1, 0]"] ;
1124 -> 1126 ;
1127 [label="X[2] <= 71.0\ngini = 0.349\nsamples = 40\nvalue = [9, 31]"] ;
1063 -> 1127 ;
1128 [label="X[1] <= 0.54\ngini = 0.198\nsamples = 27\nvalue = [3, 24]"] ;
1127 -> 1128 ;
1129 [label="X[1] <= 0.538\ngini = 0.5\nsamples = 4\nvalue = [2, 2]"] ;
1128 -> 1129 ;
1130 [label="gini = 0.0\nsamples = 2\nvalue = [0, 2]"] ;
1129 -> 1130 ;
1131 [label="gini = 0.0\nsamples = 2\nvalue = [2, 0]"] ;
1129 -> 1131 ;
1132 [label="X[3] <= 21.0\ngini = 0.083\nsamples = 23\nvalue = [1, 22]"] ;
1128 -> 1132 ;
1133 [label="X[3] <= 18.0\ngini = 0.198\nsamples = 9\nvalue = [1, 8]"] ;
1132 -> 1133 ;
1134 [label="gini = 0.0\nsamples = 6\nvalue = [0, 6]"] ;
1133 -> 1134 ;
1135 [label="X[2] <= 56.0\ngini = 0.444\nsamples = 3\nvalue = [1, 2]"] ;
1133 -> 1135 ;
1136 [label="X[1] <= 0.573\ngini = 0.5\nsamples = 2\nvalue = [1, 1]"] ;
1135 -> 1136 ;
1137 [label="gini = 0.0\nsamples = 1\nvalue = [0, 1]"] ;
1136 -> 1137 ;
1138 [label="gini = 0.0\nsamples = 1\nvalue = [1, 0]"] ;
1136 -> 1138 ;
1139 [label="gini = 0.0\nsamples = 1\nvalue = [0, 1]"] ;
1135 -> 1139 ;
1140 [label="gini = 0.0\nsamples = 14\nvalue = [0, 14]"] ;
1132 -> 1140 ;
1141 [label="X[1] <= 0.587\ngini = 0.497\nsamples = 13\nvalue = [6, 7]"] ;
1127 -> 1141 ;
1142 [label="gini = 0.0\nsamples = 3\nvalue = [0, 3]"] ;
1141 -> 1142 ;
1143 [label="X[1] <= 0.669\ngini = 0.48\nsamples = 10\nvalue = [6, 4]"] ;
1141 -> 1143 ;
1144 [label="gini = 0.0\nsamples = 4\nvalue = [4, 0]"] ;
1143 -> 1144 ;
1145 [label="X[2] <= 81.0\ngini = 0.444\nsamples = 6\nvalue = [2, 4]"] ;
1143 -> 1145 ;
1146 [label="gini = 0.0\nsamples = 4\nvalue = [0, 4]"] ;
1145 -> 1146 ;
1147 [label="gini = 0.0\nsamples = 2\nvalue = [2, 0]"] ;
1145 -> 1147 ;
1148 [label="X[1] <= 0.623\ngini = 0.493\nsamples = 82\nvalue = [46, 36]"] ;
1062 -> 1148 ;
1149 [label="X[3] <= 73.0\ngini = 0.408\nsamples = 35\nvalue = [25, 10]"] ;
1148 -> 1149 ;
1150 [label="X[3] <= 43.0\ngini = 0.476\nsamples = 23\nvalue = [14, 9]"] ;
1149 -> 1150 ;
1151 [label="X[3] <= 33.0\ngini = 0.375\nsamples = 12\nvalue = [9, 3]"] ;
1150 -> 1151 ;
1152 [label="X[1] <= 0.585\ngini = 0.5\nsamples = 6\nvalue = [3, 3]"] ;
1151 -> 1152 ;
1153 [label="X[1] <= 0.549\ngini = 0.375\nsamples = 4\nvalue = [1, 3]"] ;
1152 -> 1153 ;
1154 [label="gini = 0.0\nsamples = 1\nvalue = [1, 0]"] ;
1153 -> 1154 ;
1155 [label="gini = 0.0\nsamples = 3\nvalue = [0, 3]"] ;
1153 -> 1155 ;
1156 [label="gini = 0.0\nsamples = 2\nvalue = [2, 0]"] ;
1152 -> 1156 ;
1157 [label="gini = 0.0\nsamples = 6\nvalue = [6, 0]"] ;
1151 -> 1157 ;
1158 [label="X[3] <= 61.0\ngini = 0.496\nsamples = 11\nvalue = [5, 6]"] ;
1150 -> 1158 ;
1159 [label="gini = 0.0\nsamples = 4\nvalue = [0, 4]"] ;
1158 -> 1159 ;
1160 [label="X[3] <= 66.0\ngini = 0.408\nsamples = 7\nvalue = [5, 2]"] ;
1158 -> 1160 ;
1161 [label="gini = 0.0\nsamples = 4\nvalue = [4, 0]"] ;
1160 -> 1161 ;
1162 [label="X[1] <= 0.602\ngini = 0.444\nsamples = 3\nvalue = [1, 2]"] ;
1160 -> 1162 ;
1163 [label="gini = 0.0\nsamples = 2\nvalue = [0, 2]"] ;
1162 -> 1163 ;
1164 [label="gini = 0.0\nsamples = 1\nvalue = [1, 0]"] ;
1162 -> 1164 ;
1165 [label="X[2] <= 80.0\ngini = 0.153\nsamples = 12\nvalue = [11, 1]"] ;
1149 -> 1165 ;
1166 [label="gini = 0.0\nsamples = 9\nvalue = [9, 0]"] ;
1165 -> 1166 ;
1167 [label="X[0] <= 51.5\ngini = 0.444\nsamples = 3\nvalue = [2, 1]"] ;
1165 -> 1167 ;
1168 [label="gini = 0.0\nsamples = 2\nvalue = [2, 0]"] ;
1167 -> 1168 ;
1169 [label="gini = 0.0\nsamples = 1\nvalue = [0, 1]"] ;
1167 -> 1169 ;
1170 [label="X[1] <= 0.675\ngini = 0.494\nsamples = 47\nvalue = [21, 26]"] ;
1148 -> 1170 ;
1171 [label="X[1] <= 0.651\ngini = 0.36\nsamples = 17\nvalue = [4, 13]"] ;
1170 -> 1171 ;
1172 [label="gini = 0.0\nsamples = 5\nvalue = [0, 5]"] ;
1171 -> 1172 ;
1173 [label="X[1] <= 0.661\ngini = 0.444\nsamples = 12\nvalue = [4, 8]"] ;
1171 -> 1173 ;
1174 [label="gini = 0.0\nsamples = 3\nvalue = [3, 0]"] ;
1173 -> 1174 ;
1175 [label="X[0] <= 52.0\ngini = 0.198\nsamples = 9\nvalue = [1, 8]"] ;
1173 -> 1175 ;
1176 [label="X[0] <= 48.5\ngini = 0.444\nsamples = 3\nvalue = [1, 2]"] ;
1175 -> 1176 ;
1177 [label="gini = 0.0\nsamples = 1\nvalue = [0, 1]"] ;
1176 -> 1177 ;
1178 [label="X[3] <= 98.0\ngini = 0.5\nsamples = 2\nvalue = [1, 1]"] ;
1176 -> 1178 ;
1179 [label="gini = 0.0\nsamples = 1\nvalue = [1, 0]"] ;
1178 -> 1179 ;
1180 [label="gini = 0.0\nsamples = 1\nvalue = [0, 1]"] ;
1178 -> 1180 ;
1181 [label="gini = 0.0\nsamples = 6\nvalue = [0, 6]"] ;
1175 -> 1181 ;
1182 [label="X[3] <= 80.0\ngini = 0.491\nsamples = 30\nvalue = [17, 13]"] ;
1170 -> 1182 ;
1183 [label="X[0] <= 54.5\ngini = 0.454\nsamples = 23\nvalue = [15, 8]"] ;
1182 -> 1183 ;
1184 [label="X[0] <= 48.0\ngini = 0.219\nsamples = 8\nvalue = [7, 1]"] ;
1183 -> 1184 ;
1185 [label="gini = 0.0\nsamples = 1\nvalue = [0, 1]"] ;
1184 -> 1185 ;
1186 [label="gini = 0.0\nsamples = 7\nvalue = [7, 0]"] ;
1184 -> 1186 ;
1187 [label="X[1] <= 0.737\ngini = 0.498\nsamples = 15\nvalue = [8, 7]"] ;
1183 -> 1187 ;
1188 [label="X[3] <= 28.0\ngini = 0.48\nsamples = 10\nvalue = [4, 6]"] ;
1187 -> 1188 ;
1189 [label="gini = 0.0\nsamples = 3\nvalue = [3, 0]"] ;
1188 -> 1189 ;
1190 [label="X[2] <= 53.0\ngini = 0.245\nsamples = 7\nvalue = [1, 6]"] ;
1188 -> 1190 ;
1191 [label="X[1] <= 0.709\ngini = 0.5\nsamples = 2\nvalue = [1, 1]"] ;
1190 -> 1191 ;
1192 [label="gini = 0.0\nsamples = 1\nvalue = [1, 0]"] ;
1191 -> 1192 ;
1193 [label="gini = 0.0\nsamples = 1\nvalue = [0, 1]"] ;
1191 -> 1193 ;
1194 [label="gini = 0.0\nsamples = 5\nvalue = [0, 5]"] ;
1190 -> 1194 ;
1195 [label="X[1] <= 0.749\ngini = 0.32\nsamples = 5\nvalue = [4, 1]"] ;
1187 -> 1195 ;
1196 [label="gini = 0.0\nsamples = 4\nvalue = [4, 0]"] ;
1195 -> 1196 ;
1197 [label="gini = 0.0\nsamples = 1\nvalue = [0, 1]"] ;
1195 -> 1197 ;
1198 [label="X[1] <= 0.696\ngini = 0.408\nsamples = 7\nvalue = [2, 5]"] ;
1182 -> 1198 ;
1199 [label="gini = 0.0\nsamples = 1\nvalue = [1, 0]"] ;
1198 -> 1199 ;
1200 [label="X[2] <= 48.0\ngini = 0.278\nsamples = 6\nvalue = [1, 5]"] ;
1198 -> 1200 ;
1201 [label="X[3] <= 93.0\ngini = 0.5\nsamples = 2\nvalue = [1, 1]"] ;
1200 -> 1201 ;
1202 [label="gini = 0.0\nsamples = 1\nvalue = [0, 1]"] ;
1201 -> 1202 ;
1203 [label="gini = 0.0\nsamples = 1\nvalue = [1, 0]"] ;
1201 -> 1203 ;
1204 [label="gini = 0.0\nsamples = 4\nvalue = [0, 4]"] ;
1200 -> 1204 ;
1205 [label="gini = 0.0\nsamples = 3\nvalue = [3, 0]"] ;
1035 -> 1205 ;
1206 [label="gini = 0.0\nsamples = 8\nvalue = [0, 8]"] ;
1034 -> 1206 ;
1207 [label="X[3] <= 65.0\ngini = 0.444\nsamples = 24\nvalue = [16, 8]"] ;
1033 -> 1207 ;
1208 [label="gini = 0.0\nsamples = 8\nvalue = [8, 0]"] ;
1207 -> 1208 ;
1209 [label="X[3] <= 173.0\ngini = 0.5\nsamples = 16\nvalue = [8, 8]"] ;
1207 -> 1209 ;
1210 [label="X[2] <= 131.0\ngini = 0.473\nsamples = 13\nvalue = [5, 8]"] ;
1209 -> 1210 ;
1211 [label="X[3] <= 74.0\ngini = 0.375\nsamples = 4\nvalue = [3, 1]"] ;
1210 -> 1211 ;
1212 [label="gini = 0.0\nsamples = 1\nvalue = [0, 1]"] ;
1211 -> 1212 ;
1213 [label="gini = 0.0\nsamples = 3\nvalue = [3, 0]"] ;
1211 -> 1213 ;
1214 [label="X[3] <= 71.0\ngini = 0.346\nsamples = 9\nvalue = [2, 7]"] ;
1210 -> 1214 ;
1215 [label="gini = 0.0\nsamples = 1\nvalue = [1, 0]"] ;
1214 -> 1215 ;
1216 [label="X[3] <= 133.0\ngini = 0.219\nsamples = 8\nvalue = [1, 7]"] ;
1214 -> 1216 ;
1217 [label="gini = 0.0\nsamples = 6\nvalue = [0, 6]"] ;
1216 -> 1217 ;
1218 [label="X[3] <= 153.0\ngini = 0.5\nsamples = 2\nvalue = [1, 1]"] ;
1216 -> 1218 ;
1219 [label="gini = 0.0\nsamples = 1\nvalue = [1, 0]"] ;
1218 -> 1219 ;
1220 [label="gini = 0.0\nsamples = 1\nvalue = [0, 1]"] ;
1218 -> 1220 ;
1221 [label="gini = 0.0\nsamples = 3\nvalue = [3, 0]"] ;
1209 -> 1221 ;
1222 [label="X[2] <= 615.0\ngini = 0.452\nsamples = 177\nvalue = [61, 116]"] ;
948 -> 1222 ;
1223 [label="X[3] <= 43.0\ngini = 0.438\nsamples = 167\nvalue = [54, 113]"] ;
1222 -> 1223 ;
1224 [label="X[2] <= 275.0\ngini = 0.473\nsamples = 13\nvalue = [8, 5]"] ;
1223 -> 1224 ;
1225 [label="X[1] <= 0.61\ngini = 0.397\nsamples = 11\nvalue = [8, 3]"] ;
1224 -> 1225 ;
1226 [label="X[1] <= 0.557\ngini = 0.5\nsamples = 6\nvalue = [3, 3]"] ;
1225 -> 1226 ;
1227 [label="gini = 0.0\nsamples = 2\nvalue = [2, 0]"] ;
1226 -> 1227 ;
1228 [label="X[2] <= 189.0\ngini = 0.375\nsamples = 4\nvalue = [1, 3]"] ;
1226 -> 1228 ;
1229 [label="gini = 0.0\nsamples = 2\nvalue = [0, 2]"] ;
1228 -> 1229 ;
1230 [label="X[0] <= 49.5\ngini = 0.5\nsamples = 2\nvalue = [1, 1]"] ;
1228 -> 1230 ;
1231 [label="gini = 0.0\nsamples = 1\nvalue = [1, 0]"] ;
1230 -> 1231 ;
1232 [label="gini = 0.0\nsamples = 1\nvalue = [0, 1]"] ;
1230 -> 1232 ;
1233 [label="gini = 0.0\nsamples = 5\nvalue = [5, 0]"] ;
1225 -> 1233 ;
1234 [label="gini = 0.0\nsamples = 2\nvalue = [0, 2]"] ;
1224 -> 1234 ;
1235 [label="X[1] <= 0.706\ngini = 0.419\nsamples = 154\nvalue = [46, 108]"] ;
1223 -> 1235 ;
1236 [label="X[1] <= 0.68\ngini = 0.444\nsamples = 129\nvalue = [43, 86]"] ;
1235 -> 1236 ;
1237 [label="X[1] <= 0.621\ngini = 0.412\nsamples = 117\nvalue = [34, 83]"] ;
1236 -> 1237 ;
1238 [label="X[1] <= 0.555\ngini = 0.461\nsamples = 86\nvalue = [31, 55]"] ;
1237 -> 1238 ;
1239 [label="X[1] <= 0.503\ngini = 0.346\nsamples = 36\nvalue = [8, 28]"] ;
1238 -> 1239 ;
1240 [label="X[1] <= 0.502\ngini = 0.444\nsamples = 6\nvalue = [4, 2]"] ;
1239 -> 1240 ;
1241 [label="X[3] <= 266.0\ngini = 0.444\nsamples = 3\nvalue = [1, 2]"] ;
1240 -> 1241 ;
1242 [label="gini = 0.0\nsamples = 2\nvalue = [0, 2]"] ;
1241 -> 1242 ;
1243 [label="gini = 0.0\nsamples = 1\nvalue = [1, 0]"] ;
1241 -> 1243 ;
1244 [label="gini = 0.0\nsamples = 3\nvalue = [3, 0]"] ;
1240 -> 1244 ;
1245 [label="X[3] <= 144.0\ngini = 0.231\nsamples = 30\nvalue = [4, 26]"] ;
1239 -> 1245 ;
1246 [label="gini = 0.0\nsamples = 13\nvalue = [0, 13]"] ;
1245 -> 1246 ;
1247 [label="X[3] <= 260.0\ngini = 0.36\nsamples = 17\nvalue = [4, 13]"] ;
1245 -> 1247 ;
1248 [label="X[1] <= 0.514\ngini = 0.494\nsamples = 9\nvalue = [4, 5]"] ;
1247 -> 1248 ;
1249 [label="gini = 0.0\nsamples = 3\nvalue = [0, 3]"] ;
1248 -> 1249 ;
1250 [label="X[0] <= 14.0\ngini = 0.444\nsamples = 6\nvalue = [4, 2]"] ;
1248 -> 1250 ;
1251 [label="X[1] <= 0.546\ngini = 0.444\nsamples = 3\nvalue = [1, 2]"] ;
1250 -> 1251 ;
1252 [label="gini = 0.0\nsamples = 2\nvalue = [0, 2]"] ;
1251 -> 1252 ;
1253 [label="gini = 0.0\nsamples = 1\nvalue = [1, 0]"] ;
1251 -> 1253 ;
1254 [label="gini = 0.0\nsamples = 3\nvalue = [3, 0]"] ;
1250 -> 1254 ;
1255 [label="gini = 0.0\nsamples = 8\nvalue = [0, 8]"] ;
1247 -> 1255 ;
1256 [label="X[3] <= 61.0\ngini = 0.497\nsamples = 50\nvalue = [23, 27]"] ;
1238 -> 1256 ;
1257 [label="gini = 0.0\nsamples = 4\nvalue = [4, 0]"] ;
1256 -> 1257 ;
1258 [label="X[1] <= 0.559\ngini = 0.485\nsamples = 46\nvalue = [19, 27]"] ;
1256 -> 1258 ;
1259 [label="gini = 0.0\nsamples = 3\nvalue = [3, 0]"] ;
1258 -> 1259 ;
1260 [label="X[2] <= 163.0\ngini = 0.467\nsamples = 43\nvalue = [16, 27]"] ;
1258 -> 1260 ;
1261 [label="X[3] <= 175.0\ngini = 0.375\nsamples = 4\nvalue = [3, 1]"] ;
1260 -> 1261 ;
1262 [label="gini = 0.0\nsamples = 3\nvalue = [3, 0]"] ;
1261 -> 1262 ;
1263 [label="gini = 0.0\nsamples = 1\nvalue = [0, 1]"] ;
1261 -> 1263 ;
1264 [label="X[1] <= 0.618\ngini = 0.444\nsamples = 39\nvalue = [13, 26]"] ;
1260 -> 1264 ;
1265 [label="X[1] <= 0.589\ngini = 0.418\nsamples = 37\nvalue = [11, 26]"] ;
1264 -> 1265 ;
1266 [label="X[1] <= 0.586\ngini = 0.5\nsamples = 16\nvalue = [8, 8]"] ;
1265 -> 1266 ;
1267 [label="X[3] <= 122.0\ngini = 0.49\nsamples = 14\nvalue = [6, 8]"] ;
1266 -> 1267 ;
1268 [label="X[2] <= 189.0\ngini = 0.245\nsamples = 7\nvalue = [1, 6]"] ;
1267 -> 1268 ;
1269 [label="gini = 0.0\nsamples = 1\nvalue = [1, 0]"] ;
1268 -> 1269 ;
1270 [label="gini = 0.0\nsamples = 6\nvalue = [0, 6]"] ;
1268 -> 1270 ;
1271 [label="X[2] <= 450.0\ngini = 0.408\nsamples = 7\nvalue = [5, 2]"] ;
1267 -> 1271 ;
1272 [label="gini = 0.0\nsamples = 4\nvalue = [4, 0]"] ;
1271 -> 1272 ;
1273 [label="X[3] <= 151.0\ngini = 0.444\nsamples = 3\nvalue = [1, 2]"] ;
1271 -> 1273 ;
1274 [label="gini = 0.0\nsamples = 1\nvalue = [1, 0]"] ;
1273 -> 1274 ;
1275 [label="gini = 0.0\nsamples = 2\nvalue = [0, 2]"] ;
1273 -> 1275 ;
1276 [label="gini = 0.0\nsamples = 2\nvalue = [2, 0]"] ;
1266 -> 1276 ;
1277 [label="X[1] <= 0.6\ngini = 0.245\nsamples = 21\nvalue = [3, 18]"] ;
1265 -> 1277 ;
